{"learner":{"attributes":{"scikit_learn":"{\"_estimator_type\": \"classifier\"}"},"feature_names":[],"feature_types":[],"gradient_booster":{"model":{"gbtree_model_param":{"num_parallel_tree":"1","num_trees":"600"},"iteration_indptr":[0,1,2,3,4,5,6,7,8,9,10,11,12,13,14,15,16,17,18,19,20,21,22,23,24,25,26,27,28,29,30,31,32,33,34,35,36,37,38,39,40,41,42,43,44,45,46,47,48,49,50,51,52,53,54,55,56,57,58,59,60,61,62,63,64,65,66,67,68,69,70,71,72,73,74,75,76,77,78,79,80,81,82,83,84,85,86,87,88,89,90,91,92,93,94,95,96,97,98,99,100,101,102,103,104,105,106,107,108,109,110,111,112,113,114,115,116,117,118,119,120,121,122,123,124,125,126,127,128,129,130,131,132,133,134,135,136,137,138,139,140,141,142,143,144,145,146,147,148,149,150,151,152,153,154,155,156,157,158,159,160,161,162,163,164,165,166,167,168,169,170,171,172,173,174,175,176,177,178,179,180,181,182,183,184,185,186,187,188,189,190,191,192,193,194,195,196,197,198,199,200,201,202,203,204,205,206,207,208,209,210,211,212,213,214,215,216,217,218,219,220,221,222,223,224,225,226,227,228,229,230,231,232,233,234,235,236,237,238,239,240,241,242,243,244,245,246,247,248,249,250,251,252,253,254,255,256,257,258,259,260,261,262,263,264,265,266,267,268,269,270,271,272,273,274,275,276,277,278,279,280,281,282,283,284,285,286,287,288,289,290,291,292,293,294,295,296,297,298,299,300,301,302,303,304,305,306,307,308,309,310,311,312,313,314,315,316,317,318,319,320,321,322,323,324,325,326,327,328,329,330,331,332,333,334,335,336,337,338,339,340,341,342,343,344,345,346,347,348,349,350,351,352,353,354,355,356,357,358,359,360,361,362,363,364,365,366,367,368,369,370,371,372,373,374,375,376,377,378,379,380,381,382,383,384,385,386,387,388,389,390,391,392,393,394,395,396,397,398,399,400,401,402,403,404,405,406,407,408,409,410,411,412,413,414,415,416,417,418,419,420,421,422,423,424,425,426,427,428,429,430,431,432,433,434,435,436,437,438,439,440,441,442,443,444,445,446,447,448,449,450,451,452,453,454,455,456,457,458,459,460,461,462,463,464,465,466,467,468,469,470,471,472,473,474,475,476,477,478,479,480,481,482,483,484,485,486,487,488,489,490,491,492,493,494,495,496,497,498,499,500,501,502,503,504,505,506,507,508,509,510,511,512,513,514,515,516,517,518,519,520,521,522,523,524,525,526,527,528,529,530,531,532,533,534,535,536,537,538,539,540,541,542,543,544,545,546,547,548,549,550,551,552,553,554,555,556,557,558,559,560,561,562,563,564,565,566,567,568,569,570,571,572,573,574,575,576,577,578,579,580,581,582,583,584,585,586,587,588,589,590,591,592,593,594,595,596,597,598,599,600],"tree_info":[0,0,0,0,0,0,0,0,0,0,0,0,0,0,0,0,0,0,0,0,0,0,0,0,0,0,0,0,0,0,0,0,0,0,0,0,0,0,0,0,0,0,0,0,0,0,0,0,0,0,0,0,0,0,0,0,0,0,0,0,0,0,0,0,0,0,0,0,0,0,0,0,0,0,0,0,0,0,0,0,0,0,0,0,0,0,0,0,0,0,0,0,0,0,0,0,0,0,0,0,0,0,0,0,0,0,0,0,0,0,0,0,0,0,0,0,0,0,0,0,0,0,0,0,0,0,0,0,0,0,0,0,0,0,0,0,0,0,0,0,0,0,0,0,0,0,0,0,0,0,0,0,0,0,0,0,0,0,0,0,0,0,0,0,0,0,0,0,0,0,0,0,0,0,0,0,0,0,0,0,0,0,0,0,0,0,0,0,0,0,0,0,0,0,0,0,0,0,0,0,0,0,0,0,0,0,0,0,0,0,0,0,0,0,0,0,0,0,0,0,0,0,0,0,0,0,0,0,0,0,0,0,0,0,0,0,0,0,0,0,0,0,0,0,0,0,0,0,0,0,0,0,0,0,0,0,0,0,0,0,0,0,0,0,0,0,0,0,0,0,0,0,0,0,0,0,0,0,0,0,0,0,0,0,0,0,0,0,0,0,0,0,0,0,0,0,0,0,0,0,0,0,0,0,0,0,0,0,0,0,0,0,0,0,0,0,0,0,0,0,0,0,0,0,0,0,0,0,0,0,0,0,0,0,0,0,0,0,0,0,0,0,0,0,0,0,0,0,0,0,0,0,0,0,0,0,0,0,0,0,0,0,0,0,0,0,0,0,0,0,0,0,0,0,0,0,0,0,0,0,0,0,0,0,0,0,0,0,0,0,0,0,0,0,0,0,0,0,0,0,0,0,0,0,0,0,0,0,0,0,0,0,0,0,0,0,0,0,0,0,0,0,0,0,0,0,0,0,0,0,0,0,0,0,0,0,0,0,0,0,0,0,0,0,0,0,0,0,0,0,0,0,0,0,0,0,0,0,0,0,0,0,0,0,0,0,0,0,0,0,0,0,0,0,0,0,0,0,0,0,0,0,0,0,0,0,0,0,0,0,0,0,0,0,0,0,0,0,0,0,0,0,0,0,0,0,0,0,0,0,0,0,0,0,0,0,0,0,0,0,0,0,0,0,0,0,0,0,0,0,0,0,0,0,0,0,0,0,0,0,0,0,0,0,0,0,0,0,0,0,0,0,0,0,0,0,0,0,0,0,0,0,0,0,0,0,0,0,0,0,0,0,0,0,0,0,0,0,0,0,0,0,0,0,0,0,0,0,0,0,0,0,0,0,0,0,0,0,0,0],"trees":[{"base_weights":[8.431579E-3,-6.486022E-1,9.698873E-1,-1.1298811E0,-2.6895595E-1,5.356929E-1,1.4176112E0,-1.3878058E0,-9.2339087E-1,-4.5536616E-1,-4.700655E-2,2.4573974E-1,6.8109393E-1,-5.087461E-1,1.5518578E0,-7.046276E-2,1.4597306E-2,-1.9437626E-2,-4.9393732E-2,-1.8221758E-2,-5.027401E-2,-3.85247E-2,1.2549626E-4,1.8183215E-2,-1.6326105E-2,6.6416427E-3,3.9181527E-2,2.2756737E-2,-4.846306E-2,6.7581736E-2,8.907038E-2],"categories":[],"categories_nodes":[],"categories_segments":[],"categories_sizes":[],"default_left":[0,0,0,0,0,0,0,0,0,0,0,0,0,0,0,0,0,0,0,0,0,0,0,0,0,0,0,0,0,0,0],"id":0,"left_children":[1,3,5,7,9,11,13,15,17,19,21,23,25,27,29,-1,-1,-1,-1,-1,-1,-1,-1,-1,-1,-1,-1,-1,-1,-1,-1],"loss_changes":[8.3263196E2,1.4276187E2,1.0325787E2,1.7091217E1,1.8142742E1,1.1352592E1,6.8757385E1,5.866089E0,6.324066E0,1.1564049E1,7.2214613E0,6.3828797E0,1.0094902E1,8.3759E0,8.896301E0,0E0,0E0,0E0,0E0,0E0,0E0,0E0,0E0,0E0,0E0,0E0,0E0,0E0,0E0,0E0,0E0],"parents":[2147483647,0,0,1,1,2,2,3,3,4,4,5,5,6,6,7,7,8,8,9,9,10,10,11,11,12,12,13,13,14,14],"right_children":[2,4,6,8,10,12,14,16,18,20,22,24,26,28,30,-1,-1,-1,-1,-1,-1,-1,-1,-1,-1,-1,-1,-1,-1,-1,-1],"split_conditions":[1.0640792E-3,-2.7413657E-3,5.016113E-3,-6.5428712E-3,-4.4770446E-4,2.0151632E-3,1E0,-2.901974E-3,6.817044E-3,6.4463973E-1,-1.4365079E-3,1.8441551E-3,1E0,4.390418E-3,9.630525E-3,-7.046276E-2,1.4597306E-2,-1.9437626E-2,-4.9393732E-2,-1.8221758E-2,-5.027401E-2,-3.85247E-2,1.2549626E-4,1.8183215E-2,-1.6326105E-2,6.6416427E-3,3.9181527E-2,2.2756737E-2,-4.846306E-2,6.7581736E-2,8.907038E-2],"split_indices":[9,9,9,9,9,9,12,10,1,0,10,9,12,10,9,0,0,0,0,0,0,0,0,0,0,0,0,0,0,0,0],"split_type":[0,0,0,0,0,0,0,0,0,0,0,0,0,0,0,0,0,0,0,0,0,0,0,0,0,0,0,0,0,0,0],"sum_hessian":[1.3160669E3,7.8199634E2,5.340705E2,3.439692E2,4.3802716E2,2.7224692E2,2.618236E2,1.5039346E2,1.9357574E2,2.3750255E2,2.0052461E2,9.182439E1,1.8042252E2,1.6875834E1,2.4494777E2,1.4865623E2,1.7372181E0,2.159114E1,1.719846E2,2.0523991E2,3.2262623E1,1.19123535E1,1.8861226E2,7.64376E1,1.5386789E1,2.8788187E1,1.5163432E2,5.4598284E0,1.1416005E1,1.3451031E2,1.1043744E2],"tree_param":{"num_deleted":"0","num_feature":"14","num_nodes":"31","size_leaf_vector":"1"}},{"base_weights":[2.522744E-3,-5.785724E-1,9.5696247E-1,-1.159065E0,-2.9886526E-1,6.32683E-1,1.4111121E0,-7.762026E-1,-1.2783605E0,5.0497764E-1,-3.9050862E-1,7.4981546E-1,-1.48756895E-2,-7.282151E-1,1.5330015E0,-4.0915914E-2,3.952023E-2,-7.521412E-2,-5.2844554E-2,-3.8813017E-3,3.8262986E-2,-2.8541848E-2,-4.958302E-3,1.1890329E-2,4.2011943E-2,6.851912E-2,-5.0169984E-3,-7.630606E-2,9.141277E-3,7.8385636E-2,1.8277228E-2],"categories":[],"categories_nodes":[],"categories_segments":[],"categories_sizes":[],"default_left":[0,0,0,0,0,0,0,0,0,0,0,0,0,0,0,0,0,0,0,0,0,0,0,0,0,0,0,0,0,0,0],"id":1,"left_children":[1,3,5,7,9,11,13,15,17,19,21,23,25,27,29,-1,-1,-1,-1,-1,-1,-1,-1,-1,-1,-1,-1,-1,-1,-1,-1],"loss_changes":[7.335394E2,1.3313422E2,7.281833E1,1.120108E1,4.116485E1,2.2297485E1,5.527426E1,4.9992714E0,8.51712E0,8.755879E0,2.6200035E1,1.1320587E1,5.5818906E0,8.910103E0,7.40271E0,0E0,0E0,0E0,0E0,0E0,0E0,0E0,0E0,0E0,0E0,0E0,0E0,0E0,0E0,0E0,0E0],"parents":[2147483647,0,0,1,1,2,2,3,3,4,4,5,5,6,6,7,7,8,8,9,9,10,10,11,11,12,12,13,13,14,14],"right_children":[2,4,6,8,10,12,14,16,18,20,22,24,26,28,30,-1,-1,-1,-1,-1,-1,-1,-1,-1,-1,-1,-1,-1,-1,-1,-1],"split_conditions":[1.1939966E-3,-3.4286836E-3,4.7778366E-3,-1.064766E-3,-2.6742536E-1,5.0653756E-2,1E0,3.4545454E-1,-4.5652995E-3,2E0,-2.5790068E-4,1E0,5.2710474E-1,7.328495E-1,2.9E1,-4.0915914E-2,3.952023E-2,-7.521412E-2,-5.2844554E-2,-3.8813017E-3,3.8262986E-2,-2.8541848E-2,-4.958302E-3,1.1890329E-2,4.2011943E-2,6.851912E-2,-5.0169984E-3,-7.630606E-2,9.141277E-3,7.8385636E-2,1.8277228E-2],"split_indices":[10,10,10,11,6,6,12,0,8,12,10,12,0,7,13,0,0,0,0,0,0,0,0,0,0,0,0,0,0,0,0],"split_type":[0,0,0,0,0,0,0,0,0,0,0,0,0,0,0,0,0,0,0,0,0,0,0,0,0,0,0,0,0,0,0],"sum_hessian":[1.3205992E3,8.210873E2,4.9951187E2,2.6596686E2,5.551204E2,2.9282047E2,2.0669142E2,6.49679E1,2.0099896E2,5.634901E1,4.9877142E2,2.4783362E2,4.4986843E1,1.0873426E1,1.95818E2,6.3732224E1,1.2356844E0,9.6631996E1,1.0436697E2,1.7617207E1,3.8731804E1,3.0748953E2,1.912819E2,3.774397E1,2.1008965E2,1.740539E0,4.3246307E1,5.436713E0,5.436713E0,1.8983104E2,5.98695E0],"tree_param":{"num_deleted":"0","num_feature":"14","num_nodes":"31","size_leaf_vector":"1"}},{"base_weights":[5.8383733E-4,-5.466466E-1,9.474901E-1,-1.0433819E0,-2.1873449E-1,5.258911E-1,1.2830673E0,-1.3639495E0,-8.697075E-1,-3.4717938E-1,1.0575098E-1,-1.4979167E-1,6.060003E-1,-3.671497E-1,1.400133E0,-7.2544865E-2,-5.6217205E-2,-3.5181493E-2,-5.2625667E-2,-2.2228085E-2,2.434918E-3,2.3034588E-2,-5.2799867E-3,6.209082E-3,-5.1415432E-2,3.7211035E-3,3.537799E-2,4.2188954E-2,-4.0638026E-2,6.0599204E-2,8.0866404E-2],"categories":[],"categories_nodes":[],"categories_segments":[],"categories_sizes":[],"default_left":[0,0,0,0,0,0,0,0,0,0,0,0,0,0,0,0,0,0,0,0,0,0,0,0,0,0,0,0,0,0,0],"id":2,"left_children":[1,3,5,7,9,11,13,15,17,19,21,23,25,27,29,-1,-1,-1,-1,-1,-1,-1,-1,-1,-1,-1,-1,-1,-1,-1,-1],"loss_changes":[6.8263104E2,1.3576219E2,6.7587524E1,1.728189E1,2.1049614E1,1.1757183E1,5.2279205E1,7.60437E-1,5.8752594E0,1.3955128E1,1.0831681E1,5.8192635E0,1.0360603E1,1.0691067E1,8.273071E0,0E0,0E0,0E0,0E0,0E0,0E0,0E0,0E0,0E0,0E0,0E0,0E0,0E0,0E0,0E0,0E0],"parents":[2147483647,0,0,1,1,2,2,3,3,4,4,5,5,6,6,7,7,8,8,9,9,10,10,11,11,12,12,13,13,14,14],"right_children":[2,4,6,8,10,12,14,16,18,20,22,24,26,28,30,-1,-1,-1,-1,-1,-1,-1,-1,-1,-1,-1,-1,-1,-1,-1,-1],"split_conditions":[1.6502206E-3,-2.8066582E-3,5.016113E-3,-7.3712766E-3,6.1611205E-1,6.07362E-1,1E0,-3.7581506E-3,4E0,6E0,1.7357814E-1,2.6091118E-3,1E0,4.0610847E-3,9.630525E-3,-7.2544865E-2,-5.6217205E-2,-3.5181493E-2,-5.2625667E-2,-2.2228085E-2,2.434918E-3,2.3034588E-2,-5.2799867E-3,6.209082E-3,-5.1415432E-2,3.7211035E-3,3.537799E-2,4.2188954E-2,-4.0638026E-2,6.0599204E-2,8.0866404E-2],"split_indices":[9,9,9,9,1,1,12,8,12,12,3,10,12,10,9,0,0,0,0,0,0,0,0,0,0,0,0,0,0,0,0],"split_type":[0,0,0,0,0,0,0,0,0,0,0,0,0,0,0,0,0,0,0,0,0,0,0,0,0,0,0,0,0,0,0],"sum_hessian":[1.3153735E3,8.3388336E2,4.8149023E2,3.3071707E2,5.031663E2,2.1453212E2,2.669581E2,1.138042E2,2.1691287E2,3.6042505E2,1.4274121E2,2.2646856E1,1.9188527E2,1.7541925E1,2.4941617E2,7.979348E1,3.401072E1,1.16197464E2,1.00715416E2,2.891691E2,7.125594E1,5.283342E1,8.99078E1,1.7917707E1,4.72915E0,3.1057625E1,1.6082764E2,4.4784346E0,1.3063492E1,1.3717026E2,1.1224591E2],"tree_param":{"num_deleted":"0","num_feature":"14","num_nodes":"31","size_leaf_vector":"1"}},{"base_weights":[9.9210255E-3,-5.492406E-1,8.770134E-1,-9.8504233E-1,-2.3005879E-1,4.7852844E-1,1.2484362E0,-1.2349002E0,-7.5356025E-1,-4.031473E-1,-1.7478218E-2,-1.2660189E-1,5.432656E-1,-2.908038E-1,1.3523862E0,-6.289251E-2,8.858968E-3,-4.483787E-3,-4.179811E-2,-1.6405646E-2,-4.115214E-2,2.7341569E-2,-4.414703E-3,6.240408E-3,-4.1741733E-2,2.3571452E-2,4.613809E-2,3.123261E-2,-3.2394286E-2,5.962054E-2,7.710373E-2],"categories":[],"categories_nodes":[],"categories_segments":[],"categories_sizes":[],"default_left":[0,0,0,0,0,0,0,0,0,0,0,0,0,0,0,0,0,0,0,0,0,0,0,0,0,0,0,0,0,0,0],"id":3,"left_children":[1,3,5,7,9,11,13,15,17,19,21,23,25,27,29,-1,-1,-1,-1,-1,-1,-1,-1,-1,-1,-1,-1,-1,-1,-1,-1],"loss_changes":[6.408116E2,1.1154439E2,7.609369E1,1.8699585E1,1.7107496E1,9.92487E0,4.3204834E1,5.4616547E0,9.703339E0,7.8061523E0,8.432145E0,4.577978E0,5.766205E0,6.206891E0,5.7723083E0,0E0,0E0,0E0,0E0,0E0,0E0,0E0,0E0,0E0,0E0,0E0,0E0,0E0,0E0,0E0,0E0],"parents":[2147483647,0,0,1,1,2,2,3,3,4,4,5,5,6,6,7,7,8,8,9,9,10,10,11,11,12,12,13,13,14,14],"right_children":[2,4,6,8,10,12,14,16,18,20,22,24,26,28,30,-1,-1,-1,-1,-1,-1,-1,-1,-1,-1,-1,-1,-1,-1,-1,-1],"split_conditions":[1.3290758E-3,-2.669503E-3,5.016113E-3,-6.218557E-3,-2.880905E-4,7.741165E-2,1E0,-2.901974E-3,-4.817926E-1,1.4495838E-1,1.3252787E-1,-1.0355001E-3,8.131332E-4,4.0610847E-3,9.630525E-3,-6.289251E-2,8.858968E-3,-4.483787E-3,-4.179811E-2,-1.6405646E-2,-4.115214E-2,2.7341569E-2,-4.414703E-3,6.240408E-3,-4.1741733E-2,2.3571452E-2,4.613809E-2,3.123261E-2,-3.2394286E-2,5.962054E-2,7.710373E-2],"split_indices":[9,9,9,9,9,3,12,10,3,2,0,11,11,10,9,0,0,0,0,0,0,0,0,0,0,0,0,0,0,0,0],"split_type":[0,0,0,0,0,0,0,0,0,0,0,0,0,0,0,0,0,0,0,0,0,0,0,0,0,0,0,0,0,0,0],"sum_hessian":[1.3196906E3,8.0252997E2,5.1716064E2,3.3840085E2,4.641291E2,2.5059523E2,2.6656543E2,1.6065631E2,1.7774454E2,2.5533356E2,2.0879555E2,2.4125597E1,2.2646964E2,1.6749512E1,2.4981592E2,1.5819447E2,2.461841E0,1.9856411E1,1.5788812E2,2.1813475E2,3.7198803E1,2.2531012E1,1.8626453E2,1.8413061E1,5.712535E0,1.9230888E2,3.416075E1,4.48975E0,1.2259762E1,1.394747E2,1.10341225E2],"tree_param":{"num_deleted":"0","num_feature":"14","num_nodes":"31","size_leaf_vector":"1"}},{"base_weights":[-8.243271E-4,-5.715351E-1,7.181478E-1,-1.0104042E0,-3.2340157E-1,3.7254685E-1,1.0958927E0,-8.0777323E-1,-1.2454251E0,7.4438107E-1,-3.8626722E-1,1.3353664E-1,5.2581257E-1,-5.762295E-1,1.2350266E0,-5.1322695E-2,-2.7351934E-2,-2.5571436E-2,-6.376235E-2,-3.2347124E-2,5.096584E-2,-2.6472865E-2,-4.181165E-3,3.8700882E-2,-2.4162643E-3,1.9524662E-2,4.0797975E-2,-3.499576E-2,4.1620474E-2,1.4891465E-2,6.325003E-2],"categories":[],"categories_nodes":[],"categories_segments":[],"categories_sizes":[],"default_left":[0,0,0,0,0,0,0,0,0,0,0,0,0,0,0,0,0,0,0,0,0,0,0,0,0,0,0,0,0,0,0],"id":4,"left_children":[1,3,5,7,9,11,13,15,17,19,21,23,25,27,29,-1,-1,-1,-1,-1,-1,-1,-1,-1,-1,-1,-1,-1,-1,-1,-1],"loss_changes":[5.3728595E2,7.91658E1,7.523743E1,1.1527405E1,3.168874E1,1.10700035E1,6.500003E1,7.6590424E0,1.9746399E0,1.0739488E1,1.9129028E1,1.40334635E1,6.9430466E0,4.399729E0,6.7984314E0,0E0,0E0,0E0,0E0,0E0,0E0,0E0,0E0,0E0,0E0,0E0,0E0,0E0,0E0,0E0,0E0],"parents":[2147483647,0,0,1,1,2,2,3,3,4,4,5,5,6,6,7,7,8,8,9,9,10,10,11,11,12,12,13,13,14,14],"right_children":[2,4,6,8,10,12,14,16,18,20,22,24,26,28,30,-1,-1,-1,-1,-1,-1,-1,-1,-1,-1,-1,-1,-1,-1,-1,-1],"split_conditions":[6.2656975E-1,-3.4286836E-3,3.3616084E-3,4E0,-2.8781402E-1,1.1939966E-3,1E0,-5.661062E-3,-1.5986763E-1,1E0,-2.5790068E-4,3.425928E-1,2.2E1,9.0298986E-1,2E0,-5.1322695E-2,-2.7351934E-2,-2.5571436E-2,-6.376235E-2,-3.2347124E-2,5.096584E-2,-2.6472865E-2,-4.181165E-3,3.8700882E-2,-2.4162643E-3,1.9524662E-2,4.0797975E-2,-3.499576E-2,4.1620474E-2,1.4891465E-2,6.325003E-2],"split_indices":[1,10,10,12,6,10,12,10,6,12,10,7,13,7,13,0,0,0,0,0,0,0,0,0,0,0,0,0,0,0,0],"split_type":[0,0,0,0,0,0,0,0,0,0,0,0,0,0,0,0,0,0,0,0,0,0,0,0,0,0,0,0,0,0,0],"sum_hessian":[1.3074149E3,7.2897174E2,5.7844324E2,2.6218246E2,4.6678925E2,3.0311124E2,2.75332E2,1.431758E2,1.1900668E2,2.5351372E1,4.4143787E2,1.1915939E2,1.8395186E2,2.090865E1,2.5442334E2,7.6270325E1,6.690547E1,5.355004E0,1.1365168E2,3.9597619E0,2.139161E1,2.9915097E2,1.422869E2,2.5632128E1,9.352727E1,1.270458E2,5.690605E1,1.9683466E1,1.2251823E0,8.223855E0,2.461995E2],"tree_param":{"num_deleted":"0","num_feature":"14","num_nodes":"31","size_leaf_vector":"1"}},{"base_weights":[4.5867367E-3,-5.367313E-1,7.602264E-1,-9.2402756E-1,-2.3983955E-1,4.5998055E-1,1.1418949E0,-1.1829666E0,-7.599372E-1,-4.307898E-1,-1.8695274E-2,9.497558E-1,4.038402E-1,-4.9354187E-1,1.2387707E0,1.1096566E-2,-6.070601E-2,-1.45526575E-2,-4.1151788E-2,-1.6985409E-2,-4.3333586E-2,2.9263362E-2,-5.1887464E-3,-1.0166894E-2,5.7008963E-2,1.2336187E-2,3.0263478E-2,1.7327545E-2,-4.5665126E-2,1.1433083E-2,6.372037E-2],"categories":[],"categories_nodes":[],"categories_segments":[],"categories_sizes":[],"default_left":[0,0,0,0,0,0,0,0,0,0,0,0,0,0,0,0,0,0,0,0,0,0,0,0,0,0,0,0,0,0,0],"id":5,"left_children":[1,3,5,7,9,11,13,15,17,19,21,23,25,27,29,-1,-1,-1,-1,-1,-1,-1,-1,-1,-1,-1,-1,-1,-1,-1,-1],"loss_changes":[5.3698553E2,8.772688E1,6.2263733E1,1.3188446E1,1.8332123E1,8.094841E0,3.8726746E1,5.819626E0,5.847481E0,8.95686E0,1.0455548E1,7.0320873E0,8.660748E0,5.312943E0,7.8945312E0,0E0,0E0,0E0,0E0,0E0,0E0,0E0,0E0,0E0,0E0,0E0,0E0,0E0,0E0,0E0,0E0],"parents":[2147483647,0,0,1,1,2,2,3,3,4,4,5,5,6,6,7,7,8,8,9,9,10,10,11,11,12,12,13,13,14,14],"right_children":[2,4,6,8,10,12,14,16,18,20,22,24,26,28,30,-1,-1,-1,-1,-1,-1,-1,-1,-1,-1,-1,-1,-1,-1,-1,-1],"split_conditions":[1.0640792E-3,-2.7413657E-3,5.6616953E-3,-7.053172E-3,-4.4770446E-4,-4.194631E-1,1E0,-1.0069573E-1,1.1850222E-2,6.2015504E-1,-2.623235E-1,1E0,4E0,4.677951E-3,2E0,1.1096566E-2,-6.070601E-2,-1.45526575E-2,-4.1151788E-2,-1.6985409E-2,-4.3333586E-2,2.9263362E-2,-5.1887464E-3,-1.0166894E-2,5.7008963E-2,1.2336187E-2,3.0263478E-2,1.7327545E-2,-4.5665126E-2,1.1433083E-2,6.372037E-2],"split_indices":[9,9,9,9,9,6,12,6,0,0,6,12,12,10,13,0,0,0,0,0,0,0,0,0,0,0,0,0,0,0,0],"split_type":[0,0,0,0,0,0,0,0,0,0,0,0,0,0,0,0,0,0,0,0,0,0,0,0,0,0,0,0,0,0,0],"sum_hessian":[1.3107926E3,7.63869E2,5.4692365E2,3.3055136E2,4.3331766E2,3.0734824E2,2.395754E2,1.2581019E2,2.0474118E2,2.3202461E2,2.0129305E2,2.996988E1,2.7737836E2,1.3168748E1,2.2640665E2,2.5964594E0,1.2321373E2,2.4950068E1,1.7979112E2,1.9339273E2,3.863187E1,2.4128792E1,1.7716425E2,4.23817E0,2.5731709E1,1.5707977E2,1.20298584E2,4.445701E0,8.723047E0,7.9681425E0,2.1843849E2],"tree_param":{"num_deleted":"0","num_feature":"14","num_nodes":"31","size_leaf_vector":"1"}},{"base_weights":[-1.8660328E-3,-5.1653147E-1,7.095637E-1,-9.042724E-1,-2.331736E-1,3.719177E-1,1.0990845E0,-1.1248084E0,-7.298648E-1,3.969271E-1,-2.9296362E-1,-5.681471E-2,4.678343E-1,9.2209345E-1,1.311096E0,-1.18365325E-2,-5.8949914E-2,-5.7594352E-3,-3.9656293E-2,-1.1194612E-2,3.7483044E-2,-1.2966566E-2,-5.83927E-2,3.4419905E-2,-1.14540765E-2,1.9995172E-2,4.1376956E-2,4.759441E-2,-2.1845466E-2,5.6624293E-2,7.266979E-2],"categories":[],"categories_nodes":[],"categories_segments":[],"categories_sizes":[],"default_left":[0,0,0,0,0,0,0,0,0,0,0,0,0,0,0,0,0,0,0,0,0,0,0,0,0,0,0,0,0,0,0],"id":6,"left_children":[1,3,5,7,9,11,13,15,17,19,21,23,25,27,29,-1,-1,-1,-1,-1,-1,-1,-1,-1,-1,-1,-1,-1,-1,-1,-1],"loss_changes":[4.75391E2,8.256001E1,7.126956E1,1.1400391E1,1.6565182E1,1.2094013E1,8.2677E0,6.384598E0,6.9186325E0,8.5471E0,1.1447861E1,7.1593575E0,5.5312805E0,6.125656E0,1.2142792E0,0E0,0E0,0E0,0E0,0E0,0E0,0E0,0E0,0E0,0E0,0E0,0E0,0E0,0E0,0E0,0E0],"parents":[2147483647,0,0,1,1,2,2,3,3,4,4,5,5,6,6,7,7,8,8,9,9,10,10,11,11,12,12,13,13,14,14],"right_children":[2,4,6,8,10,12,14,16,18,20,22,24,26,28,30,-1,-1,-1,-1,-1,-1,-1,-1,-1,-1,-1,-1,-1,-1,-1,-1],"split_conditions":[1.0290782E-3,-2.8066582E-3,5.153E-3,-6.5428712E-3,-2.6742536E-1,6.484417E-1,9.630525E-3,-5.5004567E-2,-4.959488E-1,-2.0766335E-3,3.277778E-1,-3.0852696E-1,8.131332E-4,5.5E-1,4.7707957E-1,-1.18365325E-2,-5.8949914E-2,-5.7594352E-3,-3.9656293E-2,-1.1194612E-2,3.7483044E-2,-1.2966566E-2,-5.83927E-2,3.4419905E-2,-1.14540765E-2,1.9995172E-2,4.1376956E-2,4.759441E-2,-2.1845466E-2,5.6624293E-2,7.266979E-2],"split_indices":[9,9,9,9,6,1,9,6,3,11,2,6,11,2,3,0,0,0,0,0,0,0,0,0,0,0,0,0,0,0,0],"split_type":[0,0,0,0,0,0,0,0,0,0,0,0,0,0,0,0,0,0,0,0,0,0,0,0,0,0,0,0,0,0,0],"sum_hessian":[1.2963555E3,7.523565E2,5.4399896E2,3.167421E2,4.356144E2,2.9245056E2,2.5154839E2,1.374673E2,1.7927481E2,3.7264256E1,3.9835016E2,5.3540478E1,2.3891008E2,1.4001259E2,1.1153579E2,8.214478E0,1.2925282E2,1.6992098E1,1.6228271E2,1.3633774E1,2.3630482E1,3.8485217E2,1.3497979E1,9.490255E0,4.4050224E1,2.0273499E2,3.617509E1,1.3730196E2,2.7106404E0,5.343027E1,5.8105522E1],"tree_param":{"num_deleted":"0","num_feature":"14","num_nodes":"31","size_leaf_vector":"1"}},{"base_weights":[-1.5640298E-2,-4.7815427E-1,7.0239687E-1,-8.5574305E-1,-2.1445656E-1,3.6317638E-1,1.0225165E0,-1.1506739E0,-7.0098907E-1,-3.8918054E-1,-3.8313262E-2,-5.7644293E-2,4.6410212E-1,-4.1499734E-1,1.123545E0,-3.246634E-2,-6.018238E-2,-1.434298E-2,-3.8076118E-2,-1.5533532E-2,-4.3456145E-2,-4.3221876E-2,2.78624E-4,-5.1326185E-2,3.1362784E-3,1.9755993E-2,4.2653773E-2,-3.796364E-2,2.317178E-2,4.7500778E-2,6.650102E-2],"categories":[],"categories_nodes":[],"categories_segments":[],"categories_sizes":[],"default_left":[0,0,0,0,0,0,0,0,0,0,0,0,0,0,0,0,0,0,0,0,0,0,0,0,0,0,0,0,0,0,0],"id":7,"left_children":[1,3,5,7,9,11,13,15,17,19,21,23,25,27,29,-1,-1,-1,-1,-1,-1,-1,-1,-1,-1,-1,-1,-1,-1,-1,-1],"loss_changes":[4.3221344E2,7.86304E1,5.499788E1,1.4033859E1,1.4369923E1,1.0606812E1,3.8484344E1,2.148819E0,5.1916733E0,8.567314E0,8.4835205E0,5.787904E0,5.0570793E0,5.771288E0,7.509613E0,0E0,0E0,0E0,0E0,0E0,0E0,0E0,0E0,0E0,0E0,0E0,0E0,0E0,0E0,0E0,0E0],"parents":[2147483647,0,0,1,1,2,2,3,3,4,4,5,5,6,6,7,7,8,8,9,9,10,10,11,11,12,12,13,13,14,14],"right_children":[2,4,6,8,10,12,14,16,18,20,22,24,26,28,30,-1,-1,-1,-1,-1,-1,-1,-1,-1,-1,-1,-1,-1,-1,-1,-1],"split_conditions":[1.3290758E-3,-2.7413657E-3,5.016113E-3,-7.3712766E-3,-4.4770446E-4,1.709956E-1,1E0,-1.09829474E-4,1E0,6.4463973E-1,-1.4723823E-3,3.5992824E-5,8.131332E-4,4.6867108E-1,9.630525E-3,-3.246634E-2,-6.018238E-2,-1.434298E-2,-3.8076118E-2,-1.5533532E-2,-4.3456145E-2,-4.3221876E-2,2.78624E-4,-5.1326185E-2,3.1362784E-3,1.9755993E-2,4.2653773E-2,-3.796364E-2,2.317178E-2,4.7500778E-2,6.650102E-2],"split_indices":[9,9,9,9,9,3,12,11,12,0,10,10,11,3,9,0,0,0,0,0,0,0,0,0,0,0,0,0,0,0,0],"split_type":[0,0,0,0,0,0,0,0,0,0,0,0,0,0,0,0,0,0,0,0,0,0,0,0,0,0,0,0,0,0,0],"sum_hessian":[1.2994358E3,7.905486E2,5.0888718E2,3.2415125E2,4.6639734E2,2.4810876E2,2.607784E2,1.093383E2,2.1481293E2,2.3353484E2,2.328625E2,4.8076694E1,2.0003206E2,1.6919985E1,2.4385843E2,1.1715883E1,9.762242E1,2.8126766E1,1.8668617E2,2.0211911E2,3.141572E1,1.0803085E1,2.2205942E2,4.4809127E0,4.3595783E1,1.716132E2,2.8418861E1,1.2253316E1,4.6666694E0,1.3554366E2,1.0831477E2],"tree_param":{"num_deleted":"0","num_feature":"14","num_nodes":"31","size_leaf_vector":"1"}},{"base_weights":[-6.710153E-3,-5.0837046E-1,5.975603E-1,-9.801487E-1,-3.0695173E-1,3.085685E-1,9.6380526E-1,-8.056628E-1,-1.1768651E0,-4.2807958E-1,-2.622889E-2,1.1223239E-1,4.9472535E-1,-2.3692958E-1,1.0446701E0,5.21625E-3,-4.3272506E-2,-5.9807885E-2,-1.7141854E-2,-1.8810147E-2,-4.559362E-2,1.5475186E-2,-1.71611E-2,1.1454717E-2,-2.6729858E-2,1.802059E-2,3.950675E-2,2.0992378E-2,-4.0550087E-2,5.605807E-4,5.396193E-2],"categories":[],"categories_nodes":[],"categories_segments":[],"categories_sizes":[],"default_left":[0,0,0,0,0,0,0,0,0,0,0,0,0,0,0,0,0,0,0,0,0,0,0,0,0,0,0,0,0,0,0],"id":8,"left_children":[1,3,5,7,9,11,13,15,17,19,21,23,25,27,29,-1,-1,-1,-1,-1,-1,-1,-1,-1,-1,-1,-1,-1,-1,-1,-1],"loss_changes":[3.936279E2,6.711801E1,6.2045547E1,6.3224335E0,1.694508E1,1.203149E1,2.5426437E1,6.369972E0,1.1570892E0,8.398167E0,1.6216358E1,1.2386537E1,6.438946E0,6.816932E0,8.674042E0,0E0,0E0,0E0,0E0,0E0,0E0,0E0,0E0,0E0,0E0,0E0,0E0,0E0,0E0,0E0,0E0],"parents":[2147483647,0,0,1,1,2,2,3,3,4,4,5,5,6,6,7,7,8,8,9,9,10,10,11,11,12,12,13,13,14,14],"right_children":[2,4,6,8,10,12,14,16,18,20,22,24,26,28,30,-1,-1,-1,-1,-1,-1,-1,-1,-1,-1,-1,-1,-1,-1,-1,-1],"split_conditions":[6.2656975E-1,-4.721418E-3,5.016113E-3,4E0,-2.5790068E-4,2.0151632E-3,1E0,-1.0069573E-1,-2.5993653E-3,6.077305E-1,5.7091004E-1,5.756851E-1,5E0,7.678193E-3,2E0,5.21625E-3,-4.3272506E-2,-5.9807885E-2,-1.7141854E-2,-1.8810147E-2,-4.559362E-2,1.5475186E-2,-1.71611E-2,1.1454717E-2,-2.6729858E-2,1.802059E-2,3.950675E-2,2.0992378E-2,-4.0550087E-2,5.605807E-4,5.396193E-2],"split_indices":[1,9,9,12,10,9,12,6,10,0,0,7,12,9,13,0,0,0,0,0,0,0,0,0,0,0,0,0,0,0,0],"split_type":[0,0,0,0,0,0,0,0,0,0,0,0,0,0,0,0,0,0,0,0,0,0,0,0,0,0,0,0,0,0,0],"sum_hessian":[1.2965063E3,7.084859E2,5.8802045E2,2.1082034E2,4.9766556E2,3.2970428E2,2.5831616E2,1.14423355E2,9.639698E1,3.4729E2,1.5037555E2,1.6124504E2,1.6845923E2,1.6177168E1,2.42139E2,7.008346E0,1.0741501E2,9.379318E1,2.6038017E0,3.1526236E2,3.2027653E1,7.3040634E1,7.733491E1,1.3711792E2,2.4127117E1,1.1733204E2,5.112719E1,7.670383E0,8.506784E0,7.8800845E0,2.3425893E2],"tree_param":{"num_deleted":"0","num_feature":"14","num_nodes":"31","size_leaf_vector":"1"}},{"base_weights":[1.1002553E-3,-5.644322E-1,4.9228844E-1,-9.6089345E-1,-3.5155615E-1,2.2859684E-1,9.20224E-1,-8.415919E-1,-1.2290838E0,-2.7891007E-1,-5.95254E-1,7.545163E-2,4.2489856E-1,-3.426033E-1,1.0097541E0,5.818418E-4,-4.4370007E-2,-6.401672E-2,-3.4188833E-2,-1.5066239E-2,3.1838723E-2,5.2231397E-2,-3.1993892E-2,3.0144488E-2,7.335523E-4,2.2586763E-2,-2.50731E-2,3.429772E-2,-3.5440348E-2,4.2061523E-2,6.0613424E-2],"categories":[],"categories_nodes":[],"categories_segments":[],"categories_sizes":[],"default_left":[0,0,0,0,0,0,0,0,0,0,0,0,0,0,0,0,0,0,0,0,0,0,0,0,0,0,0,0,0,0,0],"id":9,"left_children":[1,3,5,7,9,11,13,15,17,19,21,23,25,27,29,-1,-1,-1,-1,-1,-1,-1,-1,-1,-1,-1,-1,-1,-1,-1,-1],"loss_changes":[3.562502E2,4.997348E1,7.723955E1,5.610565E0,6.72855E0,1.2774685E1,2.9894363E1,5.752434E0,8.5084534E-1,6.388134E0,7.1483955E0,7.7018137E0,4.862488E0,7.284484E0,7.3178253E0,0E0,0E0,0E0,0E0,0E0,0E0,0E0,0E0,0E0,0E0,0E0,0E0,0E0,0E0,0E0,0E0],"parents":[2147483647,0,0,1,1,2,2,3,3,4,4,5,5,6,6,7,7,8,8,9,9,10,10,11,11,12,12,13,13,14,14],"right_children":[2,4,6,8,10,12,14,16,18,20,22,24,26,28,30,-1,-1,-1,-1,-1,-1,-1,-1,-1,-1,-1,-1,-1,-1,-1,-1],"split_conditions":[-1.3763226E-4,-4.721418E-3,5.016113E-3,5E0,2.5E1,2.0151632E-3,1E0,-1.0069573E-1,-5.170565E-3,3.0654033E-3,-3.543651E-1,1.3252787E-1,4.8554046E-3,4.0610847E-3,9.630525E-3,5.818418E-4,-4.4370007E-2,-6.401672E-2,-3.4188833E-2,-1.5066239E-2,3.1838723E-2,5.2231397E-2,-3.1993892E-2,3.0144488E-2,7.335523E-4,2.2586763E-2,-2.50731E-2,3.429772E-2,-3.5440348E-2,4.2061523E-2,6.0613424E-2],"split_indices":[9,9,9,12,13,9,12,6,9,8,6,0,9,10,9,0,0,0,0,0,0,0,0,0,0,0,0,0,0,0,0],"split_type":[0,0,0,0,0,0,0,0,0,0,0,0,0,0,0,0,0,0,0,0,0,0,0,0,0,0,0,0,0,0,0],"sum_hessian":[1.2804769E3,5.951259E2,6.8535095E2,2.0668365E2,3.884423E2,4.250015E2,2.6034946E2,1.4591362E2,6.0770035E1,3.0089136E2,8.755091E1,2.3952216E2,1.8547934E2,1.704876E1,2.433007E2,7.472679E0,1.3844093E2,5.431713E1,6.4529037E0,2.9435684E2,6.534523E0,1.7256411E0,8.582527E1,2.3828188E1,2.1569397E2,1.807552E2,4.7241282E0,4.2470117E0,1.2801747E1,1.3560782E2,1.0769288E2],"tree_param":{"num_deleted":"0","num_feature":"14","num_nodes":"31","size_leaf_vector":"1"}},{"base_weights":[7.967245E-3,-4.654304E-1,5.7688E-1,-7.817108E-1,-2.2530372E-1,3.502709E-1,9.461319E-1,-2.1648818E-1,-8.421418E-1,4.7728306E-1,-2.7904645E-1,1.6651781E-1,5.0176805E-1,-3.6824393E-1,1.0292916E0,-1.509723E-2,5.262916E-2,-5.3592987E-2,-3.592409E-2,-2.4965031E-2,4.5452505E-2,-1.01605635E-2,-2.533491E-2,2.4045065E-2,1.5028937E-3,1.7402193E-2,3.5307165E-2,-3.784746E-2,2.787788E-2,3.4322923E-3,5.3031165E-2],"categories":[],"categories_nodes":[],"categories_segments":[],"categories_sizes":[],"default_left":[0,0,0,0,0,0,0,0,0,0,0,0,0,0,0,0,0,0,0,0,0,0,0,0,0,0,0,0,0,0,0],"id":10,"left_children":[1,3,5,7,9,11,13,15,17,19,21,23,25,27,29,-1,-1,-1,-1,-1,-1,-1,-1,-1,-1,-1,-1,-1,-1,-1,-1],"loss_changes":[3.4313947E2,5.2639923E1,4.8088394E1,1.0055191E1,1.5112545E1,9.943169E0,2.436882E1,3.6033742E0,6.911789E0,1.2495607E1,6.2700825E0,7.0324016E0,5.9409714E0,5.386917E0,6.148102E0,0E0,0E0,0E0,0E0,0E0,0E0,0E0,0E0,0E0,0E0,0E0,0E0,0E0,0E0,0E0,0E0],"parents":[2147483647,0,0,1,1,2,2,3,3,4,4,5,5,6,6,7,7,8,8,9,9,10,10,11,11,12,12,13,13,14,14],"right_children":[2,4,6,8,10,12,14,16,18,20,22,24,26,28,30,-1,-1,-1,-1,-1,-1,-1,-1,-1,-1,-1,-1,-1,-1,-1,-1],"split_conditions":[6.2656975E-1,-2.8066582E-3,5.7459245E-3,1E0,-2.8781402E-1,2.0151632E-3,1E0,4.997352E-3,-7.7304686E-3,2E0,2.4E1,1.7357814E-1,4E0,9.69869E-1,2E0,-1.509723E-2,5.262916E-2,-5.3592987E-2,-3.592409E-2,-2.4965031E-2,4.5452505E-2,-1.01605635E-2,-2.533491E-2,2.4045065E-2,1.5028937E-3,1.7402193E-2,3.5307165E-2,-3.784746E-2,2.787788E-2,3.4322923E-3,5.3031165E-2],"split_indices":[1,9,9,12,6,9,12,11,9,12,13,3,12,1,13,0,0,0,0,0,0,0,0,0,0,0,0,0,0,0,0],"split_type":[0,0,0,0,0,0,0,0,0,0,0,0,0,0,0,0,0,0,0,0,0,0,0,0,0,0,0,0,0,0,0],"sum_hessian":[1.2720895E3,6.944298E2,5.7765967E2,2.987193E2,3.957105E2,3.591802E2,2.1847948E2,2.9295473E1,2.6942383E2,2.7558111E1,3.6815237E2,1.6325954E2,1.9592068E2,1.2796531E1,2.0568295E2,2.8161234E1,1.1342392E0,9.1598114E1,1.778257E2,8.400713E0,1.9157398E1,2.7757834E2,9.0574036E1,4.8650913E1,1.1460862E2,1.1335889E2,8.256179E1,9.140995E0,3.6555357E0,6.5973115E0,1.9908563E2],"tree_param":{"num_deleted":"0","num_feature":"14","num_nodes":"31","size_leaf_vector":"1"}},{"base_weights":[-7.098922E-3,-4.000859E-1,5.994961E-1,-7.4155736E-1,-1.7234154E-1,4.6471044E-1,1.0933535E0,-1.0005116E0,-5.9352076E-1,3.9914876E-1,-2.2934271E-1,3.2799326E-2,5.4002595E-1,9.250789E-1,1.308233E0,-2.444899E-2,-5.338365E-2,-3.059625E-2,3.3164598E-2,-1.5241746E-3,4.018967E-2,-3.380099E-2,-9.053023E-3,-5.220061E-2,4.884332E-3,2.788785E-2,-1.4821716E-2,4.818829E-2,-6.6490853E-3,7.5543724E-4,6.7202084E-2],"categories":[],"categories_nodes":[],"categories_segments":[],"categories_sizes":[],"default_left":[0,0,0,0,0,0,0,0,0,0,0,0,0,0,0,0,0,0,0,0,0,0,0,0,0,0,0,0,0,0,0],"id":11,"left_children":[1,3,5,7,9,11,13,15,17,19,21,23,25,27,29,-1,-1,-1,-1,-1,-1,-1,-1,-1,-1,-1,-1,-1,-1,-1,-1],"loss_changes":[3.032194E2,5.9900536E1,3.2780014E1,1.1233643E1,1.5218256E1,1.2818535E1,2.6400604E0,3.2832794E0,5.0034866E0,7.4095564E0,8.997612E0,4.270315E0,5.1478424E0,2.7123375E0,2.0333786E0,0E0,0E0,0E0,0E0,0E0,0E0,0E0,0E0,0E0,0E0,0E0,0E0,0E0,0E0,0E0,0E0],"parents":[2147483647,0,0,1,1,2,2,3,3,4,4,5,5,6,6,7,7,8,8,9,9,10,10,11,11,12,12,13,13,14,14],"right_children":[2,4,6,8,10,12,14,16,18,20,22,24,26,28,30,-1,-1,-1,-1,-1,-1,-1,-1,-1,-1,-1,-1,-1,-1,-1,-1],"split_conditions":[1.3290758E-3,-2.7413657E-3,9.630525E-3,-7.053172E-3,-2.6742536E-1,6.7584044E-1,1.3204623E-2,-1.09829474E-4,5.704839E-1,-1.182091E-3,-2.3298264E-3,-4.755379E-4,5.5E-1,2.9E1,2E0,-2.444899E-2,-5.338365E-2,-3.059625E-2,3.3164598E-2,-1.5241746E-3,4.018967E-2,-3.380099E-2,-9.053023E-3,-5.220061E-2,4.884332E-3,2.788785E-2,-1.4821716E-2,4.818829E-2,-6.6490853E-3,7.5543724E-4,6.7202084E-2],"split_indices":[9,9,9,9,6,1,9,11,1,11,11,10,2,13,13,0,0,0,0,0,0,0,0,0,0,0,0,0,0,0,0],"split_type":[0,0,0,0,0,0,0,0,0,0,0,0,0,0,0,0,0,0,0,0,0,0,0,0,0,0,0,0,0,0,0],"sum_hessian":[1.269973E3,7.7088806E2,4.9908493E2,3.0753113E2,4.633569E2,3.936023E2,1.0548263E2,1.0976508E2,1.9776605E2,4.147986E1,4.2187704E2,5.8657146E1,3.3494516E2,6.2131687E1,4.335094E1,1.3700032E1,9.6065056E1,1.9541754E2,2.3485045E0,2.0567228E1,2.0912632E1,3.9884975E1,3.8199207E2,2.476117E0,5.6181026E1,3.2831876E2,6.626392E0,6.002602E1,2.1056662E0,1.206427E0,4.2144512E1],"tree_param":{"num_deleted":"0","num_feature":"14","num_nodes":"31","size_leaf_vector":"1"}},{"base_weights":[-4.122524E-3,-5.4415244E-1,3.8966572E-1,-8.564938E-1,-3.6652166E-1,1.6469276E-1,8.2749414E-1,-7.390942E-1,-1.1294001E0,-3.102397E-1,-6.7025006E-1,-5.5073384E-2,2.8088033E-1,-2.2195569E-1,9.011713E-1,3.2865014E-3,-3.9469298E-2,-6.499635E-2,-4.6972256E-2,-1.1669009E-2,-2.7119694E-2,-4.271235E-2,-1.3015431E-2,2.8150115E-2,-7.5793727E-3,7.515402E-4,1.7012078E-2,-2.899068E-2,2.9890547E-2,-2.6454262E-3,4.662088E-2],"categories":[],"categories_nodes":[],"categories_segments":[],"categories_sizes":[],"default_left":[0,0,0,0,0,0,0,0,0,0,0,0,0,0,0,0,0,0,0,0,0,0,0,0,0,0,0,0,0,0,0],"id":12,"left_children":[1,3,5,7,9,11,13,15,17,19,21,23,25,27,29,-1,-1,-1,-1,-1,-1,-1,-1,-1,-1,-1,-1,-1,-1,-1,-1],"loss_changes":[2.6866785E2,2.9244461E1,7.182991E1,5.329422E0,5.6275215E0,1.2370881E1,1.9355835E1,5.614052E0,5.920105E-1,5.045477E0,3.7380142E0,1.0117947E1,4.9927177E0,5.3497257E0,6.956375E0,0E0,0E0,0E0,0E0,0E0,0E0,0E0,0E0,0E0,0E0,0E0,0E0,0E0,0E0,0E0,0E0],"parents":[2147483647,0,0,1,1,2,2,3,3,4,4,5,5,6,6,7,7,8,8,9,9,10,10,11,11,12,12,13,13,14,14],"right_children":[2,4,6,8,10,12,14,16,18,20,22,24,26,28,30,-1,-1,-1,-1,-1,-1,-1,-1,-1,-1,-1,-1,-1,-1,-1,-1],"split_conditions":[-4.4770446E-4,-4.956089E-3,5.016113E-3,5E0,6.2015504E-1,1.23570085E-1,1E0,-1.0069573E-1,-4.5E-1,2.4E1,-1.1700806E-3,-2.7687585E-1,1E0,4.6867108E-1,2E0,3.2865014E-3,-3.9469298E-2,-6.499635E-2,-4.6972256E-2,-1.1669009E-2,-2.7119694E-2,-4.271235E-2,-1.3015431E-2,2.8150115E-2,-7.5793727E-3,7.515402E-4,1.7012078E-2,-2.899068E-2,2.9890547E-2,-2.6454262E-3,4.662088E-2],"split_indices":[9,9,9,12,0,3,12,6,3,13,9,6,12,3,13,0,0,0,0,0,0,0,0,0,0,0,0,0,0,0,0],"split_type":[0,0,0,0,0,0,0,0,0,0,0,0,0,0,0,0,0,0,0,0,0,0,0,0,0,0,0,0,0,0,0],"sum_hessian":[1.2613861E3,5.3176166E2,7.296245E2,1.9139536E2,3.4036627E2,4.8287897E2,2.4674553E2,1.3641867E2,5.497669E1,2.8886078E2,5.1505493E1,1.6718271E2,3.1569626E2,1.6054497E1,2.3069102E2,8.00511E0,1.2841356E2,2.5890713E1,2.9085978E1,2.1852031E2,7.034048E1,3.4801476E1,1.6704018E1,2.1927261E1,1.4525545E2,5.785327E1,2.57843E2,1.1379598E1,4.674899E0,7.293598E0,2.2339743E2],"tree_param":{"num_deleted":"0","num_feature":"14","num_nodes":"31","size_leaf_vector":"1"}},{"base_weights":[-5.47975E-3,-3.671847E-1,6.0956967E-1,-7.218036E-1,-1.5213281E-1,-1.1000032E-1,6.9715637E-1,-9.8923296E-1,-6.0196716E-1,1.9368009E-3,-3.011957E-1,-2.1613E-1,9.2741144E-1,4.6017808E-1,8.918054E-1,-8.222735E-4,-5.0618906E-2,-2.2344666E-2,-3.934929E-2,-1.55528085E-2,7.3896474E-3,-2.2573961E-2,-7.955565E-3,-3.8314455E-3,-6.5897845E-2,-7.2182454E-3,6.6157736E-2,5.5273768E-2,2.0025989E-2,-5.166263E-3,4.6216868E-2],"categories":[],"categories_nodes":[],"categories_segments":[],"categories_sizes":[],"default_left":[0,0,0,0,0,0,0,0,0,0,0,0,0,0,0,0,0,0,0,0,0,0,0,0,0,0,0,0,0,0,0],"id":13,"left_children":[1,3,5,7,9,11,13,15,17,19,21,23,25,27,29,-1,-1,-1,-1,-1,-1,-1,-1,-1,-1,-1,-1,-1,-1,-1,-1],"loss_changes":[2.786038E2,6.002794E1,2.9305145E1,8.936203E0,1.1303382E1,5.836217E0,1.8666779E1,2.0205383E0,5.614441E0,1.1139643E1,5.269535E0,7.1613216E0,2.28615E0,6.816826E0,7.411911E0,0E0,0E0,0E0,0E0,0E0,0E0,0E0,0E0,0E0,0E0,0E0,0E0,0E0,0E0,0E0,0E0],"parents":[2147483647,0,0,1,1,2,2,3,3,4,4,5,5,6,6,7,7,8,8,9,9,10,10,11,11,12,12,13,13,14,14],"right_children":[2,4,6,8,10,12,14,16,18,20,22,24,26,28,30,-1,-1,-1,-1,-1,-1,-1,-1,-1,-1,-1,-1,-1,-1,-1,-1],"split_conditions":[1.6502206E-3,-2.7413657E-3,1E0,-7.7304686E-3,-6.2173605E-3,8.9859635E-1,5.153E-3,1E0,4E0,-1.8851017E-3,1.6079047E-4,8.5820295E-3,1.1E1,3E0,2E0,-8.222735E-4,-5.0618906E-2,-2.2344666E-2,-3.934929E-2,-1.55528085E-2,7.3896474E-3,-2.2573961E-2,-7.955565E-3,-3.8314455E-3,-6.5897845E-2,-7.2182454E-3,6.6157736E-2,5.5273768E-2,2.0025989E-2,-5.166263E-3,4.6216868E-2],"split_indices":[9,9,12,9,6,5,9,12,12,8,8,9,13,13,13,0,0,0,0,0,0,0,0,0,0,0,0,0,0,0,0],"split_type":[0,0,0,0,0,0,0,0,0,0,0,0,0,0,0,0,0,0,0,0,0,0,0,0,0,0,0,0,0,0,0],"sum_hessian":[1.2503347E3,7.875732E2,4.627616E2,2.9642093E2,4.9115225E2,5.0187706E1,4.1257388E2,8.948023E1,2.0694067E2,2.420054E2,2.4914685E2,4.624808E1,3.939624E0,1.8757375E2,2.2500015E2,2.1192436E0,8.736099E1,1.1443886E2,9.250182E1,7.656716E1,1.6543823E2,1.200217E2,1.2912515E2,4.200005E1,4.248033E0,1.2336857E0,2.7059383E0,1.4390293E1,1.7318346E2,7.0537567E0,2.179464E2],"tree_param":{"num_deleted":"0","num_feature":"14","num_nodes":"31","size_leaf_vector":"1"}},{"base_weights":[7.152054E-3,-4.264945E-1,4.4481692E-1,-7.114434E-1,-2.6606578E-1,1.9423719E-1,6.748415E-1,-3.7482908E-1,-8.324841E-1,-3.7544712E-1,1.4808249E-2,5.7764137E-1,8.490699E-2,6.1901385E-1,1.2243154E0,-2.1440689E-2,5.6240506E-2,-5.2662093E-2,-3.0597031E-2,-1.428954E-2,-4.257501E-2,2.1780051E-2,-1.3016077E-2,3.1744666E-2,-2.8192515E-2,-6.741989E-3,1.4137338E-2,3.8033914E-2,2.0063803E-2,6.2489122E-2,1.53016625E-2],"categories":[],"categories_nodes":[],"categories_segments":[],"categories_sizes":[],"default_left":[0,0,0,0,0,0,0,0,0,0,0,0,0,0,0,0,0,0,0,0,0,0,0,0,0,0,0,0,0,0,0],"id":14,"left_children":[1,3,5,7,9,11,13,15,17,19,21,23,25,27,29,-1,-1,-1,-1,-1,-1,-1,-1,-1,-1,-1,-1,-1,-1,-1,-1],"loss_changes":[2.372568E2,2.8516151E1,3.572959E1,8.879417E0,1.2397295E1,1.2491737E1,9.18042E0,5.4598627E0,7.393997E0,1.2148399E1,1.3312899E1,4.685011E0,1.0209728E1,8.828758E0,2.9240036E-1,0E0,0E0,0E0,0E0,0E0,0E0,0E0,0E0,0E0,0E0,0E0,0E0,0E0,0E0,0E0,0E0],"parents":[2147483647,0,0,1,1,2,2,3,3,4,4,5,5,6,6,7,7,8,8,9,9,10,10,11,11,12,12,13,13,14,14],"right_children":[2,4,6,8,10,12,14,16,18,20,22,24,26,28,30,-1,-1,-1,-1,-1,-1,-1,-1,-1,-1,-1,-1,-1,-1,-1,-1],"split_conditions":[7.130653E-2,-3.502505E-3,2.5524066E-3,-1.064766E-3,-2.5790068E-4,3.425928E-1,1.1400696E-2,3.4545454E-1,-4.5652995E-3,5.805369E-1,-8.571403E-3,2.2575476E-3,1.1690794E-3,-2.4214406E-3,2.7E1,-2.1440689E-2,5.6240506E-2,-5.2662093E-2,-3.0597031E-2,-1.428954E-2,-4.257501E-2,2.1780051E-2,-1.3016077E-2,3.1744666E-2,-2.8192515E-2,-6.741989E-3,1.4137338E-2,3.8033914E-2,2.0063803E-2,6.2489122E-2,1.53016625E-2],"split_indices":[3,10,10,11,10,7,10,0,8,0,2,10,10,11,13,0,0,0,0,0,0,0,0,0,0,0,0,0,0,0,0],"split_type":[0,0,0,0,0,0,0,0,0,0,0,0,0,0,0,0,0,0,0,0,0,0,0,0,0,0,0,0,0,0,0],"sum_hessian":[1.2480898E3,6.269357E2,6.211542E2,2.245903E2,4.023454E2,2.981767E2,3.2297748E2,6.04832E1,1.641071E2,2.893331E2,1.1301229E2,6.52104E1,2.329663E2,2.9511932E2,2.7858164E1,5.9070797E1,1.4124011E0,8.01268E1,8.39803E1,2.4482494E2,4.4508183E1,4.4448303E1,6.8563995E1,6.2518562E1,2.69184E0,1.1052319E2,1.2244309E2,1.7728244E2,1.1783688E2,2.6755154E1,1.1030104E0],"tree_param":{"num_deleted":"0","num_feature":"14","num_nodes":"31","size_leaf_vector":"1"}},{"base_weights":[-7.2089853E-3,-3.239493E-1,4.9485475E-1,-6.698632E-1,-1.8127228E-1,2.576329E-1,6.986607E-1,-3.3477572E-1,-7.634578E-1,3.4590593E-1,-2.4299443E-1,3.1773907E-1,-5.1393455E-1,4.2782563E-1,8.1557125E-1,-2.0821612E-2,2.860046E-2,-4.9489167E-2,-3.2637406E-2,5.6062985E-2,7.1177357E-3,-1.745908E-2,-3.7329558E-3,1.77603E-2,-1.1587012E-2,2.0717354E-2,-4.1778147E-2,2.7669415E-2,-1.3449949E-2,4.185925E-2,-8.646999E-3],"categories":[],"categories_nodes":[],"categories_segments":[],"categories_sizes":[],"default_left":[0,0,0,0,0,0,0,0,0,0,0,0,0,0,0,0,0,0,0,0,0,0,0,0,0,0,0,0,0,0,0],"id":15,"left_children":[1,3,5,7,9,11,13,15,17,19,21,23,25,27,29,-1,-1,-1,-1,-1,-1,-1,-1,-1,-1,-1,-1,-1,-1,-1,-1],"loss_changes":[1.9668047E2,3.7306175E1,2.2951248E1,6.6780167E0,1.7598593E1,1.0490247E1,7.7810287E0,3.9441237E0,3.6644058E0,8.809256E0,8.597599E0,4.348074E0,5.265123E0,7.1065044E0,3.9529877E0,0E0,0E0,0E0,0E0,0E0,0E0,0E0,0E0,0E0,0E0,0E0,0E0,0E0,0E0,0E0,0E0],"parents":[2147483647,0,0,1,1,2,2,3,3,4,4,5,5,6,6,7,7,8,8,9,9,10,10,11,11,12,12,13,13,14,14],"right_children":[2,4,6,8,10,12,14,16,18,20,22,24,26,28,30,-1,-1,-1,-1,-1,-1,-1,-1,-1,-1,-1,-1,-1,-1,-1,-1],"split_conditions":[1.1939966E-3,-3.502505E-3,3.5210378E-3,-1.7395848E-3,-2.6742536E-1,1.8802775E-1,8.9156145E-1,-1.9078068E-3,-7.3132706E-3,6E0,-2.5790068E-4,7.551584E-1,1.6299454E-3,8.753563E-1,3E1,-2.0821612E-2,2.860046E-2,-4.9489167E-2,-3.2637406E-2,5.6062985E-2,7.1177357E-3,-1.745908E-2,-3.7329558E-3,1.77603E-2,-1.1587012E-2,2.0717354E-2,-4.1778147E-2,2.7669415E-2,-1.3449949E-2,4.185925E-2,-8.646999E-3],"split_indices":[10,10,10,11,6,6,1,11,10,13,10,7,10,1,13,0,0,0,0,0,0,0,0,0,0,0,0,0,0,0,0],"split_type":[0,0,0,0,0,0,0,0,0,0,0,0,0,0,0,0,0,0,0,0,0,0,0,0,0,0,0,0,0,0,0],"sum_hessian":[1.2347905E3,7.573505E2,4.7744006E2,2.200805E2,5.3727E2,2.2167894E2,2.5576114E2,4.904965E1,1.7103085E2,5.5828247E1,4.8144177E2,2.0620358E2,1.5475352E1,7.852032E1,1.7724081E2,4.5493675E1,3.555972E0,5.357214E1,1.1745871E2,1.0671312E1,4.5156937E1,2.9455804E2,1.8688373E2,1.9337186E2,1.283173E1,3.9079568E0,1.1567395E1,6.670619E1,1.1814124E1,1.7359818E2,3.6426413E0],"tree_param":{"num_deleted":"0","num_feature":"14","num_nodes":"31","size_leaf_vector":"1"}},{"base_weights":[-1.9975184E-2,-4.000614E-1,4.0349635E-1,-8.084681E-1,-2.4879052E-1,1.9974196E-1,7.0610607E-1,-6.978354E-1,-1.0665902E0,-3.4810263E-1,-2.650883E-3,7.531232E-2,3.2913873E-1,-4.3721902E-1,7.9309744E-1,-4.2317633E-2,-2.428304E-2,-3.2030668E-2,-5.5490863E-2,-1.4436235E-2,-3.9642237E-2,1.1617541E-2,-1.1727353E-2,8.2386285E-3,-2.3878781E-2,1.2975099E-2,3.445363E-2,2.1932973E-2,-4.171018E-2,4.111665E-2,4.0059382E-4],"categories":[],"categories_nodes":[],"categories_segments":[],"categories_sizes":[],"default_left":[0,0,0,0,0,0,0,0,0,0,0,0,0,0,0,0,0,0,0,0,0,0,0,0,0,0,0,0,0,0,0],"id":16,"left_children":[1,3,5,7,9,11,13,15,17,19,21,23,25,27,29,-1,-1,-1,-1,-1,-1,-1,-1,-1,-1,-1,-1,-1,-1,-1,-1],"loss_changes":[1.9690527E2,3.9626884E1,3.553885E1,4.218834E0,1.1533892E1,5.565687E0,2.3466713E1,3.5137024E0,2.1432495E-1,8.649681E0,7.502165E0,8.897809E0,4.0800304E0,6.3050995E0,4.9597473E0,0E0,0E0,0E0,0E0,0E0,0E0,0E0,0E0,0E0,0E0,0E0,0E0,0E0,0E0,0E0,0E0],"parents":[2147483647,0,0,1,1,2,2,3,3,4,4,5,5,6,6,7,7,8,8,9,9,10,10,11,11,12,12,13,13,14,14],"right_children":[2,4,6,8,10,12,14,16,18,20,22,24,26,28,30,-1,-1,-1,-1,-1,-1,-1,-1,-1,-1,-1,-1,-1,-1,-1,-1],"split_conditions":[6.07362E-1,-4.956089E-3,5.016113E-3,5E0,-2.5790068E-4,2.0151632E-3,1E0,-7.053172E-3,-1.8225652E-3,5.805369E-1,5.7091004E-1,5.7930183E-1,6E0,4.0610847E-3,2.9E1,-4.2317633E-2,-2.428304E-2,-3.2030668E-2,-5.5490863E-2,-1.4436235E-2,-3.9642237E-2,1.1617541E-2,-1.1727353E-2,8.2386285E-3,-2.3878781E-2,1.2975099E-2,3.445363E-2,2.1932973E-2,-4.171018E-2,4.111665E-2,4.0059382E-4],"split_indices":[1,9,9,12,10,9,12,9,11,0,0,7,12,10,13,0,0,0,0,0,0,0,0,0,0,0,0,0,0,0,0],"split_type":[0,0,0,0,0,0,0,0,0,0,0,0,0,0,0,0,0,0,0,0,0,0,0,0,0,0,0,0,0,0,0],"sum_hessian":[1.2213479E3,6.436743E2,5.776736E2,1.7279945E2,4.7087485E2,3.4621725E2,2.3145634E2,1.2354907E2,4.925038E1,3.3521036E2,1.356645E2,1.7730267E2,1.6891457E2,1.6080795E1,2.1537555E2,7.09187E1,5.263037E1,5.99481E0,4.3255573E1,2.9718243E2,3.8027912E1,6.73801E1,6.828441E1,1.5321384E2,2.408885E1,1.4297418E2,2.5940386E1,4.982589E0,1.10982065E1,2.0759744E2,7.778095E0],"tree_param":{"num_deleted":"0","num_feature":"14","num_nodes":"31","size_leaf_vector":"1"}},{"base_weights":[4.178835E-3,-3.3321127E-1,4.1250437E-1,-7.076548E-1,-1.9396478E-1,3.103858E-1,9.0721923E-1,-5.9336853E-1,-9.939323E-1,5.0296414E-1,-2.3089267E-1,4.9761087E-2,3.9229313E-1,-4.430965E-1,9.654524E-1,-5.194631E-2,-2.5148436E-2,-5.3785246E-2,-2.80673E-2,2.932382E-3,5.5892956E-2,-1.4709744E-2,1.735933E-3,2.0858584E-2,-7.917944E-3,5.6023034E-3,2.509988E-2,-5.6352746E-2,3.9004173E-2,-6.6662054E-3,5.0109148E-2],"categories":[],"categories_nodes":[],"categories_segments":[],"categories_sizes":[],"default_left":[0,0,0,0,0,0,0,0,0,0,0,0,0,0,0,0,0,0,0,0,0,0,0,0,0,0,0,0,0,0,0],"id":17,"left_children":[1,3,5,7,9,11,13,15,17,19,21,23,25,27,29,-1,-1,-1,-1,-1,-1,-1,-1,-1,-1,-1,-1,-1,-1,-1,-1],"loss_changes":[1.6835512E2,3.4752304E1,2.7650444E1,5.3324585E0,1.2704752E1,9.796173E0,7.825653E0,4.7880287E0,1.1706238E0,6.745083E0,7.832218E0,8.561192E0,1.069558E1,4.706633E0,3.7863083E0,0E0,0E0,0E0,0E0,0E0,0E0,0E0,0E0,0E0,0E0,0E0,0E0,0E0,0E0,0E0,0E0],"parents":[2147483647,0,0,1,1,2,2,3,3,4,4,5,5,6,6,7,7,8,8,9,9,10,10,11,11,12,12,13,13,14,14],"right_children":[2,4,6,8,10,12,14,16,18,20,22,24,26,28,30,-1,-1,-1,-1,-1,-1,-1,-1,-1,-1,-1,-1,-1,-1,-1,-1],"split_conditions":[1.2788224E-1,-4.721418E-3,9.630525E-3,5E0,-3.1666085E-1,1.3290758E-3,1E0,-1.242284E-2,-1.9597625E-3,4E0,6E0,1.7357814E-1,2E0,8.9859635E-1,2E0,-5.194631E-2,-2.5148436E-2,-5.3785246E-2,-2.80673E-2,2.932382E-3,5.5892956E-2,-1.4709744E-2,1.735933E-3,2.0858584E-2,-7.917944E-3,5.6023034E-3,2.509988E-2,-5.6352746E-2,3.9004173E-2,-6.6662054E-3,5.0109148E-2],"split_indices":[3,9,9,12,6,9,12,9,8,12,12,3,12,5,13,0,0,0,0,0,0,0,0,0,0,0,0,0,0,0,0],"split_type":[0,0,0,0,0,0,0,0,0,0,0,0,0,0,0,0,0,0,0,0,0,0,0,0,0,0,0,0,0,0,0],"sum_hessian":[1.2200479E3,6.681525E2,5.5189526E2,1.800103E2,4.8814224E2,4.5881458E2,9.308068E1,1.3084695E2,4.916334E1,2.3928415E1,4.6421384E2,1.1009756E2,3.4871704E2,3.5749667E0,8.9505714E1,2.0300144E1,1.10546814E2,4.0097034E1,9.066305E0,1.452685E1,9.401566E0,3.7478503E2,8.942878E1,3.9449593E1,7.064796E1,9.86727E1,2.5004433E2,2.3432765E0,1.2316902E0,2.8102038E0,8.669551E1],"tree_param":{"num_deleted":"0","num_feature":"14","num_nodes":"31","size_leaf_vector":"1"}},{"base_weights":[-4.150113E-3,-4.0160388E-1,3.30504E-1,-8.1685376E-1,-2.9214495E-1,1.5821467E-1,6.9554365E-1,4.1342935E-1,-8.655651E-1,-2.4387188E-1,-6.312957E-1,2.2711E-1,-1.6252543E-1,-4.8449063E-1,7.768132E-1,-3.0738374E-3,5.535319E-2,7.642146E-3,-4.515348E-2,-1.462694E-2,2.1312937E-2,-3.678567E-2,-2.0524152E-3,6.139085E-3,1.9003037E-2,6.6333406E-2,-1.106809E-2,2.059932E-2,-4.2052582E-2,-1.0695039E-2,4.0820196E-2],"categories":[],"categories_nodes":[],"categories_segments":[],"categories_sizes":[],"default_left":[0,0,0,0,0,0,0,0,0,0,0,0,0,0,0,0,0,0,0,0,0,0,0,0,0,0,0,0,0,0,0],"id":18,"left_children":[1,3,5,7,9,11,13,15,17,19,21,23,25,27,29,-1,-1,-1,-1,-1,-1,-1,-1,-1,-1,-1,-1,-1,-1,-1,-1],"loss_changes":[1.6139626E2,2.497229E1,4.1320923E1,7.2586823E0,7.0580254E0,9.954906E0,2.060476E1,1.735651E0,4.381027E0,1.2754246E1,3.31386E0,5.85561E0,7.298335E0,4.887672E0,7.92997E0,0E0,0E0,0E0,0E0,0E0,0E0,0E0,0E0,0E0,0E0,0E0,0E0,0E0,0E0,0E0,0E0],"parents":[2147483647,0,0,1,1,2,2,3,3,4,4,5,5,6,6,7,7,8,8,9,9,10,10,11,11,12,12,13,13,14,14],"right_children":[2,4,6,8,10,12,14,16,18,20,22,24,26,28,30,-1,-1,-1,-1,-1,-1,-1,-1,-1,-1,-1,-1,-1,-1,-1,-1],"split_conditions":[-1.3763226E-4,-6.5428712E-3,5.6616953E-3,-1.0069573E-1,1.4495838E-1,5.0653756E-2,1E0,-1.1388308E-1,1E0,5.704839E-1,2.8719855E-3,2.5285888E-3,-7.654652E-4,4.677951E-3,2E0,-3.0738374E-3,5.535319E-2,7.642146E-3,-4.515348E-2,-1.462694E-2,2.1312937E-2,-3.678567E-2,-2.0524152E-3,6.139085E-3,1.9003037E-2,6.6333406E-2,-1.106809E-2,2.059932E-2,-4.2052582E-2,-1.0695039E-2,4.0820196E-2],"split_indices":[9,9,9,6,2,6,12,6,12,1,8,9,8,10,13,0,0,0,0,0,0,0,0,0,0,0,0,0,0,0,0],"split_type":[0,0,0,0,0,0,0,0,0,0,0,0,0,0,0,0,0,0,0,0,0,0,0,0,0,0,0,0,0,0,0],"sum_hessian":[1.2114209E3,5.536616E2,6.577592E2,1.1415057E2,4.3951105E2,4.4782892E2,2.0993031E2,4.0623426E0,1.10088234E2,3.8625275E2,5.3258278E1,3.6888412E2,7.894479E1,1.320675E1,1.9672357E2,2.952348E0,1.1099945E0,3.8009443E0,1.06287285E2,3.6062643E2,2.5626326E1,4.5043423E1,8.214855E0,2.2037096E2,1.4851317E2,2.181478E0,7.676331E1,3.7138433E0,9.492907E0,7.39016E0,1.893334E2],"tree_param":{"num_deleted":"0","num_feature":"14","num_nodes":"31","size_leaf_vector":"1"}},{"base_weights":[-5.1227184E-3,-2.3679037E-1,5.108452E-1,-5.485273E-1,-7.7615626E-2,-2.1063009E-1,5.9448206E-1,-5.085482E-2,-6.0924983E-1,-4.0725204E-1,-2.5893731E-2,1.4845848E-3,-8.191922E-1,4.6329352E-1,9.270347E-1,2.6192257E-2,-1.2467291E-2,-1.3113784E-2,-3.3557266E-2,-2.5459914E-2,1.3579217E-2,2.114795E-2,-4.44656E-3,-3.4361526E-2,6.995185E-3,-5.7854082E-2,8.897281E-3,2.1481117E-2,4.6464425E-2,4.1702744E-2,6.0865402E-2],"categories":[],"categories_nodes":[],"categories_segments":[],"categories_sizes":[],"default_left":[0,0,0,0,0,0,0,0,0,0,0,0,0,0,0,0,0,0,0,0,0,0,0,0,0,0,0,0,0,0,0],"id":19,"left_children":[1,3,5,7,9,11,13,15,17,19,21,23,25,27,29,-1,-1,-1,-1,-1,-1,-1,-1,-1,-1,-1,-1,-1,-1,-1,-1],"loss_changes":[1.4407092E2,4.123131E1,2.266172E1,8.460571E0,9.397278E0,5.10476E0,1.4183128E1,3.7407296E0,5.2003937E0,5.312722E0,1.3563181E1,2.9861948E0,3.6494107E0,3.4008636E0,1.515068E0,0E0,0E0,0E0,0E0,0E0,0E0,0E0,0E0,0E0,0E0,0E0,0E0,0E0,0E0,0E0,0E0],"parents":[2147483647,0,0,1,1,2,2,3,3,4,4,5,5,6,6,7,7,8,8,9,9,10,10,11,11,12,12,13,13,14,14],"right_children":[2,4,6,8,10,12,14,16,18,20,22,24,26,28,30,-1,-1,-1,-1,-1,-1,-1,-1,-1,-1,-1,-1,-1,-1,-1,-1],"split_conditions":[2.5285888E-3,-2.7413657E-3,1E0,1E0,-2.8362095E-3,7.2328504E-3,9.431038E-3,-5.7916455E-3,-1.064766E-3,-1.4571841E-3,2.2225097E-1,1E0,4.7707957E-1,1.5725287E-3,1.5234356E-2,2.6192257E-2,-1.2467291E-2,-1.3113784E-2,-3.3557266E-2,-2.5459914E-2,1.3579217E-2,2.114795E-2,-4.44656E-3,-3.4361526E-2,6.995185E-3,-5.7854082E-2,8.897281E-3,2.1481117E-2,4.6464425E-2,4.1702744E-2,6.0865402E-2],"split_indices":[9,9,12,12,8,9,9,9,11,11,0,4,3,11,9,0,0,0,0,0,0,0,0,0,0,0,0,0,0,0,0],"split_type":[0,0,0,0,0,0,0,0,0,0,0,0,0,0,0,0,0,0,0,0,0,0,0,0,0,0,0,0,0,0,0],"sum_hessian":[1.2032688E3,8.307888E2,3.7247998E2,2.799915E2,5.507973E2,3.8536324E1,3.3394366E2,3.0647434E1,2.4934404E2,7.376986E1,4.7702747E2,2.9315834E1,9.22049E0,2.411899E2,9.275375E1,7.446913E0,2.3200521E1,3.853903E1,2.1080502E2,6.435505E1,9.414808E0,5.8041126E1,4.1898633E2,4.2424316E0,2.5073402E1,6.7670197E0,2.4534707E0,2.2672917E2,1.4460722E1,7.318471E1,1.9569046E1],"tree_param":{"num_deleted":"0","num_feature":"14","num_nodes":"31","size_leaf_vector":"1"}},{"base_weights":[-4.0265822E-4,-3.0873108E-1,3.7174183E-1,-6.3694805E-1,-1.9602922E-1,2.678357E-1,8.662676E-1,-5.1545835E-1,-9.3214333E-1,4.1768274E-1,-2.3320705E-1,1.3783519E-1,4.133078E-1,-7.0369935E-1,9.256092E-1,-3.8195297E-2,-1.5588474E-2,-1.8786004E-2,-5.0516523E-2,-1.4081657E-3,5.086375E-2,-8.043473E-3,-2.2799626E-2,9.019892E-3,-3.5627652E-2,-8.125143E-3,2.447113E-2,-5.0213583E-2,6.4858276E-4,4.0183455E-2,5.9836328E-2],"categories":[],"categories_nodes":[],"categories_segments":[],"categories_sizes":[],"default_left":[0,0,0,0,0,0,0,0,0,0,0,0,0,0,0,0,0,0,0,0,0,0,0,0,0,0,0,0,0,0,0],"id":20,"left_children":[1,3,5,7,9,11,13,15,17,19,21,23,25,27,29,-1,-1,-1,-1,-1,-1,-1,-1,-1,-1,-1,-1,-1,-1,-1,-1],"loss_changes":[1.3756717E2,2.412907E1,2.768203E1,5.514084E0,1.1266666E1,8.460098E0,9.397209E0,5.867607E0,1.6867943E0,7.599123E0,7.3754597E0,8.791048E0,9.372555E0,8.7191105E-1,2.043007E0,0E0,0E0,0E0,0E0,0E0,0E0,0E0,0E0,0E0,0E0,0E0,0E0,0E0,0E0,0E0,0E0],"parents":[2147483647,0,0,1,1,2,2,3,3,4,4,5,5,6,6,7,7,8,8,9,9,10,10,11,11,12,12,13,13,14,14],"right_children":[2,4,6,8,10,12,14,16,18,20,22,24,26,28,30,-1,-1,-1,-1,-1,-1,-1,-1,-1,-1,-1,-1,-1,-1,-1,-1],"split_conditions":[1.2788224E-1,-4.956089E-3,9.630525E-3,5E0,-2.8781402E-1,2.5524066E-3,1E0,-8.134557E-3,-1.8225652E-3,4E0,8.174682E-2,3.3261985E-1,1E0,-1.4112514E-1,1.1400696E-2,-3.8195297E-2,-1.5588474E-2,-1.8786004E-2,-5.0516523E-2,-1.4081657E-3,5.086375E-2,-8.043473E-3,-2.2799626E-2,9.019892E-3,-3.5627652E-2,-8.125143E-3,2.447113E-2,-5.0213583E-2,6.4858276E-4,4.0183455E-2,5.9836328E-2],"split_indices":[3,9,9,12,6,10,12,9,11,12,2,2,12,6,10,0,0,0,0,0,0,0,0,0,0,0,0,0,0,0,0],"split_type":[0,0,0,0,0,0,0,0,0,0,0,0,0,0,0,0,0,0,0,0,0,0,0,0,0,0,0,0,0,0,0],"sum_hessian":[1.1969183E3,6.54677E2,5.422413E2,1.6615092E2,4.8852606E2,4.4936554E2,9.287577E1,1.1965305E2,4.649788E1,2.7319271E1,4.612068E2,2.3833022E2,2.1103531E2,2.987179E0,8.9888596E1,5.2665028E1,6.698802E1,6.444016E0,4.0053864E1,1.6215067E1,1.1104203E1,3.4946042E2,1.1174637E2,2.2772047E2,1.060974E1,2.4506676E1,1.8652864E2,1.82181E0,1.1653689E0,6.473646E1,2.515214E1],"tree_param":{"num_deleted":"0","num_feature":"14","num_nodes":"31","size_leaf_vector":"1"}},{"base_weights":[1.2644406E-2,-2.4528638E-1,4.110962E-1,-5.026126E-1,-8.961131E-2,3.0288222E-1,8.554569E-1,-7.643746E-1,-3.8027507E-1,5.6522902E-2,-2.191709E-1,-9.792327E-2,3.705376E-1,-4.063525E-1,9.132658E-1,-2.8544694E-2,-5.0033893E-2,2.8459188E-3,-2.2404997E-2,-1.788484E-2,8.92336E-3,-1.891692E-2,-4.622213E-3,3.6837626E-2,-1.073038E-2,2.9889268E-3,2.2367522E-2,-5.3236753E-2,3.9642107E-2,4.801246E-2,1.7723417E-2],"categories":[],"categories_nodes":[],"categories_segments":[],"categories_sizes":[],"default_left":[0,0,0,0,0,0,0,0,0,0,0,0,0,0,0,0,0,0,0,0,0,0,0,0,0,0,0,0,0,0,0],"id":21,"left_children":[1,3,5,7,9,11,13,15,17,19,21,23,25,27,29,-1,-1,-1,-1,-1,-1,-1,-1,-1,-1,-1,-1,-1,-1,-1,-1],"loss_changes":[1.218108E2,2.8778492E1,2.2136406E1,8.387543E0,8.523289E0,1.0234261E1,6.984215E0,3.3297348E0,5.5608425E0,1.0774592E1,4.7753544E0,5.5249257E0,7.658863E0,4.52625E0,1.943634E0,0E0,0E0,0E0,0E0,0E0,0E0,0E0,0E0,0E0,0E0,0E0,0E0,0E0,0E0,0E0,0E0],"parents":[2147483647,0,0,1,1,2,2,3,3,4,4,5,5,6,6,7,7,8,8,9,9,10,10,11,11,12,12,13,13,14,14],"right_children":[2,4,6,8,10,12,14,16,18,20,22,24,26,28,30,-1,-1,-1,-1,-1,-1,-1,-1,-1,-1,-1,-1,-1,-1,-1,-1],"split_conditions":[1.3290758E-3,-2.7413657E-3,9.630525E-3,-7.3712766E-3,-1.1990834E-2,1E0,1E0,4E0,4.4998078E-4,-2.0766335E-3,1.0994991E-6,1.52184E-3,7.1147543E-1,8.9859635E-1,5.5E-1,-2.8544694E-2,-5.0033893E-2,2.8459188E-3,-2.2404997E-2,-1.788484E-2,8.92336E-3,-1.891692E-2,-4.622213E-3,3.6837626E-2,-1.073038E-2,2.9889268E-3,2.2367522E-2,-5.3236753E-2,3.9642107E-2,4.801246E-2,1.7723417E-2],"split_indices":[9,9,9,9,6,12,12,12,7,11,8,9,1,5,2,0,0,0,0,0,0,0,0,0,0,0,0,0,0,0,0],"split_type":[0,0,0,0,0,0,0,0,0,0,0,0,0,0,0,0,0,0,0,0,0,0,0,0,0,0,0,0,0,0,0],"sum_hessian":[1.1832604E3,7.1852203E2,4.6473828E2,2.6999683E2,4.4852524E2,3.7507816E2,8.966015E1,8.432373E1,1.856731E2,2.1104495E2,2.3748029E2,5.410438E1,3.2097375E2,3.663646E0,8.59965E1,4.8240906E1,3.6082825E1,2.4957819E1,1.6071529E2,4.756003E1,1.6348492E2,1.0438642E2,1.3309386E2,5.984133E0,4.8120247E1,6.396619E1,2.5700757E2,2.4375212E0,1.2261246E0,7.866405E1,7.3324537E0],"tree_param":{"num_deleted":"0","num_feature":"14","num_nodes":"31","size_leaf_vector":"1"}},{"base_weights":[2.8278916E-3,-2.1105184E-1,4.195127E-1,-5.781066E-1,-1.0978693E-1,3.1034458E-1,8.242007E-1,-4.2542776E-1,-7.718928E-1,-2.3191944E-1,2.4267398E-2,-1.3507384E-1,3.7942997E-1,-3.727513E-1,8.686867E-1,-1.0560437E-2,-3.648856E-2,-1.699394E-2,-4.1442595E-2,-1.4971726E-2,3.9599156E-3,-8.786698E-3,6.469592E-3,7.800832E-4,-4.3963265E-2,1.9561043E-2,-5.371153E-2,-4.5175236E-2,2.0483231E-2,-6.1551295E-3,4.53637E-2],"categories":[],"categories_nodes":[],"categories_segments":[],"categories_sizes":[],"default_left":[0,0,0,0,0,0,0,0,0,0,0,0,0,0,0,0,0,0,0,0,0,0,0,0,0,0,0,0,0,0,0],"id":22,"left_children":[1,3,5,7,9,11,13,15,17,19,21,23,25,27,29,-1,-1,-1,-1,-1,-1,-1,-1,-1,-1,-1,-1,-1,-1,-1,-1],"loss_changes":[1.05367874E2,2.8977013E1,1.746099E1,4.6630936E0,1.005153E1,9.81916E0,4.828163E0,6.14307E0,1.5174713E0,6.769844E0,6.191955E0,4.875798E0,5.134918E0,1.9195318E0,3.2445679E0,0E0,0E0,0E0,0E0,0E0,0E0,0E0,0E0,0E0,0E0,0E0,0E0,0E0,0E0,0E0,0E0],"parents":[2147483647,0,0,1,1,2,2,3,3,4,4,5,5,6,6,7,7,8,8,9,9,10,10,11,11,12,12,13,13,14,14],"right_children":[2,4,6,8,10,12,14,16,18,20,22,24,26,28,30,-1,-1,-1,-1,-1,-1,-1,-1,-1,-1,-1,-1,-1,-1,-1,-1],"split_conditions":[2.0151632E-3,-4.721418E-3,9.923544E-3,4E0,-4.4770446E-4,1E0,1E0,4.8449874E-2,-1.8225652E-3,6E0,2E0,7.2328504E-3,4.2551425E-1,8.8253057E-1,2E0,-1.0560437E-2,-3.648856E-2,-1.699394E-2,-4.1442595E-2,-1.4971726E-2,3.9599156E-3,-8.786698E-3,6.469592E-3,7.800832E-4,-4.3963265E-2,1.9561043E-2,-5.371153E-2,-4.5175236E-2,2.0483231E-2,-6.1551295E-3,4.53637E-2],"split_indices":[9,9,9,12,9,12,12,6,11,12,12,9,6,5,13,0,0,0,0,0,0,0,0,0,0,0,0,0,0,0,0],"split_type":[0,0,0,0,0,0,0,0,0,0,0,0,0,0,0,0,0,0,0,0,0,0,0,0,0,0,0,0,0,0,0],"sum_hessian":[1.1803153E3,7.8029297E2,4.000223E2,1.6770482E2,6.1258813E2,3.1642953E2,8.359276E1,9.558857E1,7.211625E1,3.2016568E2,2.924225E2,4.2360554E1,2.74069E2,2.7310615E0,8.08617E1,5.7094967E1,3.84936E1,9.212187E0,6.290406E1,2.631069E2,5.7058773E1,1.0051638E2,1.9190611E2,3.6042175E1,6.3183784E0,2.7258887E2,1.4801382E0,1.5350169E0,1.1960447E0,2.946219E0,7.791548E1],"tree_param":{"num_deleted":"0","num_feature":"14","num_nodes":"31","size_leaf_vector":"1"}},{"base_weights":[-1.7288558E-3,-2.8295574E-1,2.7879867E-1,-5.8559257E-1,-1.6293545E-1,1.2068369E-1,5.5391264E-1,-4.59406E-1,-7.465562E-1,-2.4120057E-1,8.509808E-2,6.737696E-1,8.701358E-2,-2.1779782E-1,6.177732E-1,2.0517109E-2,-2.652124E-2,-4.1644398E-2,-7.0881727E-3,-2.5669111E-2,-8.468281E-3,2.2886198E-2,-6.6080997E-3,4.153099E-2,-2.3140138E-2,-9.982757E-3,7.2850883E-3,1.7161235E-2,-3.2772083E-2,3.2426096E-2,-2.8534343E-3],"categories":[],"categories_nodes":[],"categories_segments":[],"categories_sizes":[],"default_left":[0,0,0,0,0,0,0,0,0,0,0,0,0,0,0,0,0,0,0,0,0,0,0,0,0,0,0,0,0,0,0],"id":23,"left_children":[1,3,5,7,9,11,13,15,17,19,21,23,25,27,29,-1,-1,-1,-1,-1,-1,-1,-1,-1,-1,-1,-1,-1,-1,-1,-1],"loss_changes":[9.259254E1,2.1193169E1,2.5492046E1,3.0296745E0,8.1941395E0,6.913644E0,1.0688965E1,6.1275444E0,3.6082687E0,6.1760025E0,8.296346E0,4.1880417E0,5.9859023E0,4.4253044E0,4.146797E0,0E0,0E0,0E0,0E0,0E0,0E0,0E0,0E0,0E0,0E0,0E0,0E0,0E0,0E0,0E0,0E0],"parents":[2147483647,0,0,1,1,2,2,3,3,4,4,5,5,6,6,7,7,8,8,9,9,10,10,11,11,12,12,13,13,14,14],"right_children":[2,4,6,8,10,12,14,16,18,20,22,24,26,28,30,-1,-1,-1,-1,-1,-1,-1,-1,-1,-1,-1,-1,-1,-1,-1,-1],"split_conditions":[5.704839E-1,-4.721418E-3,5.016113E-3,4E0,-1.9501304E-4,2.0573843E-1,1E0,-1.0069573E-1,-3.6020426E-3,1E0,-1.666668E-2,2.7E1,-2.1543735E-1,7.2328504E-3,2.9E1,2.0517109E-2,-2.652124E-2,-4.1644398E-2,-7.0881727E-3,-2.5669111E-2,-8.468281E-3,2.2886198E-2,-6.6080997E-3,4.153099E-2,-2.3140138E-2,-9.982757E-3,7.2850883E-3,1.7161235E-2,-3.2772083E-2,3.2426096E-2,-2.8534343E-3],"split_indices":[1,9,9,12,10,7,12,6,10,4,2,13,6,9,13,0,0,0,0,0,0,0,0,0,0,0,0,0,0,0,0],"split_type":[0,0,0,0,0,0,0,0,0,0,0,0,0,0,0,0,0,0,0,0,0,0,0,0,0,0,0,0,0,0,0],"sum_hessian":[1.1716638E3,5.8509827E2,5.8656555E2,1.650465E2,4.200518E2,3.734011E2,2.1316443E2,9.4678154E1,7.036834E1,3.1932022E2,1.0073154E2,2.033615E1,3.5306494E2,1.6107374E1,1.9705705E2,6.7865934E0,8.789156E1,6.1248253E1,9.120088E0,6.539455E1,2.5392569E2,3.669265E1,6.4038895E1,1.8106579E1,2.2295704E0,5.958987E1,2.9347507E2,7.153252E0,8.954122E0,1.8850687E2,8.550185E0],"tree_param":{"num_deleted":"0","num_feature":"14","num_nodes":"31","size_leaf_vector":"1"}},{"base_weights":[-7.611768E-3,-2.308508E-1,3.4303147E-1,-5.3754914E-1,-1.1579012E-1,-1.2951969E-1,4.1331157E-1,-3.5036236E-1,-7.3617655E-1,9.6002586E-2,-1.8675946E-1,8.0403966E-1,-2.1075945E-1,2.6090997E-1,6.4737767E-1,-9.116746E-3,-2.7274076E-2,-5.016566E-2,-2.6261419E-2,-1.0176847E-2,2.0883257E-2,-1.4731966E-2,-3.449425E-3,8.0533646E-4,5.6842107E-2,-1.4954156E-2,2.778544E-2,1.725944E-2,-1.5056873E-2,3.4439307E-2,-1.8450607E-2],"categories":[],"categories_nodes":[],"categories_segments":[],"categories_sizes":[],"default_left":[0,0,0,0,0,0,0,0,0,0,0,0,0,0,0,0,0,0,0,0,0,0,0,0,0,0,0,0,0,0,0],"id":24,"left_children":[1,3,5,7,9,11,13,15,17,19,21,23,25,27,29,-1,-1,-1,-1,-1,-1,-1,-1,-1,-1,-1,-1,-1,-1,-1,-1],"loss_changes":[9.1699715E1,2.5195877E1,1.518808E1,6.9919205E0,7.8604136E0,4.7019286E0,1.399102E1,3.254305E0,4.7529984E0,1.2766232E1,4.94923E0,1.2907019E0,3.9416792E0,1.1571358E1,6.813835E0,0E0,0E0,0E0,0E0,0E0,0E0,0E0,0E0,0E0,0E0,0E0,0E0,0E0,0E0,0E0,0E0],"parents":[2147483647,0,0,1,1,2,2,3,3,4,4,5,5,6,6,7,7,8,8,9,9,10,10,11,11,12,12,13,13,14,14],"right_children":[2,4,6,8,10,12,14,16,18,20,22,24,26,28,30,-1,-1,-1,-1,-1,-1,-1,-1,-1,-1,-1,-1,-1,-1,-1,-1],"split_conditions":[1.1690794E-3,-3.502505E-3,1E0,1.4239023E-3,-2.616405E-1,1.2941307E-3,4.7778366E-3,4E0,-4.2829793E-3,3E0,-2.5790068E-4,-3.884856E-4,4.1157758E-1,3.480037E-1,2.9E1,-9.116746E-3,-2.7274076E-2,-5.016566E-2,-2.6261419E-2,-1.0176847E-2,2.0883257E-2,-1.4731966E-2,-3.449425E-3,8.0533646E-4,5.6842107E-2,-1.4954156E-2,2.778544E-2,1.725944E-2,-1.5056873E-2,3.4439307E-2,-1.8450607E-2],"split_indices":[10,10,12,11,2,10,10,12,8,12,10,11,2,2,13,0,0,0,0,0,0,0,0,0,0,0,0,0,0,0,0],"split_type":[0,0,0,0,0,0,0,0,0,0,0,0,0,0,0,0,0,0,0,0,0,0,0,0,0,0,0,0,0,0,0],"sum_hessian":[1.1694617E3,7.1475226E2,4.547095E2,1.9399084E2,5.207614E2,5.8761894E1,3.959476E2,1.01294586E2,9.269625E1,1.3061534E2,3.9014606E2,3.9919252E0,5.476997E1,2.4108842E2,1.5485918E2,5.546511E1,4.5829475E1,3.9243546E1,5.3452705E1,6.782364E1,6.279169E1,2.0283998E2,1.8730609E2,1.4967242E0,2.495201E0,4.9657497E1,5.1124725E0,2.0998682E2,3.1101608E1,1.4910678E2,5.75239E0],"tree_param":{"num_deleted":"0","num_feature":"14","num_nodes":"31","size_leaf_vector":"1"}},{"base_weights":[4.318316E-3,-2.0194621E-1,3.7850025E-1,-4.5235208E-1,-7.0102766E-2,-1.3347265E-1,4.4924596E-1,-7.257732E-1,-3.340023E-1,3.1453368E-1,-1.0077224E-1,-6.611408E-1,1.8801815E-3,3.46881E-1,8.03911E-1,-4.3258388E-2,-1.8971419E-2,7.2226687E-3,-1.9985612E-2,-3.5764815E-3,3.6768753E-2,-2.6817454E-2,-3.5549314E-3,-5.6836158E-2,-5.465842E-3,-5.311604E-3,5.2836377E-2,4.2586267E-2,1.5713794E-2,-8.65524E-3,4.2117845E-2],"categories":[],"categories_nodes":[],"categories_segments":[],"categories_sizes":[],"default_left":[0,0,0,0,0,0,0,0,0,0,0,0,0,0,0,0,0,0,0,0,0,0,0,0,0,0,0,0,0,0,0],"id":25,"left_children":[1,3,5,7,9,11,13,15,17,19,21,23,25,27,29,-1,-1,-1,-1,-1,-1,-1,-1,-1,-1,-1,-1,-1,-1,-1,-1],"loss_changes":[8.989571E1,2.4757523E1,1.5051174E1,8.132183E0,5.848149E0,3.645188E0,1.2931694E1,3.4050255E0,5.794527E0,6.007867E0,5.8739243E0,2.6099234E0,4.8566246E0,4.4093018E0,3.1786232E0,0E0,0E0,0E0,0E0,0E0,0E0,0E0,0E0,0E0,0E0,0E0,0E0,0E0,0E0,0E0,0E0],"parents":[2147483647,0,0,1,1,2,2,3,3,4,4,5,5,6,6,7,7,8,8,9,9,10,10,11,11,12,12,13,13,14,14],"right_children":[2,4,6,8,10,12,14,16,18,20,22,24,26,28,30,-1,-1,-1,-1,-1,-1,-1,-1,-1,-1,-1,-1,-1,-1,-1,-1],"split_conditions":[1.5008777E-3,-2.7413657E-3,1E0,-7.3712766E-3,3E0,6E0,9.630525E-3,-3.7581506E-3,-4.916023E-1,-1.327853E-4,5E0,3.7384415E-3,8.9859635E-1,2.210068E-4,2E0,-4.3258388E-2,-1.8971419E-2,7.2226687E-3,-1.9985612E-2,-3.5764815E-3,3.6768753E-2,-2.6817454E-2,-3.5549314E-3,-5.6836158E-2,-5.465842E-3,-5.311604E-3,5.2836377E-2,4.2586267E-2,1.5713794E-2,-8.65524E-3,4.2117845E-2],"split_indices":[10,9,12,9,13,13,9,8,2,10,13,9,5,8,13,0,0,0,0,0,0,0,0,0,0,0,0,0,0,0,0],"split_type":[0,0,0,0,0,0,0,0,0,0,0,0,0,0,0,0,0,0,0,0,0,0,0,0,0,0,0,0,0,0,0],"sum_hessian":[1.1627565E3,7.4986194E2,4.1289456E2,2.5780002E2,4.9206192E2,5.0020363E1,3.628742E2,7.632815E1,1.8147188E2,3.5654236E1,4.5640768E2,9.41842E0,4.0601944E1,2.8313315E2,7.9741066E1,5.335585E1,2.2972296E1,2.1768675E1,1.597032E2,1.902838E1,1.6625856E1,2.8020584E1,4.2838712E2,4.4893737E0,4.9290466E0,3.7643154E1,2.9587898E0,1.56525755E1,2.6748056E2,2.8864272E0,7.6854645E1],"tree_param":{"num_deleted":"0","num_feature":"14","num_nodes":"31","size_leaf_vector":"1"}},{"base_weights":[1.3860216E-2,-1.869233E-1,3.6504203E-1,-5.207017E-1,-1.0118817E-1,-1.8554024E-1,4.3807864E-1,-3.9813724E-1,-8.360632E-1,5.21532E-3,-1.8712327E-1,-4.45903E-2,-6.731439E-1,3.291358E-1,7.697074E-1,2.1649752E-2,-2.3089996E-2,-5.4346353E-2,-3.347626E-2,-1.0003266E-2,6.7956233E-3,-1.2669315E-2,4.176134E-3,-1.5413242E-2,1.3753615E-2,-6.450238E-2,3.3203468E-3,-5.1262647E-2,1.711585E-2,4.11752E-2,3.4253306E-3],"categories":[],"categories_nodes":[],"categories_segments":[],"categories_sizes":[],"default_left":[0,0,0,0,0,0,0,0,0,0,0,0,0,0,0,0,0,0,0,0,0,0,0,0,0,0,0,0,0,0,0],"id":26,"left_children":[1,3,5,7,9,11,13,15,17,19,21,23,25,27,29,-1,-1,-1,-1,-1,-1,-1,-1,-1,-1,-1,-1,-1,-1,-1,-1],"loss_changes":[8.094915E1,2.085069E1,1.687386E1,5.427944E0,5.3265305E0,3.3795693E0,1.3077545E1,5.9799957E0,9.77005E-1,7.0349197E0,5.7999563E0,3.4188635E0,5.128789E0,5.3405533E0,3.357216E0,0E0,0E0,0E0,0E0,0E0,0E0,0E0,0E0,0E0,0E0,0E0,0E0,0E0,0E0,0E0,0E0],"parents":[2147483647,0,0,1,1,2,2,3,3,4,4,5,5,6,6,7,7,8,8,9,9,10,10,11,11,12,12,13,13,14,14],"right_children":[2,4,6,8,10,12,14,16,18,20,22,24,26,28,30,-1,-1,-1,-1,-1,-1,-1,-1,-1,-1,-1,-1,-1,-1,-1,-1],"split_conditions":[1.6502206E-3,-4.956089E-3,1E0,5E0,-1.5027285E-2,4.677951E-3,8.949919E-3,-1.0069573E-1,-4.711596E-1,-1.8851017E-3,6E0,-1.20878875E-1,8.591343E-1,-3.544462E-3,5.5E-1,2.1649752E-2,-2.3089996E-2,-5.4346353E-2,-3.347626E-2,-1.0003266E-2,6.7956233E-3,-1.2669315E-2,4.176134E-3,-1.5413242E-2,1.3753615E-2,-6.450238E-2,3.3203468E-3,-5.1262647E-2,1.711585E-2,4.11752E-2,3.4253306E-3],"split_indices":[9,9,12,12,6,10,9,6,3,8,12,6,5,8,2,0,0,0,0,0,0,0,0,0,0,0,0,0,0,0,0],"split_type":[0,0,0,0,0,0,0,0,0,0,0,0,0,0,0,0,0,0,0,0,0,0,0,0,0,0,0,0,0,0,0],"sum_hessian":[1.1460597E3,7.2946533E2,4.1659436E2,1.4804253E2,5.814228E2,4.8610046E1,3.679843E2,1.0823842E2,3.9804104E1,2.60194E2,3.212288E2,3.855619E1,1.0053859E1,2.7849036E2,8.949394E1,7.2881694E0,1.0095025E2,1.36762905E1,2.6127813E1,1.01010376E2,1.5918361E2,2.5810098E2,6.312783E1,2.1147924E1,1.7408264E1,5.0756164E0,4.9782424E0,1.9441512E0,2.765462E2,8.295515E1,6.5388007E0],"tree_param":{"num_deleted":"0","num_feature":"14","num_nodes":"31","size_leaf_vector":"1"}},{"base_weights":[-6.9789668E-3,-2.5548497E-1,2.4103387E-1,-5.669925E-1,-1.4757599E-1,1.0749655E-1,4.8715064E-1,-1.5664518E-1,-6.37278E-1,-2.254696E-1,1.0258505E-1,1.8282889E-1,-1.5599936E-1,-1.8808556E-1,5.454516E-1,-1.6544463E-2,5.7299804E-2,3.2089517E-2,-3.3489935E-2,-8.96168E-3,-2.8674556E-2,1.4879094E-2,-1.8071357E-2,4.1681655E-2,6.6103684E-3,-1.1837217E-2,3.297523E-2,-2.37696E-2,2.5482655E-2,2.108086E-2,3.6221083E-2],"categories":[],"categories_nodes":[],"categories_segments":[],"categories_sizes":[],"default_left":[0,0,0,0,0,0,0,0,0,0,0,0,0,0,0,0,0,0,0,0,0,0,0,0,0,0,0,0,0,0,0],"id":27,"left_children":[1,3,5,7,9,11,13,15,17,19,21,23,25,27,29,-1,-1,-1,-1,-1,-1,-1,-1,-1,-1,-1,-1,-1,-1,-1,-1],"loss_changes":[7.08585E1,1.9219788E1,1.8859604E1,4.151291E0,8.360478E0,7.458588E0,8.05925E0,5.5725346E0,5.6508293E0,5.1523247E0,9.36193E0,9.494926E0,5.671669E0,3.6116116E0,3.823658E0,0E0,0E0,0E0,0E0,0E0,0E0,0E0,0E0,0E0,0E0,0E0,0E0,0E0,0E0,0E0,0E0],"parents":[2147483647,0,0,1,1,2,2,3,3,4,4,5,5,6,6,7,7,8,8,9,9,10,10,11,11,12,12,13,13,14,14],"right_children":[2,4,6,8,10,12,14,16,18,20,22,24,26,28,30,-1,-1,-1,-1,-1,-1,-1,-1,-1,-1,-1,-1,-1,-1,-1,-1],"split_conditions":[7.130653E-2,-4.956089E-3,5.016113E-3,-1.064766E-3,-1.9501304E-4,9.283364E-3,1E0,-1.2428376E-3,-1.4295036E-1,5.7883185E-1,1.272428E-2,3E0,2.9E1,4.7707957E-1,9.630525E-3,-1.6544463E-2,5.7299804E-2,3.2089517E-2,-3.3489935E-2,-8.96168E-3,-2.8674556E-2,1.4879094E-2,-1.8071357E-2,4.1681655E-2,6.6103684E-3,-1.1837217E-2,3.297523E-2,-2.37696E-2,2.5482655E-2,2.108086E-2,3.6221083E-2],"split_indices":[3,9,9,11,10,6,12,11,6,0,3,13,13,3,9,0,0,0,0,0,0,0,0,0,0,0,0,0,0,0,0],"split_type":[0,0,0,0,0,0,0,0,0,0,0,0,0,0,0,0,0,0,0,0,0,0,0,0,0,0,0,0,0,0,0],"sum_hessian":[1.1476913E3,5.7326056E2,5.7443066E2,1.4639595E2,4.2686462E2,3.733152E2,2.0111548E2,2.1880398E1,1.2451555E2,3.2558475E2,1.0127988E2,2.9055338E2,8.27618E1,1.5807572E1,1.853079E2,1.9956905E1,1.9234922E0,2.6228163E0,1.2189273E2,2.887396E2,3.6845154E1,7.1564316E1,2.9715565E1,1.9852772E1,2.7070062E2,7.595137E1,6.8104296E0,1.1422728E1,4.3848457E0,1.1150812E2,7.379978E1],"tree_param":{"num_deleted":"0","num_feature":"14","num_nodes":"31","size_leaf_vector":"1"}},{"base_weights":[-1.1733769E-2,-2.0106275E-1,3.122879E-1,-5.327315E-1,-1.1651156E-1,2.270331E-1,6.6221786E-1,-5.473542E-1,3.9751E-2,-6.797537E-2,-3.292933E-1,1.8582474E-2,3.0854204E-1,-4.0201494E-1,7.176867E-1,-1.3029954E-2,-3.1067727E-2,-2.9790752E-5,-1.2247727E-2,-1.784353E-2,5.5758994E-2,-3.6318198E-2,5.2482504E-3,4.1724708E-2,1.3166169E-2,-5.0776392E-2,3.6784675E-2,3.0452827E-2,5.5889335E-2],"categories":[],"categories_nodes":[],"categories_segments":[],"categories_sizes":[],"default_left":[0,0,0,0,0,0,0,0,0,0,0,0,0,0,0,0,0,0,0,0,0,0,0,0,0,0,0,0,0],"id":28,"left_children":[1,3,5,7,9,11,13,15,-1,17,19,21,23,25,27,-1,-1,-1,-1,-1,-1,-1,-1,-1,-1,-1,-1,-1,-1],"loss_changes":[7.020778E1,2.019402E1,1.2442146E1,3.278595E0,5.9353027E0,5.7868214E0,5.139099E0,2.9245262E0,0E0,5.6162357E0,4.655716E0,6.3118124E0,5.607704E0,4.0357604E0,2.7292023E0,0E0,0E0,0E0,0E0,0E0,0E0,0E0,0E0,0E0,0E0,0E0,0E0,0E0,0E0],"parents":[2147483647,0,0,1,1,2,2,3,3,4,4,5,5,6,6,7,7,9,9,10,10,11,11,12,12,13,13,14,14],"right_children":[2,4,6,8,10,12,14,16,-1,18,20,22,24,26,28,-1,-1,-1,-1,-1,-1,-1,-1,-1,-1,-1,-1,-1,-1],"split_conditions":[1.6502206E-3,-4.956089E-3,9.630525E-3,3.979361E-2,2.6E1,2E0,1E0,-4.8298323E-1,3.9751E-2,1.1870539E-1,6.854202E-1,2.0151632E-3,3E0,8.0118567E-1,1.264568E-2,-1.3029954E-2,-3.1067727E-2,-2.9790752E-5,-1.2247727E-2,-1.784353E-2,5.5758994E-2,-3.6318198E-2,5.2482504E-3,4.1724708E-2,1.3166169E-2,-5.0776392E-2,3.6784675E-2,3.0452827E-2,5.5889335E-2],"split_indices":[9,9,9,3,13,12,12,2,0,2,7,9,13,7,10,0,0,0,0,0,0,0,0,0,0,0,0,0,0],"split_type":[0,0,0,0,0,0,0,0,0,0,0,0,0,0,0,0,0,0,0,0,0,0,0,0,0,0,0,0,0],"sum_hessian":[1.1424192E3,7.2132275E2,4.2109637E2,1.454532E2,5.7586957E2,3.3992734E2,8.116903E1,1.4445012E2,1.0030922E0,4.6998416E2,1.0588541E2,9.590032E1,2.4402704E2,3.7115314E0,7.7457504E1,3.0557966E1,1.1389214E2,3.4111728E2,1.288669E2,1.04640594E2,1.2448142E0,9.195074E0,8.6705246E1,1.7937384E1,2.2608965E2,2.4810233E0,1.2305081E0,6.2901524E1,1.4555977E1],"tree_param":{"num_deleted":"0","num_feature":"14","num_nodes":"29","size_leaf_vector":"1"}},{"base_weights":[-5.721871E-3,-2.4464476E-1,2.3160902E-1,-4.439699E-1,-1.4908251E-1,3.8626495E-1,7.601063E-2,-2.7259776E-1,-6.681836E-1,2.408665E-1,-2.0202604E-1,-4.8818726E-2,4.378667E-1,2.3746205E-2,7.421199E-1,-7.504472E-3,-2.710924E-2,1.1914946E-2,-3.5612147E-2,-1.1558321E-2,3.2839768E-2,-1.3265333E-2,3.070752E-3,7.244594E-3,-2.893751E-2,1.9977136E-2,5.1692016E-2,2.3754582E-2,-1.817986E-3,-1.1285661E-2,4.9394015E-2],"categories":[],"categories_nodes":[],"categories_segments":[],"categories_sizes":[],"default_left":[0,0,0,0,0,0,0,0,0,0,0,0,0,0,0,0,0,0,0,0,0,0,0,0,0,0,0,0,0,0,0],"id":29,"left_children":[1,3,5,7,9,11,13,15,17,19,21,23,25,27,29,-1,-1,-1,-1,-1,-1,-1,-1,-1,-1,-1,-1,-1,-1,-1,-1],"loss_changes":[6.429459E1,1.0696426E1,1.3659365E1,6.8340416E0,7.964637E0,6.420822E0,9.897412E0,3.392508E0,3.3015404E0,9.240291E0,5.6532736E0,3.2785888E0,5.409279E0,7.209438E0,5.143569E0,0E0,0E0,0E0,0E0,0E0,0E0,0E0,0E0,0E0,0E0,0E0,0E0,0E0,0E0,0E0,0E0],"parents":[2147483647,0,0,1,1,2,2,3,3,4,4,5,5,6,6,7,7,8,8,9,9,10,10,11,11,12,12,13,13,14,14],"right_children":[2,4,6,8,10,12,14,16,18,20,22,24,26,28,30,-1,-1,-1,-1,-1,-1,-1,-1,-1,-1,-1,-1,-1,-1,-1,-1],"split_conditions":[7.130653E-2,-3.502505E-3,-1.3902939E-3,4E0,-1.959019E-1,1E0,9.1876787E-1,5.6203455E-2,-5.3055435E-3,-1.9597625E-3,6E0,4.677951E-3,1.1400696E-2,3.425928E-1,4.8510963E-3,-7.504472E-3,-2.710924E-2,1.1914946E-2,-3.5612147E-2,-1.1558321E-2,3.2839768E-2,-1.3265333E-2,3.070752E-3,7.244594E-3,-2.893751E-2,1.9977136E-2,5.1692016E-2,2.3754582E-2,-1.817986E-3,-1.1285661E-2,4.9394015E-2],"split_indices":[3,10,11,12,6,12,5,6,11,8,12,10,10,7,8,0,0,0,0,0,0,0,0,0,0,0,0,0,0,0,0],"split_type":[0,0,0,0,0,0,0,0,0,0,0,0,0,0,0,0,0,0,0,0,0,0,0,0,0,0,0,0,0,0,0],"sum_hessian":[1.1318685E3,5.6402716E2,5.6784143E2,1.8159912E2,3.82428E2,2.840397E2,2.838017E2,1.0418427E2,7.741485E1,4.5291267E1,3.3713675E2,3.0121565E1,2.5391814E2,2.6411435E2,1.9687351E1,7.270274E1,3.1481533E1,3.3839705E0,7.4030876E1,2.1422888E1,2.3868378E1,2.718332E2,6.530355E1,2.2590458E1,7.531108E0,2.4014601E2,1.3772132E1,3.0227415E1,2.3388693E2,4.0033317E0,1.568402E1],"tree_param":{"num_deleted":"0","num_feature":"14","num_nodes":"31","size_leaf_vector":"1"}},{"base_weights":[1.5264705E-2,-2.0715386E-1,2.3321486E-1,-5.5872303E-1,-1.3841909E-1,1.6713081E-1,6.528779E-1,1.3675429E-1,-6.152066E-1,-1.9579454E-1,9.4096445E-2,4.4502372E-1,1.2825917E-1,-4.553356E-1,7.063885E-1,5.030902E-2,-1.9113366E-2,-4.5385845E-2,-2.565052E-2,-2.5168343E-2,-5.7833535E-3,1.3411837E-2,-1.20368255E-2,2.551373E-2,-2.6543288E-2,4.4713127E-3,2.0174336E-2,-4.638281E-2,2.025283E-2,3.7864067E-2,6.788753E-3],"categories":[],"categories_nodes":[],"categories_segments":[],"categories_sizes":[],"default_left":[0,0,0,0,0,0,0,0,0,0,0,0,0,0,0,0,0,0,0,0,0,0,0,0,0,0,0,0,0,0,0],"id":30,"left_children":[1,3,5,7,9,11,13,15,17,19,21,23,25,27,29,-1,-1,-1,-1,-1,-1,-1,-1,-1,-1,-1,-1,-1,-1,-1,-1],"loss_changes":[5.4795273E1,1.3442492E1,1.5723099E1,3.6653938E0,6.2793856E0,5.2852077E0,4.9069176E0,3.8439372E0,2.060316E0,9.226807E0,5.5199966E0,4.109665E0,4.6160674E0,2.0701995E0,2.0505714E0,0E0,0E0,0E0,0E0,0E0,0E0,0E0,0E0,0E0,0E0,0E0,0E0,0E0,0E0,0E0,0E0],"parents":[2147483647,0,0,1,1,2,2,3,3,4,4,5,5,6,6,7,7,8,8,9,9,10,10,11,11,12,12,13,13,14,14],"right_children":[2,4,6,8,10,12,14,16,18,20,22,24,26,28,30,-1,-1,-1,-1,-1,-1,-1,-1,-1,-1,-1,-1,-1,-1,-1,-1],"split_conditions":[7.130653E-2,-6.5428712E-3,9.630525E-3,-5.5004567E-2,-1.327853E-4,-3.543651E-1,1E0,1.6457003E-1,-1.242284E-2,1E0,1.5050173E-4,1.0651769E-4,1.7098835E-3,8.2505006E-1,5.5E-1,5.030902E-2,-1.9113366E-2,-4.5385845E-2,-2.565052E-2,-2.5168343E-2,-5.7833535E-3,1.3411837E-2,-1.20368255E-2,2.551373E-2,-2.6543288E-2,4.4713127E-3,2.0174336E-2,-4.638281E-2,2.025283E-2,3.7864067E-2,6.788753E-3],"split_indices":[3,9,9,6,10,6,12,1,9,4,3,11,11,0,2,0,0,0,0,0,0,0,0,0,0,0,0,0,0,0,0],"split_type":[0,0,0,0,0,0,0,0,0,0,0,0,0,0,0,0,0,0,0,0,0,0,0,0,0,0,0,0,0,0,0],"sum_hessian":[1.1283585E3,5.5847906E2,5.6987946E2,9.016556E1,4.683135E2,4.9355756E2,7.63219E1,6.66604E0,8.349952E1,3.757512E2,9.25623E1,5.9284542E1,4.3427304E2,3.1696007E0,7.31523E1,2.1409953E0,4.525045E0,1.957864E1,6.392088E1,7.6566345E1,2.9918484E2,6.1023846E1,3.1538456E1,5.6016247E1,3.2682958E0,3.8173718E2,5.2535854E1,1.9958056E0,1.1737951E0,6.686178E1,6.290521E0],"tree_param":{"num_deleted":"0","num_feature":"14","num_nodes":"31","size_leaf_vector":"1"}},{"base_weights":[-2.7652248E-3,-1.4225928E-1,3.2296237E-1,-3.891454E-1,-3.8606424E-2,2.6479405E-1,8.273988E-1,-6.383132E-1,-2.9226375E-1,4.049871E-1,-7.173389E-2,-9.009486E-2,3.1658688E-1,-2.7070267E-2,8.9545774E-1,3.7299506E-2,-3.426743E-2,1.1009008E-2,-1.9137515E-2,3.677944E-2,-1.1294428E-3,-1.2597027E-2,1.0168073E-3,3.3260738E-3,-3.145564E-2,2.4148209E-2,1.1310978E-2,3.1871874E-2,5.512001E-2],"categories":[],"categories_nodes":[],"categories_segments":[],"categories_sizes":[],"default_left":[0,0,0,0,0,0,0,0,0,0,0,0,0,0,0,0,0,0,0,0,0,0,0,0,0,0,0,0,0],"id":31,"left_children":[1,3,5,7,9,11,13,15,17,19,21,23,25,-1,27,-1,-1,-1,-1,-1,-1,-1,-1,-1,-1,-1,-1,-1,-1],"loss_changes":[5.107784E1,2.0126265E1,9.671322E0,5.4288635E0,8.191338E0,5.6105843E0,3.6875744E0,4.69668E0,7.9364395E0,5.493967E0,8.594503E0,3.3726017E0,3.8785954E0,0E0,1.0661621E0,0E0,0E0,0E0,0E0,0E0,0E0,0E0,0E0,0E0,0E0,0E0,0E0,0E0,0E0],"parents":[2147483647,0,0,1,1,2,2,3,3,4,4,5,5,6,6,7,7,8,8,9,9,10,10,11,11,12,12,14,14],"right_children":[2,4,6,8,10,12,14,16,18,20,22,24,26,-1,28,-1,-1,-1,-1,-1,-1,-1,-1,-1,-1,-1,-1,-1,-1],"split_conditions":[2.5285888E-3,-2.9286053E-3,1.28702745E-2,-7.7304686E-3,3E0,1E0,2E0,1E0,-4.8298323E-1,-8.6375326E-4,2E0,7.678193E-3,3E0,-2.7070267E-2,1.5234356E-2,3.7299506E-2,-3.426743E-2,1.1009008E-2,-1.9137515E-2,3.677944E-2,-1.1294428E-3,-1.2597027E-2,1.0168073E-3,3.3260738E-3,-3.145564E-2,2.4148209E-2,1.1310978E-2,3.1871874E-2,5.512001E-2],"split_indices":[9,9,9,9,13,12,13,12,2,6,12,9,12,0,9,0,0,0,0,0,0,0,0,0,0,0,0,0,0],"split_type":[0,0,0,0,0,0,0,0,0,0,0,0,0,0,0,0,0,0,0,0,0,0,0,0,0,0,0,0,0],"sum_hessian":[1.1221335E3,7.8606256E2,3.3607095E2,2.3162085E2,5.544417E2,3.0269147E2,3.3379486E1,6.3281086E1,1.6833977E2,3.774826E1,5.166934E2,3.8455E1,2.6423648E2,1.2516339E0,3.2127853E1,1.591164E0,6.1689922E1,2.5048979E1,1.4329079E2,2.088196E1,1.68663E1,1.741321E2,3.4256134E2,3.0476406E1,7.978596E0,9.1475136E1,1.7276134E2,1.6115263E1,1.601259E1],"tree_param":{"num_deleted":"0","num_feature":"14","num_nodes":"29","size_leaf_vector":"1"}},{"base_weights":[1.2426157E-2,-1.3300377E-1,2.9640108E-1,-4.3274274E-1,-5.8418173E-2,2.1601148E-1,6.276976E-1,-3.245546E-1,-7.215474E-1,3.76235E-1,-9.14626E-2,1.33294E-1,4.3870053E-1,-4.7345674E-1,6.8555367E-1,5.4012793E-3,-2.3486344E-2,-5.931228E-3,-4.0486496E-2,5.3099222E-2,6.4960616E-3,-3.8284042E-3,-3.1449314E-2,1.43729625E-2,-7.7998536E-3,-2.237644E-2,2.5259806E-2,-4.6728164E-2,2.0572254E-2,-1.4735845E-2,3.6444988E-2],"categories":[],"categories_nodes":[],"categories_segments":[],"categories_sizes":[],"default_left":[0,0,0,0,0,0,0,0,0,0,0,0,0,0,0,0,0,0,0,0,0,0,0,0,0,0,0,0,0,0,0],"id":32,"left_children":[1,3,5,7,9,11,13,15,17,19,21,23,25,27,29,-1,-1,-1,-1,-1,-1,-1,-1,-1,-1,-1,-1,-1,-1,-1,-1],"loss_changes":[4.6889687E1,1.6762333E1,1.0105164E1,4.435938E0,8.687294E0,5.6694403E0,5.0746517E0,6.9932337E0,2.0261154E0,7.084694E0,4.4407935E0,1.0221031E1,5.1635303E0,2.1445355E0,3.2421303E0,0E0,0E0,0E0,0E0,0E0,0E0,0E0,0E0,0E0,0E0,0E0,0E0,0E0,0E0,0E0,0E0],"parents":[2147483647,0,0,1,1,2,2,3,3,4,4,5,5,6,6,7,7,8,8,9,9,10,10,11,11,12,12,13,13,14,14],"right_children":[2,4,6,8,10,12,14,16,18,20,22,24,26,28,30,-1,-1,-1,-1,-1,-1,-1,-1,-1,-1,-1,-1,-1,-1,-1,-1],"split_conditions":[1.594712E-3,-4.721418E-3,9.630525E-3,5E0,3E0,5E0,1E0,1.928458E-2,-1.8225652E-3,2E0,3.277778E-1,7.7507174E-1,6.1618924E-2,8.2505006E-1,2E0,5.4012793E-3,-2.3486344E-2,-5.931228E-3,-4.0486496E-2,5.3099222E-2,6.4960616E-3,-3.8284042E-3,-3.1449314E-2,1.43729625E-2,-7.7998536E-3,-2.237644E-2,2.5259806E-2,-4.6728164E-2,2.0572254E-2,-1.4735845E-2,3.6444988E-2],"split_indices":[10,9,9,12,13,12,12,0,11,12,2,0,3,0,13,0,0,0,0,0,0,0,0,0,0,0,0,0,0,0,0],"split_type":[0,0,0,0,0,0,0,0,0,0,0,0,0,0,0,0,0,0,0,0,0,0,0,0,0,0,0,0,0,0,0],"sum_hessian":[1.1334314E3,7.499148E2,3.8351657E2,1.4846658E2,6.0144824E2,3.0995703E2,7.355953E1,1.095516E2,3.8914978E1,4.1760574E1,5.596877E2,2.2717268E2,8.2784355E1,3.3134E0,7.024613E1,2.7591404E1,8.19602E1,5.264648E0,3.365033E1,1.016083E1,3.1599743E1,5.457088E2,1.3978881E1,1.4820143E2,7.897125E1,5.378007E0,7.740635E1,2.1414223E0,1.1719778E0,2.7290738E0,6.751706E1],"tree_param":{"num_deleted":"0","num_feature":"14","num_nodes":"31","size_leaf_vector":"1"}},{"base_weights":[-9.101661E-3,-2.327582E-1,1.596099E-1,-5.8697283E-1,-1.6481441E-1,5.6244716E-2,3.855324E-1,-2.3827897E-1,-7.636922E-1,-2.0774448E-1,3.0122164E-1,2.3446658E-1,-2.2948584E-2,-1.6713999E-1,4.379742E-1,3.0943245E-2,-2.4945844E-2,1.1797327E-2,-3.9554436E-2,-2.8461383E-3,-1.6864544E-2,1.8777918E-2,-2.351118E-2,3.2858793E-2,7.5334325E-3,-2.341288E-2,1.4459043E-3,2.3819149E-2,-2.3326838E-2,-1.4784078E-2,2.3594564E-2],"categories":[],"categories_nodes":[],"categories_segments":[],"categories_sizes":[],"default_left":[0,0,0,0,0,0,0,0,0,0,0,0,0,0,0,0,0,0,0,0,0,0,0,0,0,0,0,0,0,0,0],"id":33,"left_children":[1,3,5,7,9,11,13,15,17,19,21,23,25,27,29,-1,-1,-1,-1,-1,-1,-1,-1,-1,-1,-1,-1,-1,-1,-1,-1],"loss_changes":[4.2106647E1,1.1450457E1,1.4833151E1,4.552397E0,8.144784E0,6.181718E0,5.8555813E0,6.4065676E0,1.5706501E0,7.2195396E0,2.1540282E0,4.672962E0,7.0323253E0,3.6929927E0,4.680622E0,0E0,0E0,0E0,0E0,0E0,0E0,0E0,0E0,0E0,0E0,0E0,0E0,0E0,0E0,0E0,0E0],"parents":[2147483647,0,0,1,1,2,2,3,3,4,4,5,5,6,6,7,7,8,8,9,9,10,10,11,11,12,12,13,13,14,14],"right_children":[2,4,6,8,10,12,14,16,18,20,22,24,26,28,30,-1,-1,-1,-1,-1,-1,-1,-1,-1,-1,-1,-1,-1,-1,-1,-1],"split_conditions":[-2.5790068E-4,-6.087526E-3,5.016113E-3,-1.09829474E-4,5.704839E-1,3.4545454E-1,1E0,-4.8298323E-1,-1.5138829E-1,-2.616405E-1,2.9957402E-1,6E0,3.8799396E-1,4.0610847E-3,2E0,3.0943245E-2,-2.4945844E-2,1.1797327E-2,-3.9554436E-2,-2.8461383E-3,-1.6864544E-2,1.8777918E-2,-2.351118E-2,3.2858793E-2,7.5334325E-3,-2.341288E-2,1.4459043E-3,2.3819149E-2,-2.3326838E-2,-1.4784078E-2,2.3594564E-2],"split_indices":[10,10,9,11,1,7,12,2,6,2,3,13,7,10,13,0,0,0,0,0,0,0,0,0,0,0,0,0,0,0,0],"split_type":[0,0,0,0,0,0,0,0,0,0,0,0,0,0,0,0,0,0,0,0,0,0,0,0,0,0,0,0,0,0,0],"sum_hessian":[1.1139128E3,4.7880023E2,6.351127E2,7.5830475E1,4.0296976E2,4.3660428E2,1.9850839E2,2.6294949E1,4.9535522E1,3.694877E2,3.3482048E1,1.337173E2,3.02887E2,1.7014046E1,1.8149434E2,5.8108244E0,2.0484125E1,1.118316E0,4.8417206E1,1.7138991E2,1.980978E2,3.1007345E1,2.4747024E0,2.0990534E1,1.1272677E2,3.0760452E1,2.7212653E2,5.2146153E0,1.179943E1,7.6787395E0,1.738156E2],"tree_param":{"num_deleted":"0","num_feature":"14","num_nodes":"31","size_leaf_vector":"1"}},{"base_weights":[4.0067444E-3,-1.9617166E-1,2.0723906E-1,-2.6274222E-1,7.715053E-2,1.726494E-1,7.6652116E-1,-8.2291293E-1,-2.3670341E-1,5.6882936E-1,-6.299232E-2,5.0990975E-1,1.2379234E-1,4.0502083E-1,9.578305E-1,-2.2734573E-2,-4.7528934E-2,-9.710295E-3,-3.025725E-2,4.7285734E-3,4.3878045E-2,-4.8300236E-2,7.991514E-4,-4.894034E-3,3.004337E-2,2.3570955E-3,1.3294968E-2,3.7400424E-2,-2.3492245E-2,5.3833287E-2,2.0594819E-2],"categories":[],"categories_nodes":[],"categories_segments":[],"categories_sizes":[],"default_left":[0,0,0,0,0,0,0,0,0,0,0,0,0,0,0,0,0,0,0,0,0,0,0,0,0,0,0,0,0,0,0],"id":34,"left_children":[1,3,5,7,9,11,13,15,17,19,21,23,25,27,29,-1,-1,-1,-1,-1,-1,-1,-1,-1,-1,-1,-1,-1,-1,-1,-1],"loss_changes":[4.5545612E1,1.0282619E1,1.0614384E1,6.4240456E0,7.700811E0,8.578588E0,1.8296299E0,4.963255E-1,6.6939907E0,3.5442944E0,6.2531357E0,3.7097569E0,4.9916515E0,4.201126E0,8.693466E-1,0E0,0E0,0E0,0E0,0E0,0E0,0E0,0E0,0E0,0E0,0E0,0E0,0E0,0E0,0E0,0E0],"parents":[2147483647,0,0,1,1,2,2,3,3,4,4,5,5,6,6,7,7,8,8,9,9,10,10,11,11,12,12,13,13,14,14],"right_children":[2,4,6,8,10,12,14,16,18,20,22,24,26,28,30,-1,-1,-1,-1,-1,-1,-1,-1,-1,-1,-1,-1,-1,-1,-1,-1],"split_conditions":[7.741165E-2,-2.5790068E-4,1.28702745E-2,-1.242284E-2,1.0274311E-1,-3.543651E-1,1.0644399E-2,-1.3665975E-2,5.805369E-1,1.8410782E-4,-2.0637795E-1,1E0,3.3616084E-3,9.469843E-3,1E0,-2.2734573E-2,-4.7528934E-2,-9.710295E-3,-3.025725E-2,4.7285734E-3,4.3878045E-2,-4.8300236E-2,7.991514E-4,-4.894034E-3,3.004337E-2,2.3570955E-3,1.3294968E-2,3.7400424E-2,-2.3492245E-2,5.3833287E-2,2.0594819E-2],"split_indices":[3,10,9,9,7,6,10,10,0,9,3,12,10,10,0,0,0,0,0,0,0,0,0,0,0,0,0,0,0,0,0],"split_type":[0,0,0,0,0,0,0,0,0,0,0,0,0,0,0,0,0,0,0,0,0,0,0,0,0,0,0,0,0,0,0],"sum_hessian":[1.1175327E3,5.6301385E2,5.5451886E2,4.5277448E2,1.1023937E2,5.234538E2,3.1065111E1,1.8752388E1,4.340221E2,2.377344E1,8.6465935E1,6.5040726E1,4.5841306E2,1.1829346E1,1.9235765E1,6.0021586E0,1.275023E1,3.905066E2,4.3515484E1,9.888911E0,1.3884527E1,6.050634E0,8.04153E1,8.456595E0,5.658413E1,2.986548E2,1.5975826E2,8.601976E0,3.227369E0,1.4998779E1,4.236985E0],"tree_param":{"num_deleted":"0","num_feature":"14","num_nodes":"31","size_leaf_vector":"1"}},{"base_weights":[8.011166E-3,-1.6686739E-1,2.1971542E-1,-5.745212E-1,-1.2225483E-1,1.6371392E-1,5.5700487E-1,-7.225085E-1,-1.8834111E-1,2.2059333E-1,-1.7207439E-1,5.791247E-1,1.321395E-1,3.931933E-1,7.8873307E-1,-1.0970751E-2,-4.570016E-2,4.9800552E-2,-3.6138173E-2,-5.736552E-3,2.4076324E-2,-8.950101E-3,5.366646E-2,5.3923476E-2,1.5332225E-2,-3.4106278E-3,1.1963951E-2,-3.267237E-2,2.3176892E-2,4.715452E-2,1.5138216E-2],"categories":[],"categories_nodes":[],"categories_segments":[],"categories_sizes":[],"default_left":[0,0,0,0,0,0,0,0,0,0,0,0,0,0,0,0,0,0,0,0,0,0,0,0,0,0,0,0,0,0,0],"id":35,"left_children":[1,3,5,7,9,11,13,15,17,19,21,23,25,27,29,-1,-1,-1,-1,-1,-1,-1,-1,-1,-1,-1,-1,-1,-1,-1,-1],"loss_changes":[4.11979E1,1.1012911E1,9.416859E0,3.283987E0,9.442047E0,5.6043234E0,2.3948822E0,3.9335861E0,1.206979E1,6.205597E0,4.344472E0,3.7917976E0,8.684424E0,3.5234113E0,1.8536816E0,0E0,0E0,0E0,0E0,0E0,0E0,0E0,0E0,0E0,0E0,0E0,0E0,0E0,0E0,0E0,0E0],"parents":[2147483647,0,0,1,1,2,2,3,3,4,4,5,5,6,6,7,7,8,8,9,9,10,10,11,11,12,12,13,13,14,14],"right_children":[2,4,6,8,10,12,14,16,18,20,22,24,26,28,30,-1,-1,-1,-1,-1,-1,-1,-1,-1,-1,-1,-1,-1,-1,-1,-1],"split_conditions":[6.2656975E-1,-7.7304686E-3,9.630525E-3,-3.7581506E-3,2.7384824E-4,-5.2745175E-4,4.8469096E-1,1.5204553E-3,-2.7742595E-3,-2.3220717E-3,5.0545624E-3,6.894993E-1,1.0482774E-3,1E0,-9.374142E-3,-1.0970751E-2,-4.570016E-2,4.9800552E-2,-3.6138173E-2,-5.736552E-3,2.4076324E-2,-8.950101E-3,5.366646E-2,5.3923476E-2,1.5332225E-2,-3.4106278E-3,1.1963951E-2,-3.267237E-2,2.3176892E-2,4.715452E-2,1.5138216E-2],"split_indices":[1,9,9,8,7,8,3,11,8,8,10,1,8,12,6,0,0,0,0,0,0,0,0,0,0,0,0,0,0,0,0],"split_type":[0,0,0,0,0,0,0,0,0,0,0,0,0,0,0,0,0,0,0,0,0,0,0,0,0,0,0,0,0,0,0],"sum_hessian":[1.1107887E3,6.08417E2,5.023718E2,5.8843933E1,5.4957306E2,4.3211194E2,7.0259865E1,4.1912006E1,1.6931929E1,6.929195E1,4.8028107E2,2.929881E1,4.028131E2,4.2741875E1,2.7517988E1,1.2146533E1,2.9765472E1,4.9961247E0,1.1935803E1,3.0568619E1,3.872333E1,4.784758E2,1.805278E0,9.299201E0,1.9999607E1,1.404791E2,2.62334E2,2.1697278E0,4.0572147E1,2.0170599E1,7.34739E0],"tree_param":{"num_deleted":"0","num_feature":"14","num_nodes":"31","size_leaf_vector":"1"}},{"base_weights":[-1.8616248E-2,-1.3366428E-1,2.5473922E-1,-3.3097914E-1,-5.2002262E-2,1.150606E-1,3.9302066E-1,-1.3530561E-1,-4.3093342E-1,-2.9073913E-2,-5.4917383E-1,5.8097905E-1,1.620236E-2,3.516204E-1,5.305862E-2,-1.4770481E-2,2.3590658E-2,-3.6086276E-2,-1.7378386E-2,-1.3587499E-2,7.102582E-4,-4.4101696E-2,-9.439915E-3,6.1827857E-2,2.069646E-2,-1.8487034E-2,6.562624E-3,1.8827997E-2,-5.0307687E-2],"categories":[],"categories_nodes":[],"categories_segments":[],"categories_sizes":[],"default_left":[0,0,0,0,0,0,0,0,0,0,0,0,0,0,0,0,0,0,0,0,0,0,0,0,0,0,0,0,0],"id":36,"left_children":[1,3,5,7,9,11,13,15,17,19,21,23,25,27,-1,-1,-1,-1,-1,-1,-1,-1,-1,-1,-1,-1,-1,-1,-1],"loss_changes":[3.4884018E1,1.256002E1,6.301367E0,4.406845E0,6.29082E0,7.584947E0,4.1828556E0,7.784064E0,3.401245E0,5.5695586E0,2.7524834E0,2.6456518E0,6.1338577E0,5.6813564E0,0E0,0E0,0E0,0E0,0E0,0E0,0E0,0E0,0E0,0E0,0E0,0E0,0E0,0E0,0E0],"parents":[2147483647,0,0,1,1,2,2,3,3,4,4,5,5,6,6,7,7,8,8,9,9,10,10,11,11,12,12,13,13],"right_children":[2,4,6,8,10,12,14,16,18,20,22,24,26,28,-1,-1,-1,-1,-1,-1,-1,-1,-1,-1,-1,-1,-1,-1,-1],"split_conditions":[2.5285888E-3,-2.8066582E-3,8.9156145E-1,1.1E1,8.3617604E-1,-6.616378E-2,1.8979162E-3,9E0,-8.134557E-3,-2.0766335E-3,1.2323409E-3,6E0,8.09871E-4,1.483589E-3,5.305862E-2,-1.4770481E-2,2.3590658E-2,-3.6086276E-2,-1.7378386E-2,-1.3587499E-2,7.102582E-4,-4.4101696E-2,-9.439915E-3,6.1827857E-2,2.069646E-2,-1.8487034E-2,6.562624E-3,1.8827997E-2,-5.0307687E-2],"split_indices":[9,9,1,13,0,2,11,13,9,11,9,13,8,11,0,0,0,0,0,0,0,0,0,0,0,0,0,0,0],"split_type":[0,0,0,0,0,0,0,0,0,0,0,0,0,0,0,0,0,0,0,0,0,0,0,0,0,0,0,0,0],"sum_hessian":[1.1071421E3,7.79558E2,3.2758414E2,2.2729826E2,5.522597E2,1.6388017E2,1.6370396E2,7.7647285E1,1.4965097E2,5.289254E2,2.3334284E1,2.7831858E1,1.3604831E2,1.5558952E2,8.114433E0,6.1850136E1,1.5797151E1,3.1637453E1,1.1801352E2,7.9253456E1,4.4967197E2,1.1377728E1,1.1956554E1,4.3516645E0,2.3480192E1,3.073432E1,1.05313995E2,1.5349284E2,2.0966883E0],"tree_param":{"num_deleted":"0","num_feature":"14","num_nodes":"29","size_leaf_vector":"1"}},{"base_weights":[8.037339E-3,-2.0525484E-1,1.6330844E-1,-7.3304987E-1,-1.8274164E-1,-2.1150371E-1,2.3259011E-1,-4.3209475E-2,-2.9724455E-1,-1.4902917E-1,-4.731681E-1,-4.9924716E-1,3.931447E-2,1.9414638E-1,7.527249E-1,1.31844655E-2,-4.055046E-2,-9.309955E-3,1.4250288E-2,-4.3070745E-2,-1.7639842E-2,-2.7463961E-2,1.7839199E-2,1.3058722E-2,-2.9050091E-2,2.8754195E-2,8.133756E-3,4.0317357E-2,1.2575471E-3],"categories":[],"categories_nodes":[],"categories_segments":[],"categories_sizes":[],"default_left":[0,0,0,0,0,0,0,0,0,0,0,0,0,0,0,0,0,0,0,0,0,0,0,0,0,0,0,0,0],"id":37,"left_children":[1,3,5,7,9,11,13,-1,15,17,19,21,23,25,27,-1,-1,-1,-1,-1,-1,-1,-1,-1,-1,-1,-1,-1,-1],"loss_changes":[3.6486732E1,5.381304E0,1.6604784E1,8.0937576E-1,4.301155E0,7.235713E0,1.0622911E1,0E0,1.8967974E0,6.5308094E0,1.8448629E0,2.1934366E0,7.6312156E0,5.9348316E0,1.41226E0,0E0,0E0,0E0,0E0,0E0,0E0,0E0,0E0,0E0,0E0,0E0,0E0,0E0,0E0],"parents":[2147483647,0,0,1,1,2,2,3,3,4,4,5,5,6,6,8,8,9,9,10,10,11,11,12,12,13,13,14,14],"right_children":[2,4,6,8,10,12,14,-1,16,18,20,22,24,26,28,-1,-1,-1,-1,-1,-1,-1,-1,-1,-1,-1,-1,-1,-1],"split_conditions":[-2.880905E-4,-1.242284E-2,1E0,-4.5102003E-1,6.4463973E-1,4.5459065E-1,7.6244925E-3,-4.3209475E-2,7.7669173E-3,5.2901965E-1,9.500204E-5,1.5725287E-3,4.0610847E-3,6.951872E-2,6.403889E-3,1.31844655E-2,-4.055046E-2,-9.309955E-3,1.4250288E-2,-4.3070745E-2,-1.7639842E-2,-2.7463961E-2,1.7839199E-2,1.3058722E-2,-2.9050091E-2,2.8754195E-2,8.133756E-3,4.0317357E-2,1.2575471E-3],"split_indices":[9,9,12,3,0,7,8,0,7,5,8,11,10,7,11,0,0,0,0,0,0,0,0,0,0,0,0,0,0],"split_type":[0,0,0,0,0,0,0,0,0,0,0,0,0,0,0,0,0,0,0,0,0,0,0,0,0,0,0,0,0],"sum_hessian":[1.0997034E3,4.6315564E2,6.3654767E2,1.7656612E1,4.4549902E2,9.898554E1,5.3756213E2,1.2816872E1,4.83974E0,4.005201E2,4.4978912E1,4.5638126E1,5.3347416E1,5.018436E2,3.571855E1,2.5463533E0,2.2933862E0,3.6945197E2,3.106816E1,9.187888E0,3.5791027E1,4.3456585E1,2.1815436E0,3.9720203E1,1.3627212E1,3.697797E1,4.6486563E2,3.316595E1,2.552601E0],"tree_param":{"num_deleted":"0","num_feature":"14","num_nodes":"29","size_leaf_vector":"1"}},{"base_weights":[-2.0793064E-3,-6.280595E-2,4.1314048E-1,-3.445185E-1,-7.727666E-3,-4.2878798E-1,4.7245657E-1,-6.411319E-1,-2.3689556E-1,7.6876625E-2,-1.9036421E-1,-5.651508E-2,1.6980109E-1,5.168501E-1,-5.912929E-1,-1.4859949E-2,-4.129126E-2,3.189969E-3,-1.9062644E-2,3.450946E-2,3.1437867E-3,3.366941E-2,-1.0635574E-2,4.546708E-2,-9.443565E-3,5.853985E-2,2.3697076E-2,2.7095018E-2,-6.0186353E-2],"categories":[],"categories_nodes":[],"categories_segments":[],"categories_sizes":[],"default_left":[0,0,0,0,0,0,0,0,0,0,0,0,0,0,0,0,0,0,0,0,0,0,0,0,0,0,0,0,0],"id":38,"left_children":[1,3,5,7,9,11,13,15,17,19,21,-1,23,25,27,-1,-1,-1,-1,-1,-1,-1,-1,-1,-1,-1,-1,-1,-1],"loss_changes":[2.7754356E1,1.4896674E1,7.2162437E0,4.8603687E0,1.244143E1,4.293488E0,6.5237617E0,2.3727512E0,5.0941744E0,4.6822834E0,5.063324E0,0E0,1.8003435E0,3.0068398E0,4.636903E0,0E0,0E0,0E0,0E0,0E0,0E0,0E0,0E0,0E0,0E0,0E0,0E0,0E0,0E0],"parents":[2147483647,0,0,1,1,2,2,3,3,4,4,5,5,6,6,7,7,8,8,9,9,10,10,12,12,13,13,14,14],"right_children":[2,4,6,8,10,12,14,16,18,20,22,-1,24,26,28,-1,-1,-1,-1,-1,-1,-1,-1,-1,-1,-1,-1,-1,-1],"split_conditions":[4.7778366E-3,-3.6015748E-3,1E0,-7.7304686E-3,4.6278358E-2,7.328495E-1,2.9E1,1.1E1,-6.161012E-3,-5.4108757E-3,-3.2559852E-3,-5.651508E-2,7.551584E-1,4.498886E-3,8.186952E-1,-1.4859949E-2,-4.129126E-2,3.189969E-3,-1.9062644E-2,3.450946E-2,3.1437867E-3,3.366941E-2,-1.0635574E-2,4.546708E-2,-9.443565E-3,5.853985E-2,2.3697076E-2,2.7095018E-2,-6.0186353E-2],"split_indices":[10,8,12,9,6,7,13,13,8,9,8,0,7,9,5,0,0,0,0,0,0,0,0,0,0,0,0,0,0],"split_type":[0,0,0,0,0,0,0,0,0,0,0,0,0,0,0,0,0,0,0,0,0,0,0,0,0,0,0,0,0],"sum_hessian":[1.0986832E3,9.592413E2,1.3944202E2,1.560135E2,8.032278E2,8.767521E0,1.306745E2,4.0216885E1,1.1579663E2,5.493341E2,2.5389366E2,3.6277366E0,5.139785E0,1.25933044E2,4.7414517E0,1.4962708E1,2.5254173E1,3.774084E1,7.8055786E1,1.1182577E1,5.381515E2,5.6684246E0,2.4822523E2,1.1772122E0,3.9625723E0,6.1357365E0,1.1979731E2,1.703892E0,3.03756E0],"tree_param":{"num_deleted":"0","num_feature":"14","num_nodes":"29","size_leaf_vector":"1"}},{"base_weights":[-2.9645322E-3,-1.9436081E-1,1.2546952E-1,-8.1237555E-1,-1.6782045E-1,5.410058E-2,3.520869E-1,-8.9480686E-1,-3.9168005E-3,-9.764945E-2,-3.841497E-1,4.1207764E-1,1.8715462E-2,-2.2312948E-1,3.983859E-1,-1.55878905E-2,-4.968464E-2,-6.353907E-3,3.645901E-2,-1.1036654E-3,-2.6747903E-2,3.7763458E-2,1.1368641E-2,1.419268E-3,-5.6956112E-2,3.135737E-2,-3.2985732E-2,-1.4013401E-2,2.1530516E-2],"categories":[],"categories_nodes":[],"categories_segments":[],"categories_sizes":[],"default_left":[0,0,0,0,0,0,0,0,0,0,0,0,0,0,0,0,0,0,0,0,0,0,0,0,0,0,0,0,0],"id":39,"left_children":[1,3,5,7,9,11,13,15,-1,17,19,21,23,25,27,-1,-1,-1,-1,-1,-1,-1,-1,-1,-1,-1,-1,-1,-1],"loss_changes":[2.6813992E1,7.048357E0,1.0538753E1,1.0054932E0,6.3571167E0,6.295706E0,4.2478256E0,6.060848E-1,0E0,7.8649087E0,5.6033726E0,2.6628041E0,5.1143494E0,4.9701414E0,3.2893028E0,0E0,0E0,0E0,0E0,0E0,0E0,0E0,0E0,0E0,0E0,0E0,0E0,0E0,0E0],"parents":[2147483647,0,0,1,1,2,2,3,3,4,4,5,5,6,6,7,7,9,9,10,10,11,11,12,12,13,13,14,14],"right_children":[2,4,6,8,10,12,14,16,-1,18,20,22,24,26,28,-1,-1,-1,-1,-1,-1,-1,-1,-1,-1,-1,-1,-1,-1],"split_conditions":[-4.1080147E-4,-1.242284E-2,5.7459245E-3,-2.8362095E-3,-8.425035E-4,-3.543651E-1,1E0,6E0,-3.9168005E-3,5.2901965E-1,3.3121043E-1,1.2E1,4.8120743E-1,4.677951E-3,2E0,-1.55878905E-2,-4.968464E-2,-6.353907E-3,3.645901E-2,-1.1036654E-3,-2.6747903E-2,3.7763458E-2,1.1368641E-2,1.419268E-3,-5.6956112E-2,3.135737E-2,-3.2985732E-2,-1.4013401E-2,2.1530516E-2],"split_indices":[10,9,9,8,8,6,12,13,0,5,5,13,3,10,13,0,0,0,0,0,0,0,0,0,0,0,0,0,0],"split_type":[0,0,0,0,0,0,0,0,0,0,0,0,0,0,0,0,0,0,0,0,0,0,0,0,0,0,0,0,0],"sum_hessian":[1.0888147E3,4.3702847E2,6.517862E2,1.6776003E1,4.2025247E2,4.966228E2,1.551634E2,1.4885384E1,1.8906187E0,3.1841815E2,1.0183431E2,4.371637E1,4.5290643E2,1.1274189E1,1.4388922E2,2.7606716E0,1.2124712E1,3.082917E2,1.0126472E1,3.0280386E1,7.1553925E1,1.4215023E1,2.9501345E1,4.5012265E2,2.7837987E0,3.676837E0,7.597352E0,6.173633E0,1.3771559E2],"tree_param":{"num_deleted":"0","num_feature":"14","num_nodes":"29","size_leaf_vector":"1"}},{"base_weights":[1.6930198E-2,-8.768705E-2,2.2411789E-1,-3.304912E-1,-2.4519747E-2,1.8664227E-1,6.813507E-1,-1.9201471E-1,-6.972226E-1,3.8332734E-1,-5.6032196E-2,6.0459685E-1,1.5624677E-1,-1.309322E-2,7.33396E-1,-1.1488558E-3,-2.2120068E-2,-4.5885768E-2,-1.5806226E-2,3.0609204E-2,-1.2533786E-2,-5.1250677E-3,7.544546E-3,4.2356937E-3,4.1582808E-2,-1.15700085E-2,9.856133E-3,3.9650753E-2,1.1046673E-2],"categories":[],"categories_nodes":[],"categories_segments":[],"categories_sizes":[],"default_left":[0,0,0,0,0,0,0,0,0,0,0,0,0,0,0,0,0,0,0,0,0,0,0,0,0,0,0,0,0],"id":40,"left_children":[1,3,5,7,9,11,13,15,17,19,21,23,25,-1,27,-1,-1,-1,-1,-1,-1,-1,-1,-1,-1,-1,-1,-1,-1],"loss_changes":[2.3566301E1,1.1074034E1,6.123167E0,7.437542E0,7.4047203E0,4.205988E0,1.529994E0,4.6288795E0,3.1118698E0,6.15036E0,5.151509E0,2.597433E0,5.0672235E0,0E0,6.2199974E-1,0E0,0E0,0E0,0E0,0E0,0E0,0E0,0E0,0E0,0E0,0E0,0E0,0E0,0E0],"parents":[2147483647,0,0,1,1,2,2,3,3,4,4,5,5,6,6,7,7,8,8,9,9,10,10,11,11,12,12,14,14],"right_children":[2,4,6,8,10,12,14,16,18,20,22,24,26,-1,28,-1,-1,-1,-1,-1,-1,-1,-1,-1,-1,-1,-1,-1,-1],"split_conditions":[1.594712E-3,-4.418706E-3,8.290611E-3,5E0,3E0,2.8745562E-4,-4.0858448E-1,4.8449874E-2,-3.9404413E-1,6.1895335E-1,6E0,-2.0309474E-4,8.09871E-4,-1.309322E-2,1E0,-1.1488558E-3,-2.2120068E-2,-4.5885768E-2,-1.5806226E-2,3.0609204E-2,-1.2533786E-2,-5.1250677E-3,7.544546E-3,4.2356937E-3,4.1582808E-2,-1.15700085E-2,9.856133E-3,3.9650753E-2,1.1046673E-2],"split_indices":[10,9,8,12,13,8,6,6,3,0,12,8,8,0,0,0,0,0,0,0,0,0,0,0,0,0,0,0,0],"split_type":[0,0,0,0,0,0,0,0,0,0,0,0,0,0,0,0,0,0,0,0,0,0,0,0,0,0,0,0,0],"sum_hessian":[1.0853302E3,7.215619E2,3.637683E2,1.4809158E2,5.7347034E2,3.3751334E2,2.6254993E1,1.0860594E2,3.9485638E1,4.0330612E1,5.331397E2,2.1600727E1,3.159126E2,1.1621374E0,2.5092857E1,6.5487015E1,4.311893E1,2.4121517E1,1.53641205E1,2.965899E1,1.067162E1,4.3578027E2,9.7359436E1,6.983698E0,1.4617029E1,2.9689625E1,2.86223E2,2.1987415E1,3.1054418E0],"tree_param":{"num_deleted":"0","num_feature":"14","num_nodes":"29","size_leaf_vector":"1"}},{"base_weights":[-9.180127E-3,-1.1663942E-1,1.6884331E-1,-4.7524697E-1,-7.664662E-2,1.4180587E-1,8.0368483E-1,3.324197E-1,-5.602546E-1,-4.9535315E-2,-4.70897E-1,4.619668E-1,1.0935545E-1,8.853947E-1,1.7469326E-1,6.28536E-2,-1.8230787E-2,-3.7004482E-2,-1.0824926E-2,-5.652033E-3,3.2145493E-3,3.9012548E-2,-2.6855404E-2,8.203038E-3,4.7421243E-2,-5.9645525E-3,8.143718E-3,1.6144522E-2,5.2874368E-2,3.0784113E-2,-1.7556608E-2],"categories":[],"categories_nodes":[],"categories_segments":[],"categories_sizes":[],"default_left":[0,0,0,0,0,0,0,0,0,0,0,0,0,0,0,0,0,0,0,0,0,0,0,0,0,0,0,0,0,0,0],"id":41,"left_children":[1,3,5,7,9,11,13,15,17,19,21,23,25,27,29,-1,-1,-1,-1,-1,-1,-1,-1,-1,-1,-1,-1,-1,-1,-1,-1],"loss_changes":[2.0789494E1,9.681843E0,6.907696E0,4.8409386E0,6.505582E0,4.038573E0,6.9316196E-1,5.0238743E0,3.65477E0,4.1466575E0,3.665102E0,5.04858E0,4.4084854E0,1.0480642E0,9.4486E-1,0E0,0E0,0E0,0E0,0E0,0E0,0E0,0E0,0E0,0E0,0E0,0E0,0E0,0E0,0E0,0E0],"parents":[2147483647,0,0,1,1,2,2,3,3,4,4,5,5,6,6,7,7,8,8,9,9,10,10,11,11,12,12,13,13,14,14],"right_children":[2,4,6,8,10,12,14,16,18,20,22,24,26,28,30,-1,-1,-1,-1,-1,-1,-1,-1,-1,-1,-1,-1,-1,-1,-1,-1],"split_conditions":[1.1939966E-3,-7.053172E-3,1.1400696E-2,-1.7395848E-3,6.890645E-1,-8.335549E-2,5.5E-1,1.3E1,-3.7581506E-3,-4.4770446E-4,-1.6350887E-3,-2.0194024E-1,1.0482774E-3,9.69869E-1,8.707185E-3,6.28536E-2,-1.8230787E-2,-3.7004482E-2,-1.0824926E-2,-5.652033E-3,3.2145493E-3,3.9012548E-2,-2.6855404E-2,8.203038E-3,4.7421243E-2,-5.9645525E-3,8.143718E-3,1.6144522E-2,5.2874368E-2,3.0784113E-2,-1.7556608E-2],"split_indices":[10,9,10,11,5,2,3,13,8,9,9,2,8,1,8,0,0,0,0,0,0,0,0,0,0,0,0,0,0,0,0],"split_type":[0,0,0,0,0,0,0,0,0,0,0,0,0,0,0,0,0,0,0,0,0,0,0,0,0,0,0,0,0,0,0],"sum_hessian":[1.0847032E3,6.766223E2,4.0808093E2,6.679564E1,6.0982666E2,3.9258444E2,1.549651E1,6.0836577E0,6.0711983E1,5.7164233E2,3.8184326E1,3.4911007E1,3.5767343E2,1.3354091E1,2.1424186E0,2.2695422E0,3.8141155E0,3.9102608E1,2.1609373E1,3.6693237E2,2.0470998E2,1.377138E0,3.6807186E1,2.2480959E1,1.2430046E1,6.760759E1,2.9006583E2,3.8022547E0,9.551836E0,1.072265E0,1.0701535E0],"tree_param":{"num_deleted":"0","num_feature":"14","num_nodes":"31","size_leaf_vector":"1"}},{"base_weights":[-6.426602E-4,-6.43154E-2,3.1827787E-1,-2.8346226E-1,-1.8967647E-2,2.735795E-1,8.646586E-1,-1.9719772E-1,-7.1369326E-1,-6.7962095E-2,2.1782279E-1,-1.6302662E-1,3.166766E-1,-1.8500757E-3,4.9348544E-2,2.2001779E-2,-1.1927793E-2,-4.561281E-2,-1.4094501E-2,8.559825E-4,-1.2274204E-2,-2.3222364E-2,1.3325728E-2,1.4235944E-2,-2.8482784E-2,2.0782514E-2,4.8878975E-3],"categories":[],"categories_nodes":[],"categories_segments":[],"categories_sizes":[],"default_left":[0,0,0,0,0,0,0,0,0,0,0,0,0,0,0,0,0,0,0,0,0,0,0,0,0,0,0],"id":42,"left_children":[1,3,5,7,9,11,13,15,17,19,21,23,25,-1,-1,-1,-1,-1,-1,-1,-1,-1,-1,-1,-1,-1,-1],"loss_changes":[2.1844645E1,8.905924E0,4.1357803E0,5.562484E0,8.6466875E0,3.1931171E0,1.4785604E0,3.5148907E0,1.9106836E0,9.326962E0,4.369223E0,3.013265E0,3.2591667E0,0E0,0E0,0E0,0E0,0E0,0E0,0E0,0E0,0E0,0E0,0E0,0E0,0E0,0E0],"parents":[2147483647,0,0,1,1,2,2,3,3,4,4,5,5,6,6,7,7,8,8,9,9,10,10,11,11,12,12],"right_children":[2,4,6,8,10,12,14,16,18,20,22,24,26,-1,-1,-1,-1,-1,-1,-1,-1,-1,-1,-1,-1,-1,-1],"split_conditions":[5.016113E-3,-3.544462E-3,1.0282845E-2,2.773033E-3,6E0,1E0,5.8289254E-1,-3.1666085E-1,6.0247085E-3,4.6278358E-2,-3.949154E-3,7.2328504E-3,5.046716E-3,-1.8500757E-3,4.9348544E-2,2.2001779E-2,-1.1927793E-2,-4.561281E-2,-1.4094501E-2,8.559825E-4,-1.2274204E-2,-2.3222364E-2,1.3325728E-2,1.4235944E-2,-2.8482784E-2,2.0782514E-2,4.8878975E-3],"split_indices":[9,8,8,11,12,12,0,6,11,6,9,9,8,0,0,0,0,0,0,0,0,0,0,0,0,0,0],"split_type":[0,0,0,0,0,0,0,0,0,0,0,0,0,0,0,0,0,0,0,0,0,0,0,0,0,0,0],"sum_hessian":[1.0737362E3,8.9570605E2,1.7803012E2,1.5266907E2,7.43037E2,1.6595442E2,1.2075698E1,1.2838522E2,2.4283842E1,6.162428E2,1.2679418E2,1.4659532E1,1.5129489E2,1.5257417E0,1.0549956E1,7.237189E0,1.2114804E2,1.5872343E1,8.411499E0,4.171953E2,1.990475E2,7.8773966E0,1.1891679E2,7.119713E0,7.539819E0,1.0357137E2,4.7723515E1],"tree_param":{"num_deleted":"0","num_feature":"14","num_nodes":"27","size_leaf_vector":"1"}},{"base_weights":[-3.8396074E-3,-1.4644478E-1,1.3979524E-1,-5.169609E-1,-1.14852525E-1,1.13697425E-1,6.862847E-1,2.5357965E-2,-5.671617E-1,-8.185975E-2,-4.0727675E-1,3.20218E-2,2.2524703E-1,8.206076E-1,1.0811736E-1,-3.4983914E-2,-1.1014269E-2,-6.592194E-3,7.0495247E-3,-4.4529226E-2,-7.612715E-3,2.1711638E-2,-9.634856E-4,4.3413814E-2,7.985847E-3,3.8944643E-3,5.2044153E-2,3.76144E-2,-1.7834695E-2],"categories":[],"categories_nodes":[],"categories_segments":[],"categories_sizes":[],"default_left":[0,0,0,0,0,0,0,0,0,0,0,0,0,0,0,0,0,0,0,0,0,0,0,0,0,0,0,0,0],"id":43,"left_children":[1,3,5,7,9,11,13,-1,15,17,19,21,23,25,27,-1,-1,-1,-1,-1,-1,-1,-1,-1,-1,-1,-1,-1,-1],"loss_changes":[2.2036983E1,6.2598495E0,7.5666456E0,2.4535484E0,4.7783E0,4.664649E0,1.79317E0,0E0,1.7136087E0,5.0245833E0,6.0656023E0,6.1394873E0,8.987676E0,3.1111383E0,1.9810439E0,0E0,0E0,0E0,0E0,0E0,0E0,0E0,0E0,0E0,0E0,0E0,0E0,0E0,0E0],"parents":[2147483647,0,0,1,1,2,2,3,3,4,4,5,5,6,6,8,8,9,9,10,10,11,11,12,12,13,13,14,14],"right_children":[2,4,6,8,10,12,14,-1,16,18,20,22,24,26,28,-1,-1,-1,-1,-1,-1,-1,-1,-1,-1,-1,-1,-1,-1],"split_conditions":[7.741165E-2,-8.5850805E-3,1.3204623E-2,2E0,2.5350332E-2,1.9E1,5E0,2.5357965E-2,-3.8212994E-3,-2.5790068E-4,-1.2724817E-2,3E0,2E1,4.6867108E-1,4.7707957E-1,-3.4983914E-2,-1.1014269E-2,-6.592194E-3,7.0495247E-3,-4.4529226E-2,-7.612715E-3,2.1711638E-2,-9.634856E-4,4.3413814E-2,7.985847E-3,3.8944643E-3,5.2044153E-2,3.76144E-2,-1.7834695E-2],"split_indices":[3,9,9,13,3,13,12,0,8,10,2,13,13,3,3,0,0,0,0,0,0,0,0,0,0,0,0,0,0],"split_type":[0,0,0,0,0,0,0,0,0,0,0,0,0,0,0,0,0,0,0,0,0,0,0,0,0,0,0,0,0],"sum_hessian":[1.0738636E3,5.388535E2,5.350102E2,4.1128777E1,4.9772473E2,5.1177808E2,2.323211E1,1.4965131E0,3.9632263E1,4.484125E2,4.931222E1,2.961943E2,2.1558377E2,1.8511984E1,4.720125E0,2.7940943E1,1.1691321E1,3.6659546E2,8.181704E1,1.6171846E1,3.3140377E1,3.2655415E1,2.6353888E2,1.8805027E1,1.9677875E2,4.5440593E0,1.3967924E1,1.7191358E0,3.0009894E0],"tree_param":{"num_deleted":"0","num_feature":"14","num_nodes":"29","size_leaf_vector":"1"}},{"base_weights":[2.0662354E-2,-2.6463172E-1,6.7188516E-2,-1.5651545E-1,-6.597127E-1,1.368792E-1,-1.0100096E-1,-2.9892195E-2,-4.7946173E-1,-5.0919425E-1,-5.0130624E-2,-1.3059117E-1,1.9109009E-1,-1.6943926E-1,1.8992653E-1,3.5493847E-2,-3.811743E-3,-4.081076E-2,1.692189E-2,-2.9409189E-2,2.0315649E-2,6.580227E-2,-9.453996E-3,8.860501E-3,4.652291E-2,3.9539423E-2,-9.9421125E-3,-8.127989E-3,2.3503989E-2],"categories":[],"categories_nodes":[],"categories_segments":[],"categories_sizes":[],"default_left":[0,0,0,0,0,0,0,0,0,0,0,0,0,0,0,0,0,0,0,0,0,0,0,0,0,0,0,0,0],"id":44,"left_children":[1,3,5,7,9,11,13,15,17,19,-1,21,23,25,27,-1,-1,-1,-1,-1,-1,-1,-1,-1,-1,-1,-1,-1,-1],"loss_changes":[1.4378178E1,6.3849897E0,1.0926023E1,4.916157E0,1.1578779E0,9.575351E0,5.4741297E0,3.0599983E0,9.611438E0,2.010458E0,0E0,9.690961E0,5.4596004E0,6.4193416E0,5.263068E0,0E0,0E0,0E0,0E0,0E0,0E0,0E0,0E0,0E0,0E0,0E0,0E0,0E0,0E0],"parents":[2147483647,0,0,1,1,2,2,3,3,4,4,5,5,6,6,7,7,8,8,9,9,11,11,12,12,13,13,14,14],"right_children":[2,4,6,8,10,12,14,16,18,20,-1,22,24,26,28,-1,-1,-1,-1,-1,-1,-1,-1,-1,-1,-1,-1,-1,-1],"split_conditions":[-3.6015748E-3,1.6628184E-3,3.3942834E-2,