{"learner":{"attributes":{"scikit_learn":"{\"_estimator_type\": \"classifier\"}"},"feature_names":[],"feature_types":[],"gradient_booster":{"model":{"gbtree_model_param":{"num_parallel_tree":"1","num_trees":"600"},"iteration_indptr":[0,1,2,3,4,5,6,7,8,9,10,11,12,13,14,15,16,17,18,19,20,21,22,23,24,25,26,27,28,29,30,31,32,33,34,35,36,37,38,39,40,41,42,43,44,45,46,47,48,49,50,51,52,53,54,55,56,57,58,59,60,61,62,63,64,65,66,67,68,69,70,71,72,73,74,75,76,77,78,79,80,81,82,83,84,85,86,87,88,89,90,91,92,93,94,95,96,97,98,99,100,101,102,103,104,105,106,107,108,109,110,111,112,113,114,115,116,117,118,119,120,121,122,123,124,125,126,127,128,129,130,131,132,133,134,135,136,137,138,139,140,141,142,143,144,145,146,147,148,149,150,151,152,153,154,155,156,157,158,159,160,161,162,163,164,165,166,167,168,169,170,171,172,173,174,175,176,177,178,179,180,181,182,183,184,185,186,187,188,189,190,191,192,193,194,195,196,197,198,199,200,201,202,203,204,205,206,207,208,209,210,211,212,213,214,215,216,217,218,219,220,221,222,223,224,225,226,227,228,229,230,231,232,233,234,235,236,237,238,239,240,241,242,243,244,245,246,247,248,249,250,251,252,253,254,255,256,257,258,259,260,261,262,263,264,265,266,267,268,269,270,271,272,273,274,275,276,277,278,279,280,281,282,283,284,285,286,287,288,289,290,291,292,293,294,295,296,297,298,299,300,301,302,303,304,305,306,307,308,309,310,311,312,313,314,315,316,317,318,319,320,321,322,323,324,325,326,327,328,329,330,331,332,333,334,335,336,337,338,339,340,341,342,343,344,345,346,347,348,349,350,351,352,353,354,355,356,357,358,359,360,361,362,363,364,365,366,367,368,369,370,371,372,373,374,375,376,377,378,379,380,381,382,383,384,385,386,387,388,389,390,391,392,393,394,395,396,397,398,399,400,401,402,403,404,405,406,407,408,409,410,411,412,413,414,415,416,417,418,419,420,421,422,423,424,425,426,427,428,429,430,431,432,433,434,435,436,437,438,439,440,441,442,443,444,445,446,447,448,449,450,451,452,453,454,455,456,457,458,459,460,461,462,463,464,465,466,467,468,469,470,471,472,473,474,475,476,477,478,479,480,481,482,483,484,485,486,487,488,489,490,491,492,493,494,495,496,497,498,499,500,501,502,503,504,505,506,507,508,509,510,511,512,513,514,515,516,517,518,519,520,521,522,523,524,525,526,527,528,529,530,531,532,533,534,535,536,537,538,539,540,541,542,543,544,545,546,547,548,549,550,551,552,553,554,555,556,557,558,559,560,561,562,563,564,565,566,567,568,569,570,571,572,573,574,575,576,577,578,579,580,581,582,583,584,585,586,587,588,589,590,591,592,593,594,595,596,597,598,599,600],"tree_info":[0,0,0,0,0,0,0,0,0,0,0,0,0,0,0,0,0,0,0,0,0,0,0,0,0,0,0,0,0,0,0,0,0,0,0,0,0,0,0,0,0,0,0,0,0,0,0,0,0,0,0,0,0,0,0,0,0,0,0,0,0,0,0,0,0,0,0,0,0,0,0,0,0,0,0,0,0,0,0,0,0,0,0,0,0,0,0,0,0,0,0,0,0,0,0,0,0,0,0,0,0,0,0,0,0,0,0,0,0,0,0,0,0,0,0,0,0,0,0,0,0,0,0,0,0,0,0,0,0,0,0,0,0,0,0,0,0,0,0,0,0,0,0,0,0,0,0,0,0,0,0,0,0,0,0,0,0,0,0,0,0,0,0,0,0,0,0,0,0,0,0,0,0,0,0,0,0,0,0,0,0,0,0,0,0,0,0,0,0,0,0,0,0,0,0,0,0,0,0,0,0,0,0,0,0,0,0,0,0,0,0,0,0,0,0,0,0,0,0,0,0,0,0,0,0,0,0,0,0,0,0,0,0,0,0,0,0,0,0,0,0,0,0,0,0,0,0,0,0,0,0,0,0,0,0,0,0,0,0,0,0,0,0,0,0,0,0,0,0,0,0,0,0,0,0,0,0,0,0,0,0,0,0,0,0,0,0,0,0,0,0,0,0,0,0,0,0,0,0,0,0,0,0,0,0,0,0,0,0,0,0,0,0,0,0,0,0,0,0,0,0,0,0,0,0,0,0,0,0,0,0,0,0,0,0,0,0,0,0,0,0,0,0,0,0,0,0,0,0,0,0,0,0,0,0,0,0,0,0,0,0,0,0,0,0,0,0,0,0,0,0,0,0,0,0,0,0,0,0,0,0,0,0,0,0,0,0,0,0,0,0,0,0,0,0,0,0,0,0,0,0,0,0,0,0,0,0,0,0,0,0,0,0,0,0,0,0,0,0,0,0,0,0,0,0,0,0,0,0,0,0,0,0,0,0,0,0,0,0,0,0,0,0,0,0,0,0,0,0,0,0,0,0,0,0,0,0,0,0,0,0,0,0,0,0,0,0,0,0,0,0,0,0,0,0,0,0,0,0,0,0,0,0,0,0,0,0,0,0,0,0,0,0,0,0,0,0,0,0,0,0,0,0,0,0,0,0,0,0,0,0,0,0,0,0,0,0,0,0,0,0,0,0,0,0,0,0,0,0,0,0,0,0,0,0,0,0,0,0,0,0,0,0,0,0,0,0,0,0,0,0,0,0,0,0,0,0,0,0,0,0,0,0,0,0,0,0,0,0,0,0,0,0,0,0,0,0,0,0,0,0,0,0,0,0,0,0,0,0,0,0,0,0,0,0,0,0,0,0,0],"trees":[{"base_weights":[8.431579E-3,-6.5715146E-1,8.508999E-1,-1.1167972E0,-3.1476974E-1,4.908208E-1,1.472207E0,-1.3602358E0,-9.3896484E-1,-3.5750517E-1,4.167208E-1,6.226123E-1,-1.139075E-1,-1.1537509E0,1.5928638E0,-6.954334E-2,1.3678136E-2,-2.185609E-2,-5.0397404E-2,-2.7185095E-2,-1.1014781E-2,8.164597E-3,6.1907835E-2,1.1625669E-2,4.24895E-2,-3.2143574E-2,1.4161839E-2,-7.478784E-2,1.4597306E-2,7.1593195E-2,9.650706E-2],"categories":[],"categories_nodes":[],"categories_segments":[],"categories_sizes":[],"default_left":[0,0,0,0,0,0,0,0,0,0,0,0,0,0,0,0,0,0,0,0,0,0,0,0,0,0,0,0,0,0,0],"id":0,"left_children":[1,3,5,7,9,11,13,15,17,19,21,23,25,27,29,-1,-1,-1,-1,-1,-1,-1,-1,-1,-1,-1,-1,-1,-1,-1,-1],"loss_changes":[7.390815E2,1.1552942E2,1.2942133E2,1.2313995E1,1.3384464E1,2.9542198E1,6.930585E1,6.9012604E0,5.951721E0,1.0113724E1,4.759061E0,2.6723244E1,1.4260114E1,5.348544E0,8.314148E0,0E0,0E0,0E0,0E0,0E0,0E0,0E0,0E0,0E0,0E0,0E0,0E0,0E0,0E0,0E0,0E0],"parents":[2147483647,0,0,1,1,2,2,3,3,4,4,5,5,6,6,7,7,8,8,9,9,10,10,11,11,12,12,13,13,14,14],"right_children":[2,4,6,8,10,12,14,16,18,20,22,24,26,28,30,-1,-1,-1,-1,-1,-1,-1,-1,-1,-1,-1,-1,-1,-1,-1,-1],"split_conditions":[7.308076E-4,-2.9726508E-3,5.5448054E-3,-6.933224E-3,9.466202E-4,3.781458E-1,1E0,4.7975886E-1,7.9573336E-5,-1.0818538E-3,4.4554416E-3,1.8764825E-3,7.663245E-1,8.9810073E-1,1.0615751E-2,-6.954334E-2,1.3678136E-2,-2.185609E-2,-5.0397404E-2,-2.7185095E-2,-1.1014781E-2,8.164597E-3,6.1907835E-2,1.1625669E-2,4.24895E-2,-3.2143574E-2,1.4161839E-2,-7.478784E-2,1.4597306E-2,7.1593195E-2,9.650706E-2],"split_indices":[9,9,9,9,10,2,12,5,7,9,11,9,7,0,9,0,0,0,0,0,0,0,0,0,0,0,0,0,0,0,0],"split_type":[0,0,0,0,0,0,0,0,0,0,0,0,0,0,0,0,0,0,0,0,0,0,0,0,0,0,0,0,0,0,0],"sum_hessian":[1.3160669E3,7.3533966E2,5.8072723E2,3.1294745E2,4.2239218E2,3.687866E2,2.1194061E2,1.2929866E2,1.8364877E2,3.9956018E2,2.283201E1,3.027723E2,6.601429E1,8.934265E0,2.0300635E2,1.270651E2,2.2335663E0,2.3080185E1,1.6056859E2,1.68262E2,2.3129819E2,1.8364878E1,4.4671326E0,1.1217466E2,1.9059766E2,2.8043665E1,3.7970627E1,7.1970468E0,1.7372181E0,1.4096284E2,6.2043507E1],"tree_param":{"num_deleted":"0","num_feature":"14","num_nodes":"31","size_leaf_vector":"1"}},{"base_weights":[2.707907E-3,-5.9689796E-1,8.030605E-1,-1.1562864E0,-3.5212454E-1,4.4900188E-1,1.365376E0,-1.2629857E0,-8.75245E-1,-2.184741E-1,-8.763066E-1,6.562183E-1,-9.527922E-2,-4.873702E-1,1.4579254E0,-5.690937E-2,-7.644539E-2,-4.512969E-2,1.5535076E-2,3.0011898E-2,-1.2917752E-2,-5.1772684E-2,-1.421942E-2,3.796733E-2,-2.7219548E-3,7.7933967E-3,-2.4325466E-2,2.6967032E-2,-5.6546923E-2,6.204846E-2,8.65017E-2],"categories":[],"categories_nodes":[],"categories_segments":[],"categories_sizes":[],"default_left":[0,0,0,0,0,0,0,0,0,0,0,0,0,0,0,0,0,0,0,0,0,0,0,0,0,0,0,0,0,0,0],"id":1,"left_children":[1,3,5,7,9,11,13,15,17,19,21,23,25,27,29,-1,-1,-1,-1,-1,-1,-1,-1,-1,-1,-1,-1,-1,-1,-1,-1],"loss_changes":[6.347222E2,1.0312656E2,1.1216937E2,5.783142E0,3.675836E1,3.94355E1,3.8156494E1,3.7106628E0,2.4364166E0,1.3920755E1,9.768524E0,1.858104E1,9.619821E0,7.9702644E0,1.014679E1,0E0,0E0,0E0,0E0,0E0,0E0,0E0,0E0,0E0,0E0,0E0,0E0,0E0,0E0,0E0,0E0],"parents":[2147483647,0,0,1,1,2,2,3,3,4,4,5,5,6,6,7,7,8,8,9,9,10,10,11,11,12,12,13,13,14,14],"right_children":[2,4,6,8,10,12,14,16,18,20,22,24,26,28,30,-1,-1,-1,-1,-1,-1,-1,-1,-1,-1,-1,-1,-1,-1,-1,-1],"split_conditions":[8.529332E-4,-3.6352123E-3,4.2758333E-3,-4.9389875E-3,2.2026452E-3,-2.8323084E-3,1E0,3.7478167E-3,4.7975886E-1,-3.4217602E-1,1.3393456E-3,3.781458E-1,3.407266E-1,5.1569515E-3,7.387764E-3,-5.690937E-2,-7.644539E-2,-4.512969E-2,1.5535076E-2,3.0011898E-2,-1.2917752E-2,-5.1772684E-2,-1.421942E-2,3.796733E-2,-2.7219548E-3,7.7933967E-3,-2.4325466E-2,2.6967032E-2,-5.6546923E-2,6.204846E-2,8.65017E-2],"split_indices":[10,10,10,10,11,6,12,11,5,6,8,2,2,10,10,0,0,0,0,0,0,0,0,0,0,0,0,0,0,0,0],"split_type":[0,0,0,0,0,0,0,0,0,0,0,0,0,0,0,0,0,0,0,0,0,0,0,0,0,0,0,0,0,0,0],"sum_hessian":[1.3206255E3,7.5514343E2,5.6548206E2,2.2871957E2,5.264238E2,3.481009E2,2.1738115E2,1.6324751E2,6.547207E1,4.2060037E2,1.05823494E2,2.519673E2,9.613359E1,1.0139175E1,2.0724197E2,1.14698975E2,4.854853E1,6.42298E1,1.2422638E0,1.8883905E1,4.0171646E2,8.280946E1,2.3014032E1,2.199765E2,3.1990791E1,5.891509E1,3.72185E1,3.9690845E0,6.1700907E0,1.1840024E2,8.8841736E1],"tree_param":{"num_deleted":"0","num_feature":"14","num_nodes":"31","size_leaf_vector":"1"}},{"base_weights":[5.352426E-4,-5.354681E-1,8.6189E-1,-1.0297885E0,-2.3385361E-1,4.883628E-1,1.3187506E0,-1.2559187E0,-8.6928433E-1,-3.8095453E-1,2.1285968E-2,-1.1111055E-2,5.7993203E-1,-8.359805E-1,1.4255365E0,-6.383208E-2,-8.162724E-3,-1.9454964E-2,-4.6695333E-2,-1.4258198E-2,-3.5337534E-2,2.1386525E-2,-2.4174915E-3,-1.2967633E-2,2.6777709E-2,3.4929585E-2,-5.8590835E-3,-5.790549E-2,2.2707082E-2,6.3853316E-2,8.786511E-2],"categories":[],"categories_nodes":[],"categories_segments":[],"categories_sizes":[],"default_left":[0,0,0,0,0,0,0,0,0,0,0,0,0,0,0,0,0,0,0,0,0,0,0,0,0,0,0,0,0,0,0],"id":2,"left_children":[1,3,5,7,9,11,13,15,17,19,21,23,25,27,29,-1,-1,-1,-1,-1,-1,-1,-1,-1,-1,-1,-1,-1,-1,-1,-1],"loss_changes":[6.0830975E2,1.2084979E2,8.5602325E1,1.0068024E1,1.8987686E1,1.2796516E1,5.336618E1,2.63089E0,5.317749E0,9.810574E0,5.281765E0,6.151509E0,1.9631813E1,5.2375627E0,8.415863E0,0E0,0E0,0E0,0E0,0E0,0E0,0E0,0E0,0E0,0E0,0E0,0E0,0E0,0E0,0E0,0E0],"parents":[2147483647,0,0,1,1,2,2,3,3,4,4,5,5,6,6,7,7,8,8,9,9,10,10,11,11,12,12,13,13,14,14],"right_children":[2,4,6,8,10,12,14,16,18,20,22,24,26,28,30,-1,-1,-1,-1,-1,-1,-1,-1,-1,-1,-1,-1,-1,-1,-1,-1],"split_conditions":[1.5228764E-3,-2.9726508E-3,5.345682E-3,-6.933224E-3,-3.145821E-5,1E0,1E0,2.2983561E-1,7.9573336E-5,2.5E1,2.326417E-1,8.198404E-1,8.8E-1,8.9810073E-1,1.0615751E-2,-6.383208E-2,-8.162724E-3,-1.9454964E-2,-4.6695333E-2,-1.4258198E-2,-3.5337534E-2,2.1386525E-2,-2.4174915E-3,-1.2967633E-2,2.6777709E-2,3.4929585E-2,-5.8590835E-3,-5.790549E-2,2.2707082E-2,6.3853316E-2,8.786511E-2],"split_indices":[9,9,9,9,9,12,12,7,7,13,0,0,0,0,9,0,0,0,0,0,0,0,0,0,0,0,0,0,0,0,0],"split_type":[0,0,0,0,0,0,0,0,0,0,0,0,0,0,0,0,0,0,0,0,0,0,0,0,0,0,0,0,0,0,0],"sum_hessian":[1.3155748E3,8.111754E2,5.0439944E2,3.0647498E2,5.0470047E2,2.7864743E2,2.25752E2,1.2439424E2,1.8208072E2,3.1981674E2,1.8488371E2,4.330647E1,2.3534097E2,1.0337282E1,2.1541472E2,1.2191372E2,2.4805229E0,2.2430326E1,1.5965039E2,2.4859898E2,7.121777E1,2.6290585E1,1.5859314E2,3.0143724E1,1.3162744E1,2.0110724E2,3.4233727E1,8.353765E0,1.9835179E0,1.521669E2,6.3247807E1],"tree_param":{"num_deleted":"0","num_feature":"14","num_nodes":"31","size_leaf_vector":"1"}},{"base_weights":[1.0515863E-2,-5.126962E-1,8.44885E-1,-9.521698E-1,-2.0652562E-1,5.6294084E-1,1.368209E0,-1.2098529E0,-7.9364884E-1,-3.626703E-1,4.426039E-2,2.9504037E-2,6.559493E-1,-1.0308157E0,1.4347335E0,-6.1852086E-2,4.3501426E-4,-1.5758699E-2,-4.2427655E-2,-1.9192982E-2,4.1525584E-2,1.597629E-2,-8.272144E-3,-1.3383279E-2,2.2775149E-2,4.0330265E-2,8.96415E-3,-6.4814866E-2,-3.5581898E-3,6.2370278E-2,8.1442885E-2],"categories":[],"categories_nodes":[],"categories_segments":[],"categories_sizes":[],"default_left":[0,0,0,0,0,0,0,0,0,0,0,0,0,0,0,0,0,0,0,0,0,0,0,0,0,0,0,0,0,0,0],"id":3,"left_children":[1,3,5,7,9,11,13,15,17,19,21,23,25,27,29,-1,-1,-1,-1,-1,-1,-1,-1,-1,-1,-1,-1,-1,-1,-1,-1],"loss_changes":[5.771658E2,1.09138535E2,7.441046E1,1.2657593E1,1.8820116E1,1.6493813E1,2.9838928E1,4.154358E0,5.2311554E0,7.8037224E0,1.0740465E1,6.5101986E0,2.0204903E1,1.2775388E0,4.2710876E0,0E0,0E0,0E0,0E0,0E0,0E0,0E0,0E0,0E0,0E0,0E0,0E0,0E0,0E0,0E0,0E0],"parents":[2147483647,0,0,1,1,2,2,3,3,4,4,5,5,6,6,7,7,8,8,9,9,10,10,11,11,12,12,13,13,14,14],"right_children":[2,4,6,8,10,12,14,16,18,20,22,24,26,28,30,-1,-1,-1,-1,-1,-1,-1,-1,-1,-1,-1,-1,-1,-1,-1,-1],"split_conditions":[1.5228764E-3,-2.5424457E-3,6.388033E-3,-6.933224E-3,-3.145821E-5,1E0,1E0,4.7975886E-1,9.444359E-3,3.5776852E-3,1.0954797E-1,7.926309E-1,3.781458E-1,8.701406E-1,9.574549E-3,-6.1852086E-2,4.3501426E-4,-1.5758699E-2,-4.2427655E-2,-1.9192982E-2,4.1525584E-2,1.597629E-2,-8.272144E-3,-1.3383279E-2,2.2775149E-2,4.0330265E-2,8.96415E-3,-6.4814866E-2,-3.5581898E-3,6.2370278E-2,8.1442885E-2],"split_indices":[9,9,9,9,9,12,12,5,0,8,2,0,2,0,9,0,0,0,0,0,0,0,0,0,0,0,0,0,0,0,0],"split_type":[0,0,0,0,0,0,0,0,0,0,0,0,0,0,0,0,0,0,0,0,0,0,0,0,0,0,0,0,0,0,0],"sum_hessian":[1.3201085E3,8.115754E2,5.0853317E2,3.323764E2,4.7919897E2,3.3183218E2,1.7670099E2,1.2406722E2,2.0830919E2,2.9504904E2,1.8414992E2,4.9462734E1,2.8236945E2,4.3765707E0,1.7232442E2,1.21344574E2,2.7226505E0,2.21365E1,1.8617268E2,2.9056726E2,4.481798E0,7.940104E1,1.0474887E2,2.9356096E1,2.0106638E1,2.1403041E2,6.8339035E1,3.1534023E0,1.2231681E0,9.1476395E1,8.084802E1],"tree_param":{"num_deleted":"0","num_feature":"14","num_nodes":"31","size_leaf_vector":"1"}},{"base_weights":[-5.43523E-4,-5.0610685E-1,6.811061E-1,-7.9021466E-1,-9.2149235E-2,3.7402713E-1,1.177602E0,-1.0937138E0,-6.14705E-1,7.516326E-1,-2.4801542E-1,4.924983E-1,-1.8474564E-1,-5.731043E-1,1.2713635E0,-3.5727363E-2,-5.8523126E-2,-2.226532E-2,-4.5029867E-2,-8.313669E-3,5.63958E-2,-4.3078326E-4,-2.0873448E-2,6.2978524E-3,3.2312658E-2,4.5256122E-4,-4.3910388E-2,-4.9486324E-2,3.3411372E-2,5.7698853E-2,8.230342E-2],"categories":[],"categories_nodes":[],"categories_segments":[],"categories_sizes":[],"default_left":[0,0,0,0,0,0,0,0,0,0,0,0,0,0,0,0,0,0,0,0,0,0,0,0,0,0,0,0,0,0,0],"id":4,"left_children":[1,3,5,7,9,11,13,15,17,19,21,23,25,27,29,-1,-1,-1,-1,-1,-1,-1,-1,-1,-1,-1,-1,-1,-1,-1,-1],"loss_changes":[4.5151138E2,8.8398605E1,8.462335E1,2.3082611E1,4.0600803E1,2.3008045E1,3.5650024E1,3.8813324E0,1.3393814E1,1.6822243E1,1.0549223E1,1.6031265E1,8.244246E0,6.6107416E0,6.996002E0,0E0,0E0,0E0,0E0,0E0,0E0,0E0,0E0,0E0,0E0,0E0,0E0,0E0,0E0,0E0,0E0],"parents":[2147483647,0,0,1,1,2,2,3,3,4,4,5,5,6,6,7,7,8,8,9,9,10,10,11,11,12,12,13,13,14,14],"right_children":[2,4,6,8,10,12,14,16,18,20,22,24,26,28,30,-1,-1,-1,-1,-1,-1,-1,-1,-1,-1,-1,-1,-1,-1,-1,-1],"split_conditions":[8.529332E-4,-1.205067E-3,4.2758333E-3,-4.9389875E-3,2.5329188E-1,3.781458E-1,1E0,-1.820245E-2,5.317825E-2,2E0,1.3709724E-2,2E0,3.3049094E-3,8.9810073E-1,9.382014E-3,-3.5727363E-2,-5.8523126E-2,-2.226532E-2,-4.5029867E-2,-8.313669E-3,5.63958E-2,-4.3078326E-4,-2.0873448E-2,6.2978524E-3,3.2312658E-2,4.5256122E-4,-4.3910388E-2,-4.9486324E-2,3.3411372E-2,5.7698853E-2,8.230342E-2],"split_indices":[10,10,10,10,0,2,12,6,6,12,6,12,8,0,10,0,0,0,0,0,0,0,0,0,0,0,0,0,0,0,0],"split_type":[0,0,0,0,0,0,0,0,0,0,0,0,0,0,0,0,0,0,0,0,0,0,0,0,0,0,0,0,0,0,0],"sum_hessian":[1.3081826E3,7.5125336E2,5.5692926E2,4.4495947E2,3.0629388E2,3.4518707E2,2.1174222E2,1.6111699E2,2.838425E2,4.716169E1,2.591322E2,2.849009E2,6.0286175E1,1.0503801E1,2.0123842E2,2.8858034E1,1.3225896E2,1.7984013E2,1.0400235E2,1.38744545E1,3.3287235E1,1.0783559E2,1.512966E2,8.4729836E1,2.0017107E2,4.7889725E1,1.2396449E1,8.016089E0,2.4877117E0,1.5634026E2,4.4898155E1],"tree_param":{"num_deleted":"0","num_feature":"14","num_nodes":"31","size_leaf_vector":"1"}},{"base_weights":[5.3002983E-3,-6.087828E-1,6.089143E-1,-9.171493E-1,-3.314941E-1,3.3865497E-1,1.1787785E0,-1.2425609E0,-8.152836E-1,-2.3674206E-1,-6.727621E-1,4.9085784E-1,-5.570237E-2,-1.0615861E0,1.2684591E0,-6.381492E-2,1.9057645E-2,-5.151425E-2,-3.4628373E-2,-2.3354584E-2,-2.2583662E-3,-2.329443E-2,-5.115251E-2,2.9460311E-2,2.0792726E-3,5.0273375E-3,-1.5708156E-2,-7.1414985E-2,1.2998099E-2,5.74462E-2,7.569986E-2],"categories":[],"categories_nodes":[],"categories_segments":[],"categories_sizes":[],"default_left":[0,0,0,0,0,0,0,0,0,0,0,0,0,0,0,0,0,0,0,0,0,0,0,0,0,0,0,0,0,0,0],"id":5,"left_children":[1,3,5,7,9,11,13,15,17,19,21,23,25,27,29,-1,-1,-1,-1,-1,-1,-1,-1,-1,-1,-1,-1,-1,-1,-1,-1],"loss_changes":[4.8701456E2,5.5386047E1,1.0164598E2,9.190063E0,1.098024E1,2.7087803E1,4.40903E1,4.4017944E0,5.5481415E0,1.1945624E1,4.9089584E0,1.4353134E1,5.1379905E0,4.603387E0,4.2776794E0,0E0,0E0,0E0,0E0,0E0,0E0,0E0,0E0,0E0,0E0,0E0,0E0,0E0,0E0,0E0,0E0],"parents":[2147483647,0,0,1,1,2,2,3,3,4,4,5,5,6,6,7,7,8,8,9,9,10,10,11,11,12,12,13,13,14,14],"right_children":[2,4,6,8,10,12,14,16,18,20,22,24,26,28,30,-1,-1,-1,-1,-1,-1,-1,-1,-1,-1,-1,-1,-1,-1,-1,-1],"split_conditions":[1.7714608E-4,-2.8980125E-3,5.5448054E-3,-9.092603E-3,2.5E1,-2.8323084E-3,1E0,4.610698E-1,-3.9088953E-1,-9.34694E-4,5.1246595E-1,4.3193638E-1,6.84455E-2,8.9810073E-1,1.0615751E-2,-6.381492E-2,1.9057645E-2,-5.151425E-2,-3.4628373E-2,-2.3354584E-2,-2.2583662E-3,-2.329443E-2,-5.115251E-2,2.9460311E-2,2.0792726E-3,5.0273375E-3,-1.5708156E-2,-7.1414985E-2,1.2998099E-2,5.74462E-2,7.569986E-2],"split_indices":[9,9,9,9,13,6,12,5,3,10,0,3,6,0,9,0,0,0,0,0,0,0,0,0,0,0,0,0,0,0,0],"split_type":[0,0,0,0,0,0,0,0,0,0,0,0,0,0,0,0,0,0,0,0,0,0,0,0,0,0,0,0,0,0,0],"sum_hessian":[1.3118792E3,6.502959E2,6.6158325E2,3.0680148E2,3.4349442E2,4.4984E2,2.1174329E2,7.047378E1,2.363277E2,2.701749E2,7.331953E1,3.2439462E2,1.2544535E2,7.7326136E0,2.0401067E2,6.924889E1,1.2248904E0,8.318688E1,1.5314082E2,1.220199E2,1.48155E2,4.756095E1,2.5758577E1,2.6588037E2,5.851425E1,7.856243E1,4.6882923E1,5.9897523E0,1.7428614E0,1.4103159E2,6.297909E1],"tree_param":{"num_deleted":"0","num_feature":"14","num_nodes":"31","size_leaf_vector":"1"}},{"base_weights":[-1.7645981E-3,-4.3019173E-1,7.6286864E-1,-9.041392E-1,-1.9198658E-1,5.5766314E-1,1.3005937E0,-1.1298563E0,-7.406816E-1,-3.5085854E-1,5.2474264E-2,6.16591E-1,-5.2150726E-1,1.1336203E0,7.4221425E-2,-3.2134753E-2,-5.92744E-2,-5.022336E-2,-2.9786725E-2,-1.872752E-2,3.2094836E-2,6.03969E-2,9.990099E-4,2.4342485E-2,4.0300235E-2,-4.1559193E-2,1.0406513E-2,5.212853E-2,7.4538305E-2],"categories":[],"categories_nodes":[],"categories_segments":[],"categories_sizes":[],"default_left":[0,0,0,0,0,0,0,0,0,0,0,0,0,0,0,0,0,0,0,0,0,0,0,0,0,0,0,0,0],"id":6,"left_children":[1,3,5,7,9,11,13,15,17,19,21,23,25,27,-1,-1,-1,-1,-1,-1,-1,-1,-1,-1,-1,-1,-1,-1,-1],"loss_changes":[4.258058E2,9.3875E1,5.0779327E1,9.433807E0,2.1599731E1,2.1917091E1,2.2516022E0,2.3552246E0,5.685791E0,8.164993E0,8.226515E0,7.532089E0,4.2683287E0,7.6753235E-1,0E0,0E0,0E0,0E0,0E0,0E0,0E0,0E0,0E0,0E0,0E0,0E0,0E0,0E0,0E0],"parents":[2147483647,0,0,1,1,2,2,3,3,4,4,5,5,6,6,7,7,8,8,9,9,10,10,11,11,12,12,13,13],"right_children":[2,4,6,8,10,12,14,16,18,20,22,24,26,28,-1,-1,-1,-1,-1,-1,-1,-1,-1,-1,-1,-1,-1,-1,-1],"split_conditions":[1.8764825E-3,-3.2455195E-3,7.6380554E-3,-3.9531973E-1,-3.145821E-5,6.84455E-2,4.7931337E-1,-2.1009207E-2,-6.933224E-3,9.849615E-4,-4.0336823E-1,4.5651733E-3,4.11556E-1,1.1143068E-2,7.4221425E-2,-3.2134753E-2,-5.92744E-2,-5.022336E-2,-2.9786725E-2,-1.872752E-2,3.2094836E-2,6.03969E-2,9.990099E-4,2.4342485E-2,4.0300235E-2,-4.1559193E-2,1.0406513E-2,5.212853E-2,7.4538305E-2],"split_indices":[9,9,9,3,9,6,3,6,9,10,6,9,2,10,0,0,0,0,0,0,0,0,0,0,0,0,0,0,0],"split_type":[0,0,0,0,0,0,0,0,0,0,0,0,0,0,0,0,0,0,0,0,0,0,0,0,0,0,0,0,0],"sum_hessian":[1.297813E3,8.320496E2,4.657634E2,2.773739E2,5.546757E2,3.385889E2,1.2717448E2,1.1401685E2,1.6335704E2,3.3592627E2,2.1874942E2,3.2146408E2,1.7124825E1,7.039898E1,5.6775497E1,1.297228E1,1.0104458E2,5.5827686E1,1.0752935E2,3.2870456E2,7.221736E0,4.9939604E0,2.1375546E2,1.9290303E2,1.2856105E2,1.1924564E1,5.2002597E0,5.9220623E1,1.1178359E1],"tree_param":{"num_deleted":"0","num_feature":"14","num_nodes":"29","size_leaf_vector":"1"}},{"base_weights":[-1.5492718E-2,-4.279729E-1,7.150121E-1,-8.1242985E-1,-1.8275075E-1,4.0547678E-1,1.0610187E0,-1.0575395E0,-6.6301477E-1,-3.07687E-1,4.142362E-2,4.9458328E-1,-6.4128794E-2,-7.461989E-1,1.149155E0,-4.0700763E-2,-6.0335517E-2,-2.9634792E-2,-5.0680768E-2,-1.908986E-2,2.4120307E-4,7.99474E-3,-1.206928E-2,-9.242187E-3,3.0312806E-2,-2.6873386E-2,2.1074645E-2,-5.3175062E-2,2.9148152E-2,5.1215578E-2,7.175382E-2],"categories":[],"categories_nodes":[],"categories_segments":[],"categories_sizes":[],"default_left":[0,0,0,0,0,0,0,0,0,0,0,0,0,0,0,0,0,0,0,0,0,0,0,0,0,0,0,0,0,0,0],"id":7,"left_children":[1,3,5,7,9,11,13,15,17,19,21,23,25,27,29,-1,-1,-1,-1,-1,-1,-1,-1,-1,-1,-1,-1,-1,-1,-1,-1],"loss_changes":[3.927495E2,7.838725E1,4.9949295E1,1.1169266E1,1.4293892E1,1.0488731E1,3.6137054E1,3.415863E0,4.429901E0,7.587824E0,6.182053E0,1.6057575E1,9.591315E0,5.219527E0,6.0827026E0,0E0,0E0,0E0,0E0,0E0,0E0,0E0,0E0,0E0,0E0,0E0,0E0,0E0,0E0,0E0,0E0],"parents":[2147483647,0,0,1,1,2,2,3,3,4,4,5,5,6,6,7,7,8,8,9,9,10,10,11,11,12,12,13,13,14,14],"right_children":[2,4,6,8,10,12,14,16,18,20,22,24,26,28,30,-1,-1,-1,-1,-1,-1,-1,-1,-1,-1,-1,-1,-1,-1,-1,-1],"split_conditions":[1.8764825E-3,-2.5424457E-3,5.345682E-3,-6.933224E-3,1.7714608E-4,8.8E-1,1E0,2.5426853E-3,5.482856E-1,6E0,2.3481059E-1,1E0,8.474338E-1,8.9810073E-1,1.0615751E-2,-4.0700763E-2,-6.0335517E-2,-2.9634792E-2,-5.0680768E-2,-1.908986E-2,2.4120307E-4,7.99474E-3,-1.206928E-2,-9.242187E-3,3.0312806E-2,-2.6873386E-2,2.1074645E-2,-5.3175062E-2,2.9148152E-2,5.1215578E-2,7.175382E-2],"split_indices":[9,9,9,9,9,0,12,11,0,12,3,12,7,0,9,0,0,0,0,0,0,0,0,0,0,0,0,0,0,0,0],"split_type":[0,0,0,0,0,0,0,0,0,0,0,0,0,0,0,0,0,0,0,0,0,0,0,0,0,0,0,0,0,0,0],"sum_hessian":[1.3014199E3,8.3202844E2,4.6939145E2,3.2312427E2,5.0890414E2,2.4889948E2,2.2049199E2,1.20072334E2,2.0305193E2,3.2654333E2,1.8236082E2,2.0915892E2,3.9740566E1,9.905955E0,2.1058603E2,4.8063942E1,7.200839E1,1.7137106E2,3.1680874E1,2.637701E2,6.2773235E1,1.2882822E2,5.3532604E1,2.94327E1,1.7972621E2,2.0070726E1,1.9669842E1,8.1582575E0,1.7476976E0,1.4977254E2,6.0813484E1],"tree_param":{"num_deleted":"0","num_feature":"14","num_nodes":"31","size_leaf_vector":"1"}},{"base_weights":[-5.2760015E-3,-5.34545E-1,5.1063204E-1,-8.6771894E-1,-3.193575E-1,2.6753265E-1,9.878845E-1,-1.1789974E0,-7.592353E-1,-3.34767E-1,5.061848E-2,3.5313278E-1,-2.2067456E-1,-6.8054795E-1,1.0644547E0,-1.863159E-2,-6.1131652E-2,-4.4083208E-2,-2.79731E-2,-1.3115436E-2,-2.9461179E-2,6.045018E-3,2.533309E-2,2.8146371E-2,-1.6106263E-2,-4.8542645E-2,1.7741675E-2,4.4841025E-2,6.5028004E-2],"categories":[],"categories_nodes":[],"categories_segments":[],"categories_sizes":[],"default_left":[0,0,0,0,0,0,0,0,0,0,0,0,0,0,0,0,0,0,0,0,0,0,0,0,0,0,0,0,0],"id":8,"left_children":[1,3,5,7,9,11,13,15,17,19,-1,21,23,25,27,-1,-1,-1,-1,-1,-1,-1,-1,-1,-1,-1,-1,-1,-1],"loss_changes":[3.5522296E2,4.5761185E1,7.616754E1,7.594528E0,8.377811E0,1.8375221E1,2.9079025E1,1.7669449E0,4.135208E0,6.9993095E0,0E0,1.3234337E1,5.422645E0,3.455186E0,7.2482147E0,0E0,0E0,0E0,0E0,0E0,0E0,0E0,0E0,0E0,0E0,0E0,0E0,0E0,0E0],"parents":[2147483647,0,0,1,1,2,2,3,3,4,4,5,5,6,6,7,7,8,8,9,9,11,11,12,12,13,13,14,14],"right_children":[2,4,6,8,10,12,14,16,18,20,-1,22,24,26,28,-1,-1,-1,-1,-1,-1,-1,-1,-1,-1,-1,-1,-1,-1],"split_conditions":[1.7714608E-4,-3.7490819E-3,5.345682E-3,-4.5145264E-1,3.8491362E-3,4.4206023E-2,1E0,-2.1009207E-2,-4.367004E-3,2.5E1,5.061848E-2,1.9184637E-3,5.298958E-4,8.9810073E-1,5.9627774E-3,-1.863159E-2,-6.1131652E-2,-4.4083208E-2,-2.79731E-2,-1.3115436E-2,-2.9461179E-2,6.045018E-3,2.533309E-2,2.8146371E-2,-1.6106263E-2,-4.8542645E-2,1.7741675E-2,4.4841025E-2,6.5028004E-2],"split_indices":[9,9,9,3,8,6,12,6,10,13,0,9,10,0,8,0,0,0,0,0,0,0,0,0,0,0,0,0,0],"split_type":[0,0,0,0,0,0,0,0,0,0,0,0,0,0,0,0,0,0,0,0,0,0,0,0,0,0,0,0,0],"sum_hessian":[1.2989253E3,6.4114246E2,6.5778284E2,2.5040659E2,3.907359E2,4.3683273E2,2.2095013E2,6.2164948E1,1.8824164E2,3.8700644E2,3.729453E0,3.7190176E2,6.493096E1,9.349105E0,2.1160103E2,3.6810203E0,5.848393E1,1.14598145E2,7.364349E1,3.0281003E2,8.419643E1,1.487244E2,2.2317737E2,6.921413E0,5.8009552E1,7.35047E0,1.9986345E0,1.26549545E2,8.505148E1],"tree_param":{"num_deleted":"0","num_feature":"14","num_nodes":"29","size_leaf_vector":"1"}},{"base_weights":[2.1440573E-3,-5.068981E-1,4.963656E-1,-8.2238495E-1,-2.70414E-1,2.7775863E-1,9.5726675E-1,-1.0368674E0,-6.618356E-1,-1.7619854E-1,-6.017546E-1,4.1413912E-1,-4.1091684E-2,-1.0473554E0,1.0446566E0,-6.480583E-2,-4.7998697E-2,-5.097241E-2,-2.9357878E-2,-1.7108029E-2,-1.0959371E-3,-2.3049967E-2,-5.5430945E-2,2.5263984E-2,1.044419E-3,-5.876535E-3,1.8277904E-2,-6.38031E-2,1.1580023E-2,4.760878E-2,7.255212E-2],"categories":[],"categories_nodes":[],"categories_segments":[],"categories_sizes":[],"default_left":[0,0,0,0,0,0,0,0,0,0,0,0,0,0,0,0,0,0,0,0,0,0,0,0,0,0,0,0,0,0,0],"id":9,"left_children":[1,3,5,7,9,11,13,15,17,19,21,23,25,27,29,-1,-1,-1,-1,-1,-1,-1,-1,-1,-1,-1,-1,-1,-1,-1,-1],"loss_changes":[3.2341727E2,4.702513E1,6.5453995E1,8.639786E0,1.1239939E1,1.9317047E1,3.7783554E1,1.0318146E0,3.6116943E0,7.2744093E0,5.2001057E0,1.11344795E1,4.2043343E0,3.0006495E0,6.179535E0,0E0,0E0,0E0,0E0,0E0,0E0,0E0,0E0,0E0,0E0,0E0,0E0,0E0,0E0,0E0,0E0],"parents":[2147483647,0,0,1,1,2,2,3,3,4,4,5,5,6,6,7,7,8,8,9,9,10,10,11,11,12,12,13,13,14,14],"right_children":[2,4,6,8,10,12,14,16,18,20,22,24,26,28,30,-1,-1,-1,-1,-1,-1,-1,-1,-1,-1,-1,-1,-1,-1,-1,-1],"split_conditions":[1.7714608E-4,-3.2455195E-3,5.5448054E-3,-3.9531973E-1,2.5E1,-9.913027E-3,1E0,-4.7793543E-1,-9.092603E-3,-9.34694E-4,7.231182E-2,4.3193638E-1,3.7995607E-3,9.3798786E-1,1.0141701E-2,-6.480583E-2,-4.7998697E-2,-5.097241E-2,-2.9357878E-2,-1.7108029E-2,-1.0959371E-3,-2.3049967E-2,-5.5430945E-2,2.5263984E-2,1.044419E-3,-5.876535E-3,1.8277904E-2,-6.38031E-2,1.1580023E-2,4.760878E-2,7.255212E-2],"split_indices":[9,9,9,3,13,6,12,3,9,10,3,3,9,0,10,0,0,0,0,0,0,0,0,0,0,0,0,0,0,0,0],"split_type":[0,0,0,0,0,0,0,0,0,0,0,0,0,0,0,0,0,0,0,0,0,0,0,0,0,0,0,0,0,0,0],"sum_hessian":[1.2835463E3,6.3227997E2,6.512663E2,2.6982993E2,3.6245004E2,4.4283215E2,2.0843416E2,1.13176285E2,1.5665364E2,2.8339853E2,7.905151E1,3.0995676E2,1.3287537E2,8.24807E0,2.001861E2,2.2262241E1,9.091405E1,2.4876356E1,1.3177728E2,1.3594347E2,1.4745505E2,6.3364758E1,1.568676E1,2.5140562E2,5.8551136E1,1.1244901E2,2.0426357E1,6.9987884E0,1.2492809E0,1.6579848E2,3.438762E1],"tree_param":{"num_deleted":"0","num_feature":"14","num_nodes":"31","size_leaf_vector":"1"}},{"base_weights":[8.470724E-3,-4.8188904E-1,4.9362618E-1,-7.981083E-1,-2.5666714E-1,2.731934E-1,9.4010115E-1,-1.2233834E0,-7.37816E-1,-1.7913361E-1,-5.2162015E-1,3.540938E-1,-1.9979748E-1,-5.9400815E-1,1.0105042E0,-6.3572206E-2,-2.035562E-2,-3.2591384E-2,-4.689285E-2,-7.340851E-3,-4.184429E-2,-1.6468046E-2,-4.8099052E-2,6.204145E-3,2.5246767E-2,4.2966884E-2,-1.40004745E-2,-4.546472E-2,2.8016565E-2,4.4846144E-2,6.469187E-2],"categories":[],"categories_nodes":[],"categories_segments":[],"categories_sizes":[],"default_left":[0,0,0,0,0,0,0,0,0,0,0,0,0,0,0,0,0,0,0,0,0,0,0,0,0,0,0,0,0,0,0],"id":10,"left_children":[1,3,5,7,9,11,13,15,17,19,21,23,25,27,29,-1,-1,-1,-1,-1,-1,-1,-1,-1,-1,-1,-1,-1,-1,-1,-1],"loss_changes":[3.039382E2,4.504753E1,6.2946182E1,5.862152E0,7.560049E0,1.657595E1,2.3481705E1,7.079277E-1,3.4066849E0,6.0360317E0,6.779619E0,1.2729401E1,5.6471586E0,4.1218786E0,5.370041E0,0E0,0E0,0E0,0E0,0E0,0E0,0E0,0E0,0E0,0E0,0E0,0E0,0E0,0E0,0E0,0E0],"parents":[2147483647,0,0,1,1,2,2,3,3,4,4,5,5,6,6,7,7,8,8,9,9,10,10,11,11,12,12,13,13,14,14],"right_children":[2,4,6,8,10,12,14,16,18,20,22,24,26,28,30,-1,-1,-1,-1,-1,-1,-1,-1,-1,-1,-1,-1,-1,-1,-1,-1],"split_conditions":[2.592689E-4,-3.2455195E-3,5.345682E-3,-1.1421494E-2,2.5E1,4.4206023E-2,1E0,1.3239884E-1,5E0,3.0216125E-1,2.8814995E-1,1.9184637E-3,2.3703155E-1,8.544141E-1,1.0615751E-2,-6.3572206E-2,-2.035562E-2,-3.2591384E-2,-4.689285E-2,-7.340851E-3,-4.184429E-2,-1.6468046E-2,-4.8099052E-2,6.204145E-3,2.5246767E-2,4.2966884E-2,-1.40004745E-2,-4.546472E-2,2.8016565E-2,4.4846144E-2,6.469187E-2],"split_indices":[9,9,9,9,13,6,12,1,12,6,7,9,7,7,9,0,0,0,0,0,0,0,0,0,0,0,0,0,0,0,0],"split_type":[0,0,0,0,0,0,0,0,0,0,0,0,0,0,0,0,0,0,0,0,0,0,0,0,0,0,0,0,0,0,0],"sum_hessian":[1.2755845E3,6.34393E2,6.4119147E2,2.6282877E2,3.715642E2,4.3033777E2,2.1085367E2,3.02398E1,2.3258896E2,2.887446E2,8.281962E1,3.6769806E2,6.2639736E1,8.925536E0,2.0192813E2,2.8031715E1,2.2080836E0,1.6564456E2,6.6944405E1,2.7638834E2,1.2356264E1,5.8866676E1,2.3952944E1,1.4635344E2,2.213446E2,3.7261102E0,5.8913628E1,7.1774354E0,1.7481004E0,1.471178E2,5.4810326E1],"tree_param":{"num_deleted":"0","num_feature":"14","num_nodes":"31","size_leaf_vector":"1"}},{"base_weights":[-7.613168E-3,-4.2120427E-1,4.9289304E-1,-7.069176E-1,-1.9376521E-1,3.3125243E-1,1.0650433E0,-9.3176305E-1,-5.7936186E-1,-2.3401655E-1,4.2694896E-1,3.9280593E-1,-4.1119924E-1,-1.0348E-1,1.0989271E0,-2.8658703E-2,-5.0673526E-2,-2.1799784E-2,-3.6764305E-2,-9.602617E-3,-4.168265E-2,3.1223744E-2,-2.3081355E-2,1.3401546E-2,3.157674E-2,-5.418616E-2,-1.0737496E-2,2.2148987E-2,-3.8630392E-2,4.094613E-2,6.2032033E-2],"categories":[],"categories_nodes":[],"categories_segments":[],"categories_sizes":[],"default_left":[0,0,0,0,0,0,0,0,0,0,0,0,0,0,0,0,0,0,0,0,0,0,0,0,0,0,0,0,0,0,0],"id":11,"left_children":[1,3,5,7,9,11,13,15,17,19,21,23,25,27,29,-1,-1,-1,-1,-1,-1,-1,-1,-1,-1,-1,-1,-1,-1,-1,-1],"loss_changes":[2.6412827E2,4.526143E1,5.303952E1,8.330063E0,9.852879E0,2.0799885E1,5.1311493E0,2.6507874E0,4.1495667E0,9.08069E0,4.5228066E0,1.2268097E1,4.3996115E0,1.9821811E0,3.874115E0,0E0,0E0,0E0,0E0,0E0,0E0,0E0,0E0,0E0,0E0,0E0,0E0,0E0,0E0,0E0,0E0],"parents":[2147483647,0,0,1,1,2,2,3,3,4,4,5,5,6,6,7,7,8,8,9,9,10,10,11,11,12,12,13,13,14,14],"right_children":[2,4,6,8,10,12,14,16,18,20,22,24,26,28,30,-1,-1,-1,-1,-1,-1,-1,-1,-1,-1,-1,-1,-1,-1,-1,-1],"split_conditions":[7.308076E-4,-2.5424457E-3,5.9653413E-3,-6.933224E-3,9.466202E-4,6.84455E-2,2E0,4.372315E-4,5.317825E-2,2.3184133E-1,7.9685676E-1,3.2229843E-3,9.858763E-2,9.6065664E-1,5.9627774E-3,-2.8658703E-2,-5.0673526E-2,-2.1799784E-2,-3.6764305E-2,-9.602617E-3,-4.168265E-2,3.1223744E-2,-2.3081355E-2,1.3401546E-2,3.157674E-2,-5.418616E-2,-1.0737496E-2,2.2148987E-2,-3.8630392E-2,4.094613E-2,6.2032033E-2],"split_indices":[9,9,10,9,10,6,13,11,6,2,0,10,6,1,8,0,0,0,0,0,0,0,0,0,0,0,0,0,0,0,0],"split_type":[0,0,0,0,0,0,0,0,0,0,0,0,0,0,0,0,0,0,0,0,0,0,0,0,0,0,0,0,0,0,0],"sum_hessian":[1.2739487E3,6.976266E2,5.763222E2,3.082672E2,3.8935934E2,4.506002E2,1.25722015E2,1.09298836E2,1.9896837E2,3.6623328E2,2.312608E1,4.1653772E2,3.406245E1,3.4849584E0,1.2223705E2,2.1770355E1,8.752848E1,1.05636246E2,9.333213E1,3.4351352E2,2.2719759E1,1.9163378E1,3.962703E0,2.749526E2,1.4158514E2,6.6794586E0,2.7382992E1,2.1043575E0,1.3806008E0,4.335427E1,7.888278E1],"tree_param":{"num_deleted":"0","num_feature":"14","num_nodes":"31","size_leaf_vector":"1"}},{"base_weights":[-5.1164716E-3,-4.4672543E-1,4.1650948E-1,-7.214464E-1,-2.1290281E-1,1.7201845E-1,8.072442E-1,-1.0379524E0,-6.280878E-1,-2.314402E-1,9.494634E-1,2.4193612E-1,-1.9931883E-1,-3.68065E-1,8.7570965E-1,-5.3804617E-2,2.6855294E-2,-2.8870786E-2,-6.0478218E-2,-7.884418E-3,-2.4767341E-2,1.8327748E-2,5.3859085E-2,1.6155092E-2,-1.0435053E-2,3.457452E-2,-1.531177E-2,6.166768E-2,-3.430017E-2,3.880762E-2,5.9073742E-2],"categories":[],"categories_nodes":[],"categories_segments":[],"categories_sizes":[],"default_left":[0,0,0,0,0,0,0,0,0,0,0,0,0,0,0,0,0,0,0,0,0,0,0,0,0,0,0,0,0,0,0],"id":12,"left_children":[1,3,5,7,9,11,13,15,17,19,21,23,25,27,29,-1,-1,-1,-1,-1,-1,-1,-1,-1,-1,-1,-1,-1,-1,-1,-1],"loss_changes":[2.3604842E2,3.9621254E1,6.181865E1,7.7481995E0,7.4578238E0,1.0438797E1,2.0387177E1,4.3758316E0,5.844528E0,6.3730583E0,1.2316227E-2,1.240259E1,6.3036213E0,8.193161E0,6.2647095E0,0E0,0E0,0E0,0E0,0E0,0E0,0E0,0E0,0E0,0E0,0E0,0E0,0E0,0E0,0E0,0E0],"parents":[2147483647,0,0,1,1,2,2,3,3,4,4,5,5,6,6,7,7,8,8,9,9,10,10,11,11,12,12,13,13,14,14],"right_children":[2,4,6,8,10,12,14,16,18,20,22,24,26,28,30,-1,-1,-1,-1,-1,-1,-1,-1,-1,-1,-1,-1,-1,-1,-1,-1],"split_conditions":[1.7714608E-4,-2.8980125E-3,4.5651733E-3,-9.092603E-3,3.6374459E-3,4.4206023E-2,1E0,4.610698E-1,6.3490385E-1,2.5E1,7.212746E-2,4.1877836E-1,3.3981435E-4,4.8720795E-3,1.0615751E-2,-5.3804617E-2,2.6855294E-2,-2.8870786E-2,-6.0478218E-2,-7.884418E-3,-2.4767341E-2,1.8327748E-2,5.3859085E-2,1.6155092E-2,-1.0435053E-2,3.457452E-2,-1.531177E-2,6.166768E-2,-3.430017E-2,3.880762E-2,5.9073742E-2],"split_indices":[9,9,9,9,8,6,12,5,0,13,6,3,9,9,9,0,0,0,0,0,0,0,0,0,0,0,0,0,0,0,0],"split_type":[0,0,0,0,0,0,0,0,0,0,0,0,0,0,0,0,0,0,0,0,0,0,0,0,0,0,0,0,0,0,0],"sum_hessian":[1.2657573E3,6.181991E2,6.475582E2,2.8328214E2,3.3491696E2,3.9920645E2,2.4835176E2,6.2221073E1,2.2106105E2,3.3044788E2,4.469085E0,3.362447E2,6.2961746E1,1.3430013E1,2.3492174E2,6.105932E1,1.1617553E0,2.0517438E2,1.5886673E1,2.5951956E2,7.092832E1,1.4987571E0,2.970328E0,2.8516562E2,5.1079094E1,6.161093E0,5.6800655E1,1.7477214E0,1.1682291E1,1.7988841E2,5.5033337E1],"tree_param":{"num_deleted":"0","num_feature":"14","num_nodes":"31","size_leaf_vector":"1"}},{"base_weights":[-6.009427E-3,-3.2844308E-1,6.1945534E-1,-6.8109053E-1,-1.2931453E-1,-1.6595058E-1,7.025111E-1,-1.0138329E0,-5.950462E-1,-2.419839E-1,-1.5452537E-2,8.303937E-2,-7.344733E-1,7.638111E-1,-1.5773064E-1,-1.9774936E-2,-5.3283285E-2,-4.267102E-2,-2.6772816E-2,-7.662897E-3,-2.8283596E-2,3.9755195E-2,-1.8599943E-3,-8.636648E-3,6.975845E-2,-5.0396483E-2,-4.513917E-3,3.2560386E-2,5.4603208E-2,-2.4245383E-2,4.092578E-2],"categories":[],"categories_nodes":[],"categories_segments":[],"categories_sizes":[],"default_left":[0,0,0,0,0,0,0,0,0,0,0,0,0,0,0,0,0,0,0,0,0,0,0,0,0,0,0,0,0,0,0],"id":13,"left_children":[1,3,5,7,9,11,13,15,17,19,21,23,25,27,29,-1,-1,-1,-1,-1,-1,-1,-1,-1,-1,-1,-1,-1,-1,-1,-1],"loss_changes":[2.5360065E2,5.8178032E1,2.8019714E1,7.9632263E0,6.815158E0,5.9662867E0,2.052977E1,1.5032806E0,3.2405472E0,7.5842085E0,4.7085223E0,1.0278847E1,2.1651297E0,1.2649231E1,8.884726E0,0E0,0E0,0E0,0E0,0E0,0E0,0E0,0E0,0E0,0E0,0E0,0E0,0E0,0E0,0E0,0E0],"parents":[2147483647,0,0,1,1,2,2,3,3,4,4,5,5,6,6,7,7,8,8,9,9,10,10,11,11,12,12,13,13,14,14],"right_children":[2,4,6,8,10,12,14,16,18,20,22,24,26,28,30,-1,-1,-1,-1,-1,-1,-1,-1,-1,-1,-1,-1,-1,-1,-1,-1],"split_conditions":[2.1941175E-3,-2.5424457E-3,1E0,-9.092603E-3,-1.9405766E-4,4.8720795E-3,3.244002E-2,-2.1009207E-2,-4.3695357E-1,2.5E1,-4.0336823E-1,9.0752435E-1,9.1302264E-1,8.660308E-3,5.0774077E-3,-1.9774936E-2,-5.3283285E-2,-4.267102E-2,-2.6772816E-2,-7.662897E-3,-2.8283596E-2,3.9755195E-2,-1.8599943E-3,-8.636648E-3,6.975845E-2,-5.0396483E-2,-4.513917E-3,3.2560386E-2,5.4603208E-2,-2.4245383E-2,4.092578E-2],"split_indices":[9,9,12,9,9,9,6,6,3,13,6,5,5,9,9,0,0,0,0,0,0,0,0,0,0,0,0,0,0,0,0],"split_type":[0,0,0,0,0,0,0,0,0,0,0,0,0,0,0,0,0,0,0,0,0,0,0,0,0,0,0,0,0,0,0],"sum_hessian":[1.2554888E3,8.287396E2,4.2674908E2,2.9820755E2,5.305321E2,4.07169E1,3.860322E2,5.9054577E1,2.3915297E2,2.6609702E2,2.644351E2,2.8909601E1,1.1807298E1,3.6045837E2,2.5573826E1,5.234961E0,5.3819614E1,4.2323265E1,1.968297E2,2.1000587E2,5.6091133E1,5.980275E0,2.584548E2,2.492027E1,3.9893308E0,7.892395E0,3.9149024E0,2.706119E2,8.984644E1,1.9531406E1,6.0424194E0],"tree_param":{"num_deleted":"0","num_feature":"14","num_nodes":"31","size_leaf_vector":"1"}},{"base_weights":[7.921685E-3,-3.8547325E-1,3.9230177E-1,-6.967647E-1,-2.3799503E-1,2.0600137E-1,7.976129E-1,-1.2219161E0,-6.28524E-1,-1.4113995E-1,-6.105208E-1,3.8408303E-1,-1.2872142E-1,6.4804614E-1,1.1007926E0,-2.1867884E-2,-6.303197E-2,-2.7584722E-2,-5.0441254E-2,1.7686512E-2,-8.932947E-3,-1.9452957E-2,-5.5637058E-2,2.2892257E-2,-9.834267E-3,4.8480043E-4,-2.4394242E-2,2.5214726E-2,4.474428E-2,-2.943051E-3,5.6147248E-2],"categories":[],"categories_nodes":[],"categories_segments":[],"categories_sizes":[],"default_left":[0,0,0,0,0,0,0,0,0,0,0,0,0,0,0,0,0,0,0,0,0,0,0,0,0,0,0,0,0,0,0],"id":14,"left_children":[1,3,5,7,9,11,13,15,17,19,21,23,25,27,29,-1,-1,-1,-1,-1,-1,-1,-1,-1,-1,-1,-1,-1,-1,-1,-1],"loss_changes":[1.8984058E2,2.8318657E1,4.7783577E1,6.361252E0,1.5158863E1,2.606106E1,8.338173E0,1.1151886E-1,4.6477585E0,6.313548E0,9.230679E0,1.2302853E1,7.5757504E0,4.378063E0,1.7233276E0,0E0,0E0,0E0,0E0,0E0,0E0,0E0,0E0,0E0,0E0,0E0,0E0,0E0,0E0,0E0,0E0],"parents":[2147483647,0,0,1,1,2,2,3,3,4,4,5,5,6,6,7,7,8,8,9,9,10,10,11,11,12,12,13,13,14,14],"right_children":[2,4,6,8,10,12,14,16,18,20,22,24,26,28,30,-1,-1,-1,-1,-1,-1,-1,-1,-1,-1,-1,-1,-1,-1,-1,-1],"split_conditions":[2.4301204E-4,-3.6352123E-3,4.2758333E-3,-4.7793543E-1,2.2026452E-3,-8.78951E-3,4.7931337E-1,3E0,5.2020466E-3,3E0,6.5155363E-1,3.781458E-1,3.4507012E-1,5.9627774E-3,2E0,-2.1867884E-2,-6.303197E-2,-2.7584722E-2,-5.0441254E-2,1.7686512E-2,-8.932947E-3,-1.9452957E-2,-5.5637058E-2,2.2892257E-2,-9.834267E-3,4.8480043E-4,-2.4394242E-2,2.5214726E-2,4.474428E-2,-2.943051E-3,5.6147248E-2],"split_indices":[10,10,10,3,11,6,3,13,11,13,0,2,2,8,13,0,0,0,0,0,0,0,0,0,0,0,0,0,0,0,0],"split_type":[0,0,0,0,0,0,0,0,0,0,0,0,0,0,0,0,0,0,0,0,0,0,0,0,0,0,0,0,0,0,0],"sum_hessian":[1.2534498E3,6.194594E2,6.339904E2,1.97937E2,4.2152246E2,4.3537808E2,1.9861237E2,2.0818754E1,1.7711824E2,3.3563715E2,8.5885315E1,2.84088E2,1.5129005E2,1.3510094E2,6.351143E1,1.5574896E0,1.9261265E1,1.4938892E2,2.7729319E1,2.3059359E1,3.125778E2,6.0834225E1,2.505109E1,2.522606E2,3.1827412E1,1.099064E2,4.138365E1,8.730198E1,4.7798954E1,1.1594198E0,6.235201E1],"tree_param":{"num_deleted":"0","num_feature":"14","num_nodes":"31","size_leaf_vector":"1"}},{"base_weights":[-7.186525E-3,-2.9731584E-1,4.731413E-1,-5.1272273E-1,-5.6462146E-2,3.2527304E-1,8.850824E-1,-4.0617618E-1,-7.7084357E-1,5.7621056E-1,-1.6468345E-1,8.92755E-1,2.504884E-1,7.671677E-1,6.0126603E-2,-2.9583955E-2,-1.3328353E-2,-3.9802283E-2,3.5720672E-2,3.239559E-2,-3.3078916E-2,-3.6727586E-3,-2.1490917E-2,5.058106E-3,4.9769826E-2,1.6224708E-2,-9.788847E-3,4.0102553E-2,-6.0585462E-3],"categories":[],"categories_nodes":[],"categories_segments":[],"categories_sizes":[],"default_left":[0,0,0,0,0,0,0,0,0,0,0,0,0,0,0,0,0,0,0,0,0,0,0,0,0,0,0,0,0],"id":15,"left_children":[1,3,5,7,9,11,13,15,17,19,21,23,25,27,-1,-1,-1,-1,-1,-1,-1,-1,-1,-1,-1,-1,-1,-1,-1],"loss_changes":[1.7322192E2,4.0174843E1,2.8224396E1,1.0933609E1,2.522096E1,1.44612465E1,3.6837616E0,7.393444E0,4.999443E0,5.205694E0,7.5669403E0,3.1412334E0,1.020664E1,2.9633179E0,0E0,0E0,0E0,0E0,0E0,0E0,0E0,0E0,0E0,0E0,0E0,0E0,0E0,0E0,0E0],"parents":[2147483647,0,0,1,1,2,2,3,3,4,4,5,5,6,6,7,7,8,8,9,9,10,10,11,11,12,12,13,13],"right_children":[2,4,6,8,10,12,14,16,18,20,22,24,26,28,-1,-1,-1,-1,-1,-1,-1,-1,-1,-1,-1,-1,-1,-1,-1],"split_conditions":[1.3748886E-3,-1.1356141E-3,5.8125514E-3,2.7136183E-3,2.5329188E-1,5.635179E-1,1.0141701E-2,-3.6352123E-3,3.1E1,1.3709724E-2,1.8607605E-1,1.6294178E-3,4.2471185E-2,3E1,6.0126603E-2,-2.9583955E-2,-1.3328353E-2,-3.9802283E-2,3.5720672E-2,3.239559E-2,-3.3078916E-2,-3.6727586E-3,-2.1490917E-2,5.058106E-3,4.9769826E-2,1.6224708E-2,-9.788847E-3,4.0102553E-2,-6.0585462E-3],"split_indices":[10,10,10,11,0,0,10,10,13,6,2,10,6,13,0,0,0,0,0,0,0,0,0,0,0,0,0,0,0],"split_type":[0,0,0,0,0,0,0,0,0,0,0,0,0,0,0,0,0,0,0,0,0,0,0,0,0,0,0,0,0],"sum_hessian":[1.2409972E3,7.7391516E2,4.6708197E2,4.0794336E2,3.659718E2,3.4502365E2,1.2205833E2,2.9057437E2,1.1736901E2,5.282531E1,3.131465E2,3.8900505E1,3.0612314E2,9.1491165E1,3.0567167E1,1.23387505E2,1.6718686E2,1.15867E2,1.5020142E0,5.0383316E1,2.4419906E0,2.3393173E2,7.921477E1,4.6929655E0,3.420754E1,2.6281284E2,4.3310318E1,8.81277E1,3.3634639E0],"tree_param":{"num_deleted":"0","num_feature":"14","num_nodes":"29","size_leaf_vector":"1"}},{"base_weights":[-1.8527899E-2,-2.9980323E-1,4.897363E-1,-6.666435E-1,-1.3481492E-1,3.4856007E-1,9.039821E-1,-8.5349435E-1,-5.280614E-1,-3.3630678E-1,-5.2010693E-2,-1.623985E-1,4.2793173E-1,-4.7083076E-2,9.394588E-1,-3.3193124E-3,-4.473795E-2,-1.92121E-2,-3.4693383E-2,-1.0392022E-2,-3.0914767E-2,2.6847666E-2,-5.4805935E-3,-2.0058988E-2,3.59977E-2,1.9021174E-2,4.6690214E-2,6.086439E-2,3.770363E-2],"categories":[],"categories_nodes":[],"categories_segments":[],"categories_sizes":[],"default_left":[0,0,0,0,0,0,0,0,0,0,0,0,0,0,0,0,0,0,0,0,0,0,0,0,0,0,0,0,0],"id":16,"left_children":[1,3,5,7,9,11,13,15,17,19,21,23,25,-1,27,-1,-1,-1,-1,-1,-1,-1,-1,-1,-1,-1,-1,-1,-1],"loss_changes":[1.7584792E2,4.7832634E1,2.531247E1,5.9032516E0,9.115651E0,1.3390324E1,8.136734E0,3.2818146E0,3.1555786E0,5.640671E0,1.3260839E1,9.746055E0,6.4838867E0,0E0,4.7049026E0,0E0,0E0,0E0,0E0,0E0,0E0,0E0,0E0,0E0,0E0,0E0,0E0,0E0,0E0],"parents":[2147483647,0,0,1,1,2,2,3,3,4,4,5,5,6,6,7,7,8,8,9,9,10,10,11,11,12,12,14,14],"right_children":[2,4,6,8,10,12,14,16,18,20,22,24,26,-1,28,-1,-1,-1,-1,-1,-1,-1,-1,-1,-1,-1,-1,-1,-1],"split_conditions":[1.9184637E-3,-3.2455195E-3,7.6380554E-3,-3.9088953E-1,-1.1356141E-3,1E0,1E0,-2.7080502E-3,3.0620007E-3,-1.5945431E-3,2.5329188E-1,8.136237E-1,5.8125514E-3,-4.7083076E-2,3E0,-3.3193124E-3,-4.473795E-2,-1.92121E-2,-3.4693383E-2,-1.0392022E-2,-3.0914767E-2,2.6847666E-2,-5.4805935E-3,-2.0058988E-2,3.59977E-2,1.9021174E-2,4.6690214E-2,6.086439E-2,3.770363E-2],"split_indices":[9,9,9,3,10,12,12,11,11,10,0,7,10,0,12,0,0,0,0,0,0,0,0,0,0,0,0,0,0],"split_type":[0,0,0,0,0,0,0,0,0,0,0,0,0,0,0,0,0,0,0,0,0,0,0,0,0,0,0,0,0],"sum_hessian":[1.228004E3,7.907887E2,4.3721533E2,2.4438182E2,5.4640686E2,3.2745807E2,1.09757256E2,1.0187055E2,1.4251128E2,1.5825505E2,3.881518E2,4.3887074E1,2.8357098E2,1.5882236E0,1.0816904E2,5.2045445E0,9.666601E1,7.809207E1,6.4419205E1,1.0991693E2,4.8338123E1,3.3838272E1,3.5431354E2,3.4969105E1,8.917971E0,2.6082776E2,2.274324E1,4.1063305E1,6.710573E1],"tree_param":{"num_deleted":"0","num_feature":"14","num_nodes":"29","size_leaf_vector":"1"}},{"base_weights":[5.1596486E-3,-3.6228883E-1,3.2725877E-1,-5.992219E-1,-1.8681368E-1,1.5927641E-1,7.1268046E-1,-8.0942357E-1,-4.5437345E-1,-1.0690896E-1,-4.8219767E-1,2.599006E-1,-5.634401E-2,-7.498686E-1,7.8840864E-1,-3.687319E-2,-6.109291E-2,-2.406223E-2,3.0485222E-2,-6.3888202E-3,4.4610407E-2,-1.4601153E-2,-4.1636676E-2,1.571109E-2,-1.5875047E-2,-1.6454538E-2,2.3572717E-3,-5.362105E-2,5.221862E-3,-5.8779037E-3,4.1070268E-2],"categories":[],"categories_nodes":[],"categories_segments":[],"categories_sizes":[],"default_left":[0,0,0,0,0,0,0,0,0,0,0,0,0,0,0,0,0,0,0,0,0,0,0,0,0,0,0,0,0,0,0],"id":17,"left_children":[1,3,5,7,9,11,13,15,17,19,21,23,25,27,29,-1,-1,-1,-1,-1,-1,-1,-1,-1,-1,-1,-1,-1,-1,-1,-1],"loss_changes":[1.4549794E2,2.3763E1,4.229933E1,7.0578613E0,7.7695417E0,9.941411E0,2.2582848E1,2.0138626E0,4.4870777E0,5.5784874E0,4.441105E0,9.889645E0,4.147847E0,2.9467897E0,5.7546387E0,0E0,0E0,0E0,0E0,0E0,0E0,0E0,0E0,0E0,0E0,0E0,0E0,0E0,0E0,0E0,0E0],"parents":[2147483647,0,0,1,1,2,2,3,3,4,4,5,5,6,6,7,7,8,8,9,9,10,10,11,11,12,12,13,13,14,14],"right_children":[2,4,6,8,10,12,14,16,18,20,22,24,26,28,30,-1,-1,-1,-1,-1,-1,-1,-1,-1,-1,-1,-1,-1,-1,-1,-1],"split_conditions":[-3.145821E-5,-3.2455195E-3,5.2471026E-3,-3.9531973E-1,2.5E1,-9.913027E-3,1E0,-1.9999973E-3,3.1E1,3.5776852E-3,1.3380468E-2,4.8741484E-1,8.7177736E-4,3.9565217E-1,2E0,-3.687319E-2,-6.109291E-2,-2.406223E-2,3.0485222E-2,-6.3888202E-3,4.4610407E-2,-1.4601153E-2,-4.1636676E-2,1.571109E-2,-1.5875047E-2,-1.6454538E-2,2.3572717E-3,-5.362105E-2,5.221862E-3,-5.8779037E-3,4.1070268E-2],"split_indices":[9,9,9,3,13,6,12,8,13,8,2,3,8,2,13,0,0,0,0,0,0,0,0,0,0,0,0,0,0,0,0],"split_type":[0,0,0,0,0,0,0,0,0,0,0,0,0,0,0,0,0,0,0,0,0,0,0,0,0,0,0,0,0,0,0],"sum_hessian":[1.2273351E3,5.732503E2,6.5408484E2,2.4288419E2,3.303661E2,4.5652573E2,1.9755908E2,9.721674E1,1.4566745E2,2.6109805E2,6.926806E1,3.1112622E2,1.453995E2,9.287436E0,1.8827165E2,8.514848E1,1.206826E1,1.4261375E2,3.0536847E0,2.5661063E2,4.487425E0,4.6093975E1,2.317408E1,2.847894E2,2.6336813E1,3.93947E1,1.0600481E2,6.5566053E0,2.73083E0,6.526118E0,1.8174553E2],"tree_param":{"num_deleted":"0","num_feature":"14","num_nodes":"31","size_leaf_vector":"1"}},{"base_weights":[-4.5619267E-3,-2.6406315E-1,4.5297977E-1,-5.765593E-1,-1.0629808E-1,3.5438454E-1,9.9085456E-1,-1.0918275E0,-5.1244336E-1,-2.8413457E-1,-2.9378967E-2,-1.795819E-1,4.292809E-1,-4.8120064E-1,1.0507827E0,-1.34404395E-2,-5.5875458E-2,-1.7263724E-2,-3.5214223E-2,-9.494827E-3,-3.6815975E-2,5.2417528E-2,-2.4730251E-3,-2.4400838E-2,1.8353255E-2,2.514254E-2,-1.7811442E-2,-2.193879E-3,-3.6862925E-2,3.2786995E-2,5.8141924E-2],"categories":[],"categories_nodes":[],"categories_segments":[],"categories_sizes":[],"default_left":[0,0,0,0,0,0,0,0,0,0,0,0,0,0,0,0,0,0,0,0,0,0,0,0,0,0,0,0,0,0,0],"id":18,"left_children":[1,3,5,7,9,11,13,15,17,19,21,23,25,27,29,-1,-1,-1,-1,-1,-1,-1,-1,-1,-1,-1,-1,-1,-1,-1,-1],"loss_changes":[1.4496165E2,3.834638E1,2.3081322E1,8.067459E0,7.0898876E0,1.5072758E1,6.4947968E0,2.9169464E-1,7.2649574E0,6.531748E0,7.9156837E0,8.0748415E0,1.9199818E1,3.4184903E-1,2.1391373E0,0E0,0E0,0E0,0E0,0E0,0E0,0E0,0E0,0E0,0E0,0E0,0E0,0E0,0E0,0E0,0E0],"parents":[2147483647,0,0,1,1,2,2,3,3,4,4,5,5,6,6,7,7,8,8,9,9,10,10,11,11,12,12,13,13,14,14],"right_children":[2,4,6,8,10,12,14,16,18,20,22,24,26,28,30,-1,-1,-1,-1,-1,-1,-1,-1,-1,-1,-1,-1,-1,-1,-1,-1],"split_conditions":[1.8764825E-3,-2.8980125E-3,9.574549E-3,-1.1421494E-2,-1.0818538E-3,1E0,2E0,-5.7665944E-2,4.939568E-2,1.5508991E-1,-4.0336823E-1,8.2293874E-1,3.09968E-2,6.742709E-3,4.6444037E-3,-1.34404395E-2,-5.5875458E-2,-1.7263724E-2,-3.5214223E-2,-9.494827E-3,-3.6815975E-2,5.2417528E-2,-2.4730251E-3,-2.4400838E-2,1.8353255E-2,2.514254E-2,-1.7811442E-2,-2.193879E-3,-3.6862925E-2,3.2786995E-2,5.8141924E-2],"split_indices":[9,9,9,9,9,12,13,6,6,2,6,0,6,8,8,0,0,0,0,0,0,0,0,0,0,0,0,0,0,0,0],"split_type":[0,0,0,0,0,0,0,0,0,0,0,0,0,0,0,0,0,0,0,0,0,0,0,0,0,0,0,0,0,0,0],"sum_hessian":[1.2189009E3,7.7804474E2,4.4085614E2,2.601309E2,5.179138E2,3.7396524E2,6.68909E1,2.7012869E1,2.3311803E2,1.5556186E2,3.6235196E2,4.582962E1,3.2813562E2,2.3416505E0,6.4549255E1,1.1643941E0,2.5848475E1,1.2606538E2,1.0705266E2,1.2990817E2,2.5653687E1,5.691612E0,3.5666037E2,2.9367079E1,1.6462543E1,3.0036377E2,2.7771852E1,1.2973151E0,1.0443355E0,1.5777832E1,4.877142E1],"tree_param":{"num_deleted":"0","num_feature":"14","num_nodes":"31","size_leaf_vector":"1"}},{"base_weights":[-4.797974E-3,-2.5178957E-1,4.3856293E-1,-4.2964756E-1,-5.0505336E-2,3.0454236E-1,8.577647E-1,-7.162835E-1,-3.3774397E-1,-1.7902524E-3,-4.5412886E-1,-1.952185E-1,3.8015407E-1,-4.2226072E-2,8.8764393E-1,-2.5446609E-2,-4.843269E-2,-1.4165567E-2,-3.3739887E-2,-9.1366945E-3,4.4727414E-3,-4.6228033E-2,-1.0637561E-2,-2.2092393E-2,1.4493418E-2,2.6359363E-2,4.9539516E-3,-1.2899825E-2,4.5736264E-2],"categories":[],"categories_nodes":[],"categories_segments":[],"categories_sizes":[],"default_left":[0,0,0,0,0,0,0,0,0,0,0,0,0,0,0,0,0,0,0,0,0,0,0,0,0,0,0,0,0],"id":19,"left_children":[1,3,5,7,9,11,13,15,17,19,21,23,25,-1,27,-1,-1,-1,-1,-1,-1,-1,-1,-1,-1,-1,-1,-1,-1],"loss_changes":[1.3298004E2,2.789793E1,2.4148155E1,1.0661362E1,7.2149262E0,1.2573278E1,6.075096E0,4.7188187E0,5.5935936E0,5.4393005E0,4.290657E0,5.407446E0,1.1835232E1,0E0,3.4435349E0,0E0,0E0,0E0,0E0,0E0,0E0,0E0,0E0,0E0,0E0,0E0,0E0,0E0,0E0],"parents":[2147483647,0,0,1,1,2,2,3,3,4,4,5,5,6,6,7,7,8,8,9,9,10,10,11,11,12,12,14,14],"right_children":[2,4,6,8,10,12,14,16,18,20,22,24,26,-1,28,-1,-1,-1,-1,-1,-1,-1,-1,-1,-1,-1,-1,-1,-1],"split_conditions":[1.8764825E-3,-1.0818538E-3,7.6380554E-3,-6.933224E-3,2.7244622E-1,1E0,1E0,4E0,5.507616E-1,2E0,1.3E1,8.2293874E-1,3.347456E-1,-4.2226072E-2,2E0,-2.5446609E-2,-4.843269E-2,-1.4165567E-2,-3.3739887E-2,-9.1366945E-3,4.4727414E-3,-4.6228033E-2,-1.0637561E-2,-2.2092393E-2,1.4493418E-2,2.6359363E-2,4.9539516E-3,-1.2899825E-2,4.5736264E-2],"split_indices":[9,9,9,9,3,12,12,12,5,12,13,0,2,0,13,0,0,0,0,0,0,0,0,0,0,0,0,0,0],"split_type":[0,0,0,0,0,0,0,0,0,0,0,0,0,0,0,0,0,0,0,0,0,0,0,0,0,0,0,0,0],"sum_hessian":[1.2123501E3,7.788777E2,4.3347235E2,4.12899E2,3.659787E2,3.2977E2,1.03702354E2,9.85961E1,3.143029E2,3.274605E2,3.85182E1,4.3128353E1,2.8664163E2,1.3185244E0,1.02383835E2,5.5781647E1,4.2814453E1,2.7218658E2,4.211633E1,1.0943757E2,2.1802293E2,1.2101905E1,2.6416296E1,2.8650776E1,1.4477577E1,1.876201E2,9.902153E1,2.1674204E0,1.00216415E2],"tree_param":{"num_deleted":"0","num_feature":"14","num_nodes":"29","size_leaf_vector":"1"}},{"base_weights":[-5.45094E-4,-2.2499834E-1,4.45763E-1,-4.0855837E-1,-3.4877446E-2,3.05247E-1,8.3330697E-1,-8.1124425E-1,-3.3542E-1,-5.1660202E-2,6.813949E-2,-2.1372965E-1,3.8170084E-1,-4.179701E-2,8.618886E-1,9.709219E-3,-4.4567417E-2,-1.3804242E-2,-3.9253615E-2,-1.5829448E-4,-2.3756145E-2,-3.0336518E-2,1.03044575E-2,2.148705E-2,-2.5867501E-2,-1.0864393E-2,4.4683486E-2],"categories":[],"categories_nodes":[],"categories_segments":[],"categories_sizes":[],"default_left":[0,0,0,0,0,0,0,0,0,0,0,0,0,0,0,0,0,0,0,0,0,0,0,0,0,0,0],"id":20,"left_children":[1,3,5,7,9,11,13,15,17,19,-1,21,23,-1,25,-1,-1,-1,-1,-1,-1,-1,-1,-1,-1,-1,-1],"loss_changes":[1.2099891E2,2.8033287E1,2.1755928E1,1.1767944E1,9.356473E0,1.1913851E1,5.8242188E0,5.177128E0,9.059242E0,8.051455E0,0E0,6.548296E0,1.1463875E1,0E0,3.8182678E0,0E0,0E0,0E0,0E0,0E0,0E0,0E0,0E0,0E0,0E0,0E0,0E0],"parents":[2147483647,0,0,1,1,2,2,3,3,4,4,5,5,6,6,7,7,8,8,9,9,11,11,12,12,14,14],"right_children":[2,4,6,8,10,12,14,16,18,20,-1,22,24,-1,26,-1,-1,-1,-1,-1,-1,-1,-1,-1,-1,-1,-1],"split_conditions":[2.1941175E-3,-1.0818538E-3,7.6380554E-3,-8.527285E-3,3.9095143E-3,1E0,1E0,-1.5062627E-3,1.5067369E-1,2.799468E-1,6.813949E-2,2.9937363E-1,6.84455E-2,-4.179701E-2,2E0,9.709219E-3,-4.4567417E-2,-1.3804242E-2,-3.9253615E-2,-1.5829448E-4,-2.3756145E-2,-3.0336518E-2,1.03044575E-2,2.148705E-2,-2.5867501E-2,-1.0864393E-2,4.4683486E-2],"split_indices":[9,9,9,9,11,12,12,11,2,2,0,2,6,0,13,0,0,0,0,0,0,0,0,0,0,0,0],"split_type":[0,0,0,0,0,0,0,0,0,0,0,0,0,0,0,0,0,0,0,0,0,0,0,0,0,0,0],"sum_hessian":[1.2058705E3,8.026865E2,4.03184E2,4.078052E2,3.948813E2,2.972093E2,1.0597471E2,6.1132027E1,3.466732E2,3.9114755E2,3.7337399E0,3.7931396E1,2.592779E2,1.3084741E0,1.0466624E2,4.4059844E0,5.6726044E1,3.0768564E2,3.8987556E1,3.5186047E2,3.928706E1,1.9361496E1,1.85699E1,2.4662183E2,1.2656059E1,2.8272073E0,1.0183903E2],"tree_param":{"num_deleted":"0","num_feature":"14","num_nodes":"27","size_leaf_vector":"1"}},{"base_weights":[1.4129255E-2,-2.3709571E-1,3.9823076E-1,-5.3422606E-1,-1.09671116E-1,-1.9510432E-1,4.768397E-1,-9.9801934E-1,-4.6925008E-1,-1.2377316E-1,8.848652E-1,-5.581105E-1,8.707929E-2,3.4909508E-1,8.391503E-1,-1.0218802E-2,-5.1236313E-2,-1.6592102E-2,-3.2198075E-2,-5.288779E-3,-3.4717597E-2,5.8850028E-2,-9.458966E-3,-3.430683E-2,1.4383721E-2,-8.19437E-3,3.609504E-2,2.014862E-2,-2.1666078E-2,5.364662E-2,3.3649646E-2],"categories":[],"categories_nodes":[],"categories_segments":[],"categories_sizes":[],"default_left":[0,0,0,0,0,0,0,0,0,0,0,0,0,0,0,0,0,0,0,0,0,0,0,0,0,0,0,0,0,0,0],"id":21,"left_children":[1,3,5,7,9,11,13,15,17,19,21,23,25,27,29,-1,-1,-1,-1,-1,-1,-1,-1,-1,-1,-1,-1,-1,-1,-1,-1],"loss_changes":[1.15314354E2,2.7296936E1,2.2132439E1,6.0588226E0,7.2190366E0,5.783846E0,1.9032097E1,3.3589745E-1,4.3923874E0,5.0683393E0,2.4849386E0,2.863606E0,5.274935E0,1.32597885E1,3.4781494E0,0E0,0E0,0E0,0E0,0E0,0E0,0E0,0E0,0E0,0E0,0E0,0E0,0E0,0E0,0E0,0E0],"parents":[2147483647,0,0,1,1,2,2,3,3,4,4,5,5,6,6,7,7,8,8,9,9,10,10,11,11,12,12,13,13,14,14],"right_children":[2,4,6,8,10,12,14,16,18,20,22,24,26,28,30,-1,-1,-1,-1,-1,-1,-1,-1,-1,-1,-1,-1,-1,-1,-1,-1],"split_conditions":[1.3635822E-3,-3.62612E-3,1E0,-1.1421494E-2,5.0431415E-3,-1.6933638E-3,7.385545E-3,-8.5349113E-4,4E0,7.650214E-1,2.2004417E-1,-4.3328762E-2,8.942308E-1,6.84455E-2,3E0,-1.0218802E-2,-5.1236313E-2,-1.6592102E-2,-3.2198075E-2,-5.288779E-3,-3.4717597E-2,5.8850028E-2,-9.458966E-3,-3.430683E-2,1.4383721E-2,-8.19437E-3,3.609504E-2,2.014862E-2,-2.1666078E-2,5.364662E-2,3.3649646E-2],"split_indices":[9,9,12,9,11,11,9,11,12,5,6,6,1,6,12,0,0,0,0,0,0,0,0,0,0,0,0,0,0,0,0],"split_type":[0,0,0,0,0,0,0,0,0,0,0,0,0,0,0,0,0,0,0,0,0,0,0,0,0,0,0,0,0,0,0],"sum_hessian":[1.1930398E3,7.2151154E2,4.7152826E2,2.1559404E2,5.059175E2,5.498946E1,4.165388E2,2.4727974E1,1.9086607E2,4.9970743E2,6.2100606E0,2.3622814E1,3.1366648E1,3.094097E2,1.0712911E2,1.0867211E0,2.3641253E1,1.08461784E2,8.240428E1,4.8557645E2,1.41310005E1,4.80678E0,1.4032809E0,2.0681084E1,2.94173E0,2.3011322E1,8.355326E0,2.8993002E2,1.9479658E1,4.2240196E1,6.4888916E1],"tree_param":{"num_deleted":"0","num_feature":"14","num_nodes":"31","size_leaf_vector":"1"}},{"base_weights":[2.673195E-3,-1.9332731E-1,3.9749512E-1,-4.4418728E-1,-6.368942E-2,-2.327268E-1,4.7066087E-1,-9.3583316E-1,-3.9293277E-1,7.51635E-1,-7.711696E-2,4.8969407E-2,-9.15636E-1,2.6162416E-1,6.868823E-1,-4.941867E-2,-1.2958899E-2,-1.2802086E-2,-2.8431833E-2,-1.6234528E-2,6.1575722E-2,-4.6686283E-3,3.0622039E-2,-9.031895E-3,5.7085663E-2,-5.6960087E-2,-1.4112959E-2,2.6120324E-2,-1.2547962E-2,2.8956627E-2,4.8753344E-2],"categories":[],"categories_nodes":[],"categories_segments":[],"categories_sizes":[],"default_left":[0,0,0,0,0,0,0,0,0,0,0,0,0,0,0,0,0,0,0,0,0,0,0,0,0,0,0,0,0,0,0],"id":22,"left_children":[1,3,5,7,9,11,13,15,17,19,21,23,25,27,29,-1,-1,-1,-1,-1,-1,-1,-1,-1,-1,-1,-1,-1,-1,-1,-1],"loss_changes":[9.2273636E1,2.5885553E1,1.8349266E1,6.469265E0,5.822157E0,8.088985E0,1.5854309E1,6.2875557E-1,5.8056183E0,4.854073E0,5.8735414E0,7.872084E0,1.4147959E0,2.4457708E1,4.8309555E0,0E0,0E0,0E0,0E0,0E0,0E0,0E0,0E0,0E0,0E0,0E0,0E0,0E0,0E0,0E0,0E0],"parents":[2147483647,0,0,1,1,2,2,3,3,4,4,5,5,6,6,7,7,8,8,9,9,10,10,11,11,12,12,13,13,14,14],"right_children":[2,4,6,8,10,12,14,16,18,20,22,24,26,28,30,-1,-1,-1,-1,-1,-1,-1,-1,-1,-1,-1,-1,-1,-1,-1,-1],"split_conditions":[2.1941175E-3,-2.5424457E-3,1E0,-1.1421494E-2,-4.0336823E-1,4.8720795E-3,5.345682E-3,1.2676266E-1,4E0,3.3018413E-1,3.9095143E-3,9.0752435E-1,-1.9004915E-3,3.347456E-1,1.0615751E-2,-4.941867E-2,-1.2958899E-2,-1.2802086E-2,-2.8431833E-2,-1.6234528E-2,6.1575722E-2,-4.6686283E-3,3.0622039E-2,-9.031895E-3,5.7085663E-2,-5.6960087E-2,-1.4112959E-2,2.6120324E-2,-1.2547962E-2,2.8956627E-2,4.8753344E-2],"split_indices":[9,9,12,9,6,9,9,1,12,5,11,5,11,2,9,0,0,0,0,0,0,0,0,0,0,0,0,0,0,0,0],"split_type":[0,0,0,0,0,0,0,0,0,0,0,0,0,0,0,0,0,0,0,0,0,0,0,0,0,0,0,0,0,0,0],"sum_hessian":[1.1903993E3,7.958351E2,3.945642E2,2.703191E2,5.25516E2,4.0815376E1,3.537488E2,2.3891117E1,2.4642798E2,7.623729E0,5.178923E2,2.9553158E1,1.1262218E1,1.8098636E2,1.7276247E2,2.1742224E1,2.1488936E0,1.3989383E2,1.0653416E2,2.4506154E0,5.173114E0,5.0680936E2,1.1082912E1,2.5111437E1,4.4417205E0,7.7337775E0,3.5284407E0,1.1994427E2,6.104209E1,1.2793735E2,4.482511E1],"tree_param":{"num_deleted":"0","num_feature":"14","num_nodes":"31","size_leaf_vector":"1"}},{"base_weights":[-1.7370404E-3,-2.8062317E-1,2.648816E-1,-5.33701E-1,-1.8358107E-1,1.151474E-1,5.7272446E-1,-4.213279E-1,-8.310967E-1,-2.4447736E-1,8.203218E-2,2.1575017E-1,-1.1615076E-1,-5.6973505E-1,6.440576E-1,-4.399534E-2,-1.7108837E-2,-4.6719506E-2,-7.841996E-3,-3.7076578E-2,-1.0289532E-2,-3.8035407E-3,3.935701E-2,7.0421766E-3,2.5454804E-2,-3.896106E-2,-2.2123323E-3,-4.2472772E-2,1.6530612E-2,2.9292641E-2,5.5699047E-2],"categories":[],"categories_nodes":[],"categories_segments":[],"categories_sizes":[],"default_left":[0,0,0,0,0,0,0,0,0,0,0,0,0,0,0,0,0,0,0,0,0,0,0,0,0,0,0,0,0,0,0],"id":23,"left_children":[1,3,5,7,9,11,13,15,17,19,21,23,25,27,29,-1,-1,-1,-1,-1,-1,-1,-1,-1,-1,-1,-1,-1,-1,-1,-1],"loss_changes":[8.8085175E1,1.4121689E1,2.7850883E1,4.995407E0,6.8141537E0,9.5353775E0,1.649765E1,3.9862404E0,2.836893E0,6.4229183E0,8.876724E0,6.194585E0,5.9029827E0,3.3440323E0,4.4559097E0,0E0,0E0,0E0,0E0,0E0,0E0,0E0,0E0,0E0,0E0,0E0,0E0,0E0,0E0,0E0,0E0],"parents":[2147483647,0,0,1,1,2,2,3,3,4,4,5,5,6,6,7,7,8,8,9,9,10,10,11,11,12,12,13,13,14,14],"right_children":[2,4,6,8,10,12,14,16,18,20,22,24,26,28,30,-1,-1,-1,-1,-1,-1,-1,-1,-1,-1,-1,-1,-1,-1,-1,-1],"split_conditions":[1.7714608E-4,-4.84905E-3,4.8720795E-3,5E0,6E0,2.6496398E-1,1E0,-1.2148789E-2,2.4206753E-1,-1.8181819E-1,1.9325652E-3,2.333382E-3,-2.20213E-1,-1.6592206E-3,1.3156928E-2,-4.399534E-2,-1.7108837E-2,-4.6719506E-2,-7.841996E-3,-3.7076578E-2,-1.0289532E-2,-3.8035407E-3,3.935701E-2,7.0421766E-3,2.5454804E-2,-3.896106E-2,-2.2123323E-3,-4.2472772E-2,1.6530612E-2,2.9292641E-2,5.5699047E-2],"split_indices":[9,9,9,12,12,2,12,9,1,6,11,10,6,11,9,0,0,0,0,0,0,0,0,0,0,0,0,0,0,0,0],"split_type":[0,0,0,0,0,0,0,0,0,0,0,0,0,0,0,0,0,0,0,0,0,0,0,0,0,0,0,0,0,0,0],"sum_hessian":[1.1826376E3,5.7799536E2,6.046422E2,1.5895476E2,4.190406E2,4.0770782E2,1.9693436E2,1.1711773E2,4.1837036E1,3.4095132E2,7.808925E1,2.84174E2,1.2353382E2,1.1162982E1,1.8577138E2,1.5750001E1,1.0136772E2,3.5944653E1,5.8923836E0,2.3308743E1,3.176426E2,6.451539E1,1.3573862E1,2.2754893E2,5.662508E1,1.1123205E1,1.12410614E2,8.560062E0,2.60292E0,1.6729666E2,1.8474709E1],"tree_param":{"num_deleted":"0","num_feature":"14","num_nodes":"31","size_leaf_vector":"1"}},{"base_weights":[-6.1703944E-3,-3.4899712E-1,1.974747E-1,-2.486395E-1,-6.358224E-1,8.508294E-2,5.7546467E-1,-4.5766687E-1,-1.3810907E-1,-7.2881144E-1,-2.101082E-1,1.4601424E-1,-3.6399433E-1,-3.528889E-1,6.290448E-1,-2.4631456E-2,4.384319E-2,3.1809524E-2,-9.645074E-3,-4.7643665E-2,-3.1256806E-2,2.2589069E-2,-3.4178037E-2,1.7940305E-2,5.8120565E-4,-1.2319118E-2,-7.252764E-2,-4.718283E-2,2.6663933E-2,2.6416829E-2,5.08384E-2],"categories":[],"categories_nodes":[],"categories_segments":[],"categories_sizes":[],"default_left":[0,0,0,0,0,0,0,0,0,0,0,0,0,0,0,0,0,0,0,0,0,0,0,0,0,0,0,0,0,0,0],"id":24,"left_children":[1,3,5,7,9,11,13,15,17,19,21,23,25,27,29,-1,-1,-1,-1,-1,-1,-1,-1,-1,-1,-1,-1,-1,-1,-1,-1],"loss_changes":[8.255643E1,1.2526306E1,3.1467335E1,7.516758E0,4.342987E0,1.5732147E1,8.670769E0,5.706526E0,9.288181E0,1.5602722E0,7.1297398E0,1.4444793E1,8.427508E0,5.690723E0,5.747238E0,0E0,0E0,0E0,0E0,0E0,0E0,0E0,0E0,0E0,0E0,0E0,0E0,0E0,0E0,0E0,0E0],"parents":[2147483647,0,0,1,1,2,2,3,3,4,4,5,5,6,6,7,7,8,8,9,9,10,10,11,11,12,12,13,13,14,14],"right_children":[2,4,6,8,10,12,14,16,18,20,22,24,26,28,30,-1,-1,-1,-1,-1,-1,-1,-1,-1,-1,-1,-1,-1,-1,-1,-1],"split_conditions":[-6.7437335E-4,2.7136183E-3,4.3823454E-3,-3.6352123E-3,4.3319035E-4,3.781458E-1,1E0,-2.7941668E-3,3E0,-6.959823E-3,1.2945354E-1,-6.7932997E-4,1.4932379E-3,3.7416482E-1,9.382014E-3,-2.4631456E-2,4.384319E-2,3.1809524E-2,-9.645074E-3,-4.7643665E-2,-3.1256806E-2,2.2589069E-2,-3.4178037E-2,1.7940305E-2,5.8120565E-4,-1.2319118E-2,-7.252764E-2,-4.718283E-2,2.6663933E-2,2.6416829E-2,5.08384E-2],"split_indices":[10,11,10,10,8,2,12,8,13,10,2,11,11,2,10,0,0,0,0,0,0,0,0,0,0,0,0,0,0,0,0],"split_type":[0,0,0,0,0,0,0,0,0,0,0,0,0,0,0,0,0,0,0,0,0,0,0,0,0,0,0,0,0,0,0],"sum_hessian":[1.1805159E3,4.3965836E2,7.408575E2,3.270821E2,1.12576256E2,5.7200287E2,1.6885458E2,1.1204668E2,2.1503543E2,9.1810135E1,2.0766119E1,5.0425928E2,6.774361E1,8.908886E0,1.599457E2,1.0980095E2,2.2457232E0,1.3509849E1,2.0152559E2,2.645182E1,6.5358315E1,8.678831E0,1.2087288E1,1.9454654E2,3.0971274E2,6.2233986E1,5.5096173E0,5.3064456E0,3.6024399E0,1.288425E2,3.1103197E1],"tree_param":{"num_deleted":"0","num_feature":"14","num_nodes":"31","size_leaf_vector":"1"}},{"base_weights":[4.1152462E-3,-2.8375563E-1,2.3329388E-1,-5.6935173E-1,-1.8898211E-1,1.5139602E-1,7.073887E-1,-9.237164E-1,-4.8686045E-1,-2.0544218E-1,1.0926143E0,-2.215542E-2,2.650211E-1,-5.9946424E-1,7.512642E-1,-6.8454645E-3,-4.7646806E-2,2.5156876E-2,-2.630173E-2,-7.6763663E-3,-3.1601533E-2,6.7428455E-2,1.3673048E-2,3.7574344E-3,-3.618003E-2,2.2360997E-2,5.2254456E-3,-6.2025923E-2,6.0751913E-3,-4.0244255E-2,3.917967E-2],"categories":[],"categories_nodes":[],"categories_segments":[],"categories_sizes":[],"default_left":[0,0,0,0,0,0,0,0,0,0,0,0,0,0,0,0,0,0,0,0,0,0,0,0,0,0,0,0,0,0,0],"id":25,"left_children":[1,3,5,7,9,11,13,15,17,19,21,23,25,27,29,-1,-1,-1,-1,-1,-1,-1,-1,-1,-1,-1,-1,-1,-1,-1,-1],"loss_changes":[7.757838E1,1.4000069E1,2.5312325E1,3.3320198E0,8.511587E0,1.1039415E1,5.9641685E0,4.0553856E-1,4.416525E0,8.511328E0,7.088504E-1,1.5227306E1,9.844366E0,1.8514587E0,5.333702E0,0E0,0E0,0E0,0E0,0E0,0E0,0E0,0E0,0E0,0E0,0E0,0E0,0E0,0E0,0E0,0E0],"parents":[2147483647,0,0,1,1,2,2,3,3,4,4,5,5,6,6,7,7,8,8,9,9,10,10,11,11,12,12,13,13,14,14],"right_children":[2,4,6,8,10,12,14,16,18,20,22,24,26,28,30,-1,-1,-1,-1,-1,-1,-1,-1,-1,-1,-1,-1,-1,-1,-1,-1],"split_conditions":[-1.9405766E-4,-5.5666417E-3,7.6380554E-3,-1.1421494E-2,3.5776852E-3,9.668221E-4,2E0,-4.693895E-4,-1.0301148E-2,6.6638035E-1,1.7525525E-3,2.828461E-1,-5.6965114E-4,-5.490927E-3,1E0,-6.8454645E-3,-4.7646806E-2,2.5156876E-2,-2.630173E-2,-7.6763663E-3,-3.1601533E-2,6.7428455E-2,1.3673048E-2,3.7574344E-3,-3.618003E-2,2.2360997E-2,5.2254456E-3,-6.2025923E-2,6.0751913E-3,-4.0244255E-2,3.917967E-2],"split_indices":[9,9,9,9,8,8,13,11,10,0,10,2,11,11,12,0,0,0,0,0,0,0,0,0,0,0,0,0,0,0,0],"split_type":[0,0,0,0,0,0,0,0,0,0,0,0,0,0,0,0,0,0,0,0,0,0,0,0,0,0,0,0,0,0,0],"sum_hessian":[1.1738923E3,5.202141E2,6.5367816E2,1.2836974E2,3.9184442E2,5.5851624E2,9.516196E1,2.2314346E1,1.0605538E2,3.8770465E2,4.1397505E0,2.213026E2,3.3721362E2,2.6798062E0,9.2482155E1,1.0025989E0,2.1311747E1,3.5860534E0,1.0246933E2,3.468533E2,4.0851364E1,2.6617556E0,1.4779948E0,1.9512747E2,2.6175117E1,1.5710081E2,1.8011281E2,1.037064E0,1.6427422E0,1.3958755E0,9.108627E1],"tree_param":{"num_deleted":"0","num_feature":"14","num_nodes":"31","size_leaf_vector":"1"}},{"base_weights":[1.140539E-2,-1.6534038E-1,3.71998E-1,-5.098419E-1,-8.2899876E-2,2.6801774E-1,8.3966875E-1,-3.9066273E-1,-8.235467E-1,-7.105311E-2,-1.0001943E0,-2.2492562E-1,3.3564213E-1,-2.892006E-2,8.8470876E-1,-3.1008964E-2,-8.553946E-3,-5.882555E-2,-3.217382E-2,-9.470495E-3,1.2167338E-3,-6.435915E-2,-7.007E-3,4.1825127E-2,-1.6883427E-2,2.4158685E-2,3.8977158E-3,3.330932E-2,5.0974585E-2],"categories":[],"categories_nodes":[],"categories_segments":[],"categories_sizes":[],"default_left":[0,0,0,0,0,0,0,0,0,0,0,0,0,0,0,0,0,0,0,0,0,0,0,0,0,0,0,0,0],"id":26,"left_children":[1,3,5,7,9,11,13,15,17,19,21,23,25,-1,27,-1,-1,-1,-1,-1,-1,-1,-1,-1,-1,-1,-1,-1,-1],"loss_changes":[7.392141E1,2.2064749E1,1.8326733E1,5.290432E0,6.767325E0,1.0528549E1,4.9138756E0,5.472204E0,1.8122826E0,7.0306435E0,1.7811437E0,4.8809805E0,1.0460707E1,0E0,1.2999992E0,0E0,0E0,0E0,0E0,0E0,0E0,0E0,0E0,0E0,0E0,0E0,0E0,0E0,0E0],"parents":[2147483647,0,0,1,1,2,2,3,3,4,4,5,5,6,6,7,7,8,8,9,9,10,10,11,11,12,12,14,14],"right_children":[2,4,6,8,10,12,14,16,18,20,22,24,26,-1,28,-1,-1,-1,-1,-1,-1,-1,-1,-1,-1,-1,-1,-1,-1],"split_conditions":[2.1941175E-3,-4.84905E-3,5.818841E-3,5E0,4.663961E-1,1E0,2.4247736E-1,-3.854035E-1,2.536735E-2,-6.7437335E-4,-1.1918455E-1,7.0983815E-1,3.2092726E-1,-2.892006E-2,9.288561E-3,-3.1008964E-2,-8.553946E-3,-5.882555E-2,-3.217382E-2,-9.470495E-3,1.2167338E-3,-6.435915E-2,-7.007E-3,4.1825127E-2,-1.6883427E-2,2.4158685E-2,3.8977158E-3,3.330932E-2,5.0974585E-2],"split_indices":[9,9,8,12,3,12,3,3,1,10,6,1,2,0,9,0,0,0,0,0,0,0,0,0,0,0,0,0,0],"split_type":[0,0,0,0,0,0,0,0,0,0,0,0,0,0,0,0,0,0,0,0,0,0,0,0,0,0,0,0,0],"sum_hessian":[1.1578916E3,7.773918E2,3.8049988E2,1.4910962E2,6.2828217E2,3.1257593E2,6.792394E1,1.0968475E2,3.942487E1,6.2133514E2,6.947021E0,3.742715E1,2.7514877E2,1.7264124E0,6.619753E1,5.2737427E1,5.6947327E1,1.1449184E1,2.7975685E1,2.7684332E2,3.444918E2,4.836512E0,2.110509E0,2.9773235E0,3.444983E1,1.7441664E2,1.0073213E2,2.7520868E1,3.8676666E1],"tree_param":{"num_deleted":"0","num_feature":"14","num_nodes":"29","size_leaf_vector":"1"}},{"base_weights":[-4.3255514E-3,-3.1197056E-1,1.77406E-1,-8.246811E-2,-4.244583E-1,6.0451064E-2,4.7504863E-1,-1.8819377E-1,4.0212417E-1,-6.477635E-1,-3.1538466E-1,5.5467635E-1,2.034931E-2,3.822707E-1,8.753644E-1,-1.3007407E-2,2.8930176E-2,6.2039692E-2,1.4531693E-3,-2.4792532E-2,-4.2729E-2,-1.2040361E-2,-3.8550217E-2,-2.0942662E-3,4.4515617E-2,3.0264228E-3,-1.4143703E-2,-1.1523609E-2,2.174641E-2,1.9992298E-2,4.999968E-2],"categories":[],"categories_nodes":[],"categories_segments":[],"categories_sizes":[],"default_left":[0,0,0,0,0,0,0,0,0,0,0,0,0,0,0,0,0,0,0,0,0,0,0,0,0,0,0,0,0,0,0],"id":27,"left_children":[1,3,5,7,9,11,13,15,17,19,21,23,25,27,29,-1,-1,-1,-1,-1,-1,-1,-1,-1,-1,-1,-1,-1,-1,-1,-1],"loss_changes":[6.496434E1,1.1104591E1,2.5399988E1,7.410787E0,6.842758E0,1.0405052E1,7.3132744E0,6.6726284E0,8.086274E0,2.5294533E0,6.485426E0,7.927479E0,5.9523087E0,5.551466E0,1.8503456E0,0E0,0E0,0E0,0E0,0E0,0E0,0E0,0E0,0E0,0E0,0E0,0E0,0E0,0E0,0E0,0E0],"parents":[2147483647,0,0,1,1,2,2,3,3,4,4,5,5,6,6,7,7,8,8,9,9,10,10,11,11,12,12,13,13,14,14],"right_children":[2,4,6,8,10,12,14,16,18,20,22,24,26,28,30,-1,-1,-1,-1,-1,-1,-1,-1,-1,-1,-1,-1,-1,-1,-1,-1],"split_conditions":[-6.7437335E-4,-2.1009207E-2,4.5651733E-3,6E0,-4.9389875E-3,2.5329188E-1,1.0615751E-2,-2.9658437E-2,-1.5099227E-1,4E0,6.1720437E-1,-3.910248E-3,3.781458E-1,1E0,4.534068E-1,-1.3007407E-2,2.8930176E-2,6.2039692E-2,1.4531693E-3,-2.4792532E-2,-4.2729E-2,-1.2040361E-2,-3.8550217E-2,-2.0942662E-3,4.4515617E-2,3.0264228E-3,-1.4143703E-2,-1.1523609E-2,2.174641E-2,1.9992298E-2,4.999968E-2],"split_indices":[10,6,9,12,10,0,9,6,6,12,0,11,2,12,3,0,0,0,0,0,0,0,0,0,0,0,0,0,0,0,0],"split_type":[0,0,0,0,0,0,0,0,0,0,0,0,0,0,0,0,0,0,0,0,0,0,0,0,0,0,0,0,0,0,0],"sum_hessian":[1.1599799E3,4.304961E2,7.2948376E2,1.4216924E2,2.8832687E2,5.245655E2,2.049183E2,1.17208885E2,2.4960342E1,9.2996796E1,1.9533006E2,3.8406105E1,4.8615936E2,1.6794905E2,3.6969257E1,1.0775789E2,9.450999E0,6.96854E0,1.7991802E1,5.5573757E1,3.742304E1,1.691685E2,2.6161564E1,1.414316E1,2.4262943E1,4.2998395E2,5.6175404E1,1.3023676E1,1.5492537E2,8.551101E0,2.841816E1],"tree_param":{"num_deleted":"0","num_feature":"14","num_nodes":"31","size_leaf_vector":"1"}},{"base_weights":[-1.1261238E-2,-1.7827584E-1,3.2432237E-1,-4.9854162E-1,-9.995443E-2,2.6141033E-1,8.456414E-1,1.0545276E-1,-5.526906E-1,7.4831134E-1,-1.10544205E-1,-1.2865238E-1,3.1328198E-1,-2.9330427E-2,9.2452294E-1,-2.2127097E-2,4.0605046E-2,-3.6491375E-2,-1.9608298E-2,-1.3555351E-2,5.12194E-2,-5.0707697E-3,-5.9170347E-2,3.5736996E-3,-3.8150053E-2,1.7973058E-2,-1.4456095E-2,2.4879394E-2,5.2550286E-2],"categories":[],"categories_nodes":[],"categories_segments":[],"categories_sizes":[],"default_left":[0,0,0,0,0,0,0,0,0,0,0,0,0,0,0,0,0,0,0,0,0,0,0,0,0,0,0,0,0],"id":28,"left_children":[1,3,5,7,9,11,13,15,17,19,21,23,25,-1,27,-1,-1,-1,-1,-1,-1,-1,-1,-1,-1,-1,-1,-1,-1],"loss_changes":[6.487647E1,1.9335733E1,1.2394787E1,5.016777E0,5.672148E0,7.014433E0,5.171526E0,5.5149045E0,3.674652E0,2.4731655E0,5.9074364E0,5.280589E0,8.575251E0,0E0,1.5951042E0,0E0,0E0,0E0,0E0,0E0,0E0,0E0,0E0,0E0,0E0,0E0,0E0,0E0,0E0],"parents":[2147483647,0,0,1,1,2,2,3,3,4,4,5,5,6,6,7,7,8,8,9,9,10,10,11,11,12,12,14,14],"right_children":[2,4,6,8,10,12,14,16,18,20,22,24,26,-1,28,-1,-1,-1,-1,-1,-1,-1,-1,-1,-1,-1,-1,-1,-1],"split_conditions":[2.1941175E-3,-4.741661E-3,1.0615751E-2,1E0,-4.0336823E-1,1E0,2E0,1.7E1,-3.9088953E-1,6.856215E-2,4.6959794E-1,5.0774077E-3,3.244002E-2,-2.9330427E-2,4.534068E-1,-2.2127097E-2,4.0605046E-2,-3.6491375E-2,-1.9608298E-2,-1.3555351E-2,5.12194E-2,-5.0707697E-3,-5.9170347E-2,3.5736996E-3,-3.8150053E-2,1.7973058E-2,-1.4456095E-2,2.4879394E-2,5.2550286E-2],"split_indices":[9,9,9,12,6,12,13,13,3,3,3,9,6,0,3,0,0,0,0,0,0,0,0,0,0,0,0,0,0],"split_type":[0,0,0,0,0,0,0,0,0,0,0,0,0,0,0,0,0,0,0,0,0,0,0,0,0,0,0,0,0],"sum_hessian":[1.1554978E3,7.718361E2,3.836617E2,1.5060963E2,6.2122644E2,3.4368744E2,3.9974274E1,1.2313511E1,1.3829613E2,6.8008294E0,6.1442566E2,4.016627E1,3.0352118E2,1.7506787E0,3.8223595E1,7.145799E0,5.1677117E0,6.4060104E1,7.4236015E1,1.4531277E0,5.3477015E0,6.1032697E2,4.0986404E0,3.1208E1,8.958273E0,2.82285E2,2.123615E1,9.863607E0,2.835999E1],"tree_param":{"num_deleted":"0","num_feature":"14","num_nodes":"29","size_leaf_vector":"1"}},{"base_weights":[-5.981837E-3,-2.2993642E-1,2.109768E-1,-5.7331437E-1,-1.7411071E-1,1.4627652E-1,7.27624E-1,-4.950576E-1,-1.0895665E0,-1.0973717E-1,-4.3400237E-1,2.5943798E-1,-5.115183E-2,7.7869284E-1,-3.382858E-1,-2.8413832E-2,1.1295222E-2,-5.804646E-2,-1.8915106E-2,-8.506482E-3,9.545391E-3,1.8388214E-2,-2.423041E-2,1.4252934E-2,-2.1158552E-2,3.0591858E-3,-2.3802757E-2,-1.6717477E-2,4.017603E-2,-3.2149926E-2,4.3843766E-3],"categories":[],"categories_nodes":[],"categories_segments":[],"categories_sizes":[],"default_left":[0,0,0,0,0,0,0,0,0,0,0,0,0,0,0,0,0,0,0,0,0,0,0,0,0,0,0,0,0,0,0],"id":29,"left_children":[1,3,5,7,9,11,13,15,17,19,21,23,25,27,29,-1,-1,-1,-1,-1,-1,-1,-1,-1,-1,-1,-1,-1,-1,-1,-1],"loss_changes":[5.5747623E1,1.072225E1,1.937439E1,2.632513E0,8.100608E0,1.1612303E1,3.7803688E0,3.8240795E0,4.3121338E-2,7.1442714E0,4.0875015E0,5.8951416E0,9.097843E0,1.9808121E0,5.3029066E-1,0E0,0E0,0E0,0E0,0E0,0E0,0E0,0E0,0E0,0E0,0E0,0E0,0E0,0E0,0E0,0E0],"parents":[2147483647,0,0,1,1,2,2,3,3,4,4,5,5,6,6,7,7,8,8,9,9,10,10,11,11,12,12,13,13,14,14],"right_children":[2,4,6,8,10,12,14,16,18,20,22,24,26,28,30,-1,-1,-1,-1,-1,-1,-1,-1,-1,-1,-1,-1,-1,-1,-1,-1],"split_conditions":[2.4301204E-4,-4.177763E-1,5.9627774E-3,-1.9999973E-3,1.345138E-1,-1.8139044E-4,5.8693275E-2,-3.807135E-3,-3.2952894E-4,6E0,3.2006506E-2,6.84455E-2,3.347456E-1,1E0,5.5661467E-3,-2.8413832E-2,1.1295222E-2,-5.804646E-2,-1.8915106E-2,-8.506482E-3,9.545391E-3,1.8388214E-2,-2.423041E-2,1.4252934E-2,-2.1158552E-2,3.0591858E-3,-2.3802757E-2,-1.6717477E-2,4.017603E-2,-3.2149926E-2,4.3843766E-3],"split_indices":[10,3,8,8,6,11,6,10,8,12,7,6,2,12,10,0,0,0,0,0,0,0,0,0,0,0,0,0,0,0,0],"split_type":[0,0,0,0,0,0,0,0,0,0,0,0,0,0,0,0,0,0,0,0,0,0,0,0,0,0,0,0,0,0,0],"sum_hessian":[1.1453346E3,5.635514E2,5.817832E2,7.751223E1,4.8603912E2,5.1817474E2,6.360845E1,6.901018E1,8.502054E0,3.9068994E2,9.5349205E1,3.2918134E2,1.8899341E2,6.095738E1,2.6510751E0,6.2840088E1,6.1700926E0,7.15225E0,1.3498049E0,3.2569885E2,6.4991066E1,5.2888455E0,9.0060356E1,3.1783432E2,1.1347031E1,1.5015228E2,3.8841118E1,1.058042E0,5.9899334E1,1.248501E0,1.4025742E0],"tree_param":{"num_deleted":"0","num_feature":"14","num_nodes":"31","size_leaf_vector":"1"}},{"base_weights":[1.5835326E-2,-1.4390591E-1,2.8351754E-1,-2.6955357E-1,1.7447106E-3,2.0794468E-1,7.2283256E-1,-1.6703528E-1,-4.9595216E-1,4.2163533E-1,-7.016991E-2,6.6727644E-1,1.6170594E-1,7.825221E-1,-3.1190723E-1,-4.4171497E-2,-6.498394E-3,-2.7316669E-2,2.5704757E-3,-1.1270882E-2,3.6355186E-2,-3.0946491E-2,-1.9467891E-3,6.3975304E-3,5.3361822E-2,1.3508487E-2,-1.7154556E-3,5.835417E-2,3.4336727E-2,-5.2244056E-2,4.1997235E-2],"categories":[],"categories_nodes":[],"categories_segments":[],"categories_sizes":[],"default_left":[0,0,0,0,0,0,0,0,0,0,0,0,0,0,0,0,0,0,0,0,0,0,0,0,0,0,0,0,0,0,0],"id":30,"left_children":[1,3,5,7,9,11,13,15,17,19,21,23,25,27,29,-1,-1,-1,-1,-1,-1,-1,-1,-1,-1,-1,-1,-1,-1,-1,-1],"loss_changes":[4.8954144E1,1.3123094E1,1.4054432E1,8.852299E0,1.0087595E1,7.6752253E0,4.0977173E0,6.96175E0,3.3229885E0,9.819055E0,4.864909E0,7.024041E0,7.115821E0,1.3820267E0,4.35432E0,0E0,0E0,0E0,0E0,0E0,0E0,0E0,0E0,0E0,0E0,0E0,0E0,0E0,0E0,0E0,0E0],"parents":[2147483647,0,0,1,1,2,2,3,3,4,4,5,5,6,6,7,7,8,8,9,9,10,10,11,11,12,12,13,13,14,14],"right_children":[2,4,6,8,10,12,14,16,18,20,22,24,26,28,30,-1,-1,-1,-1,-1,-1,-1,-1,-1,-1,-1,-1,-1,-1,-1,-1],"split_conditions":[1.3748886E-3,-9.34694E-4,5.9627774E-3,6.0392708E-2,2.7651972E-1,5.170554E-1,5.8693275E-2,-4.7793543E-1,7.4553833E-4,2E0,-1.4576843E-1,2.8199435E-4,-5.6965114E-4,6.866898E-3,6.981249E-3,-4.4171497E-2,-6.498394E-3,-2.7316669E-2,2.5704757E-3,-1.1270882E-2,3.6355186E-2,-3.0946491E-2,-1.9467891E-3,6.3975304E-3,5.3361822E-2,1.3508487E-2,-1.7154556E-3,5.835417E-2,3.4336727E-2,-5.2244056E-2,4.1997235E-2],"split_indices":[10,10,8,6,0,0,6,3,8,12,2,8,11,9,8,0,0,0,0,0,0,0,0,0,0,0,0,0,0,0,0],"split_type":[0,0,0,0,0,0,0,0,0,0,0,0,0,0,0,0,0,0,0,0,0,0,0,0,0,0,0,0,0,0,0],"sum_hessian":[1.1429071E3,7.160573E2,4.268498E2,3.8396957E2,3.320877E2,3.6545584E2,6.139396E1,2.6548837E2,1.1848122E2,4.78487E1,2.84239E2,3.2195663E1,3.3326016E2,5.8276028E1,3.117933E0,1.19376955E1,2.5355066E2,1.0849666E2,9.98456E0,1.5428858E1,3.241984E1,1.4293706E1,2.699453E2,1.4271361E1,1.7924303E1,2.1430013E2,1.1896005E2,9.390722E0,4.8885303E1,1.9621803E0,1.1557528E0],"tree_param":{"num_deleted":"0","num_feature":"14","num_nodes":"31","size_leaf_vector":"1"}},{"base_weights":[-4.829939E-3,-2.2406188E-1,1.6976094E-1,-4.8999977E-1,-1.4984263E-1,7.255908E-2,4.6634567E-1,4.978319E-3,-6.0149527E-1,-1.01472124E-1,-5.585073E-1,1.2708713E-1,-2.714086E-1,3.4391335E-1,8.2745147E-1,2.2500249E-2,-1.712068E-2,-2.0580648E-2,-4.3121103E-2,-9.294192E-3,3.319475E-3,-3.3999916E-2,2.7059082E-2,-8.87534E-3,9.6119E-3,-3.5992075E-2,1.5250818E-3,-1.3611979E-2,1.9682975E-2,-3.0699512E-2,4.5545936E-2],"categories":[],"categories_nodes":[],"categories_segments":[],"categories_sizes":[],"default_left":[0,0,0,0,0,0,0,0,0,0,0,0,0,0,0,0,0,0,0,0,0,0,0,0,0,0,0,0,0,0,0],"id":31,"left_children":[1,3,5,7,9,11,13,15,17,19,21,23,25,27,29,-1,-1,-1,-1,-1,-1,-1,-1,-1,-1,-1,-1,-1,-1,-1,-1],"loss_changes":[4.3538628E1,9.879683E0,1.8221354E1,6.050825E0,7.764903E0,9.001873E0,6.6177483E0,3.4220557E0,4.076748E0,5.0428925E0,5.9332247E0,8.237251E0,8.922397E0,3.733305E0,5.2297363E0,0E0,0E0,0E0,0E0,0E0,0E0,0E0,0E0,0E0,0E0,0E0,0E0,0E0,0E0,0E0,0E0],"parents":[2147483647,0,0,1,1,2,2,3,3,4,4,5,5,6,6,7,7,8,8,9,9,10,10,11,11,12,12,13,13,14,14],"right_children":[2,4,6,8,10,12,14,16,18,20,22,24,26,28,30,-1,-1,-1,-1,-1,-1,-1,-1,-1,-1,-1,-1,-1,-1,-1,-1],"split_conditions":[-1.9405766E-4,-4.9389875E-3,4.3823454E-3,-1.9371748E-2,1.9088018E-1,3.7416482E-1,1.0615751E-2,1.5E1,4E0,-1.1356141E-3,9.466202E-4,1E0,3.9983582E-1,1E0,2E0,2.2500249E-2,-1.712068E-2,-2.0580648E-2,-4.3121103E-2,-9.294192E-3,3.319475E-3,-3.3999916E-2,2.7059082E-2,-8.87534E-3,9.6119E-3,-3.5992075E-2,1.5250818E-3,-1.3611979E-2,1.9682975E-2,-3.0699512E-2,4.5545936E-2],"split_indices":[9,10,10,6,2,2,9,13,12,10,10,12,2,12,13,0,0,0,0,0,0,0,0,0,0,0,0,0,0,0,0],"split_type":[0,0,0,0,0,0,0,0,0,0,0,0,0,0,0,0,0,0,0,0,0,0,0,0,0,0,0,0,0,0,0],"sum_hessian":[1.1355009E3,5.0326852E2,6.322323E2,1.0858636E2,3.9468216E2,4.771102E2,1.5512213E2,2.0138397E1,8.844796E1,3.54027E2,4.065516E1,4.123692E2,6.474099E1,1.1730309E2,3.7819035E1,8.699069E0,1.1439328E1,5.2685238E1,3.5762726E1,2.3549666E2,1.1853035E2,3.6954197E1,3.700963E0,7.235762E1,3.400116E2,2.5492384E1,3.9248604E1,8.429029E0,1.0887407E2,1.7221545E0,3.609688E1],"tree_param":{"num_deleted":"0","num_feature":"14","num_nodes":"31","size_leaf_vector":"1"}},{"base_weights":[1.1885784E-2,-1.23169415E-1,2.927814E-1,-4.0961555E-1,-5.6279223E-2,1.9780134E-1,5.92886E-1,-6.3159066E-1,-2.2146517E-1,-6.857557E-2,7.0404786E-1,9.151273E-2,4.7713256E-1,-6.311122E-1,6.453004E-1,-2.622897E-2,-5.0655015E-2,-4.2966674E-3,-2.9248906E-2,4.101106E-3,-6.2843016E-3,7.327494E-2,6.5904683E-3,5.5175867E-2,3.1036283E-3,3.0252371E-2,2.4852105E-3,3.1436465E-3,-5.380277E-2,2.3310073E-2,4.5260347E-2],"categories":[],"categories_nodes":[],"categories_segments":[],"categories_sizes":[],"default_left":[0,0,0,0,0,0,0,0,0,0,0,0,0,0,0,0,0,0,0,0,0,0,0,0,0,0,0,0,0,0,0],"id":32,"left_children":[1,3,5,7,9,11,13,15,17,19,21,23,25,27,29,-1,-1,-1,-1,-1,-1,-1,-1,-1,-1,-1,-1,-1,-1,-1,-1],"loss_changes":[4.3602566E1,1.4849956E1,1.0519642E1,5.9907665E0,5.942467E0,8.416766E0,6.1306553E0,2.1957893E0,3.9398222E0,5.354125E0,4.2174516E0,6.118278E0,4.2513027E0,1.3549563E0,3.5831947E0,0E0,0E0,0E0,0E0,0E0,0E0,0E0,0E0,0E0,0E0,0E0,0E0,0E0,0E0,0E0,0E0],"parents":[2147483647,0,0,1,1,2,2,3,3,4,4,5,5,6,6,7,7,8,8,9,9,10,10,11,11,12,12,13,13,14,14],"right_children":[2,4,6,8,10,12,14,16,18,20,22,24,26,28,30,-1,-1,-1,-1,-1,-1,-1,-1,-1,-1,-1,-1,-1,-1,-1,-1],"split_conditions":[2.1941175E-3,-4.84905E-3,5.9653413E-3,-3.9088953E-1,5.0431415E-3,5E0,2E0,1.1935725E-1,5E0,2.6226634E-1,1.5E1,-8.3959075E-3,-1.5880307E-4,4.5911717E-1,4.7931337E-1,-2.622897E-2,-5.0655015E-2,-4.2966674E-3,-2.9248906E-2,4.101106E-3,-6.2843016E-3,7.327494E-2,6.5904683E-3,5.5175867E-2,3.1036283E-3,3.0252371E-2,2.4852105E-3,3.1436465E-3,-5.380277E-2,2.3310073E-2,4.5260347E-2],"split_indices":[9,9,10,3,11,12,13,5,12,0,13,11,11,3,3,0,0,0,0,0,0,0,0,0,0,0,0,0,0,0,0],"split_type":[0,0,0,0,0,0,0,0,0,0,0,0,0,0,0,0,0,0,0,0,0,0,0,0,0,0,0,0,0,0,0],"sum_hessian":[1.1474087E3,7.752354E2,3.7217328E2,1.4579004E2,6.294454E2,2.8396146E2,8.8211815E1,6.580184E1,7.99882E1,6.20323E2,9.122328E0,2.0665468E2,7.730677E1,3.168939E0,8.504288E1,5.324261E1,1.255923E1,5.9165417E1,2.082278E1,1.7044121E2,4.498818E2,3.2442987E0,5.8780293E0,4.8105016E0,2.0184418E2,5.91805E1,1.8126274E1,1.5734687E0,1.5954705E0,5.2002327E1,3.3040554E1],"tree_param":{"num_deleted":"0","num_feature":"14","num_nodes":"31","size_leaf_vector":"1"}},{"base_weights":[-8.129727E-3,-2.7258974E-1,1.2322373E-1,-5.352413E-1,-2.0111142E-1,3.467308E-2,3.6664268E-1,-3.4476376E-1,-7.798786E-1,-1.3306814E-1,-6.9400626E-1,6.775522E-2,-2.7385333E-1,-3.0358058E-1,4.1823325E-1,4.269471E-2,-1.9499898E-2,-1.8403938E-2,-4.6135485E-2,-9.664674E-3,1.5189009E-2,2.0564746E-2,-4.03638E-2,9.0912E-3,-4.312942E-3,-3.206954E-2,1.4932518E-3,6.1805256E-2,-3.3301E-2,-1.8436857E-2,2.2850852E-2],"categories":[],"categories_nodes":[],"categories_segments":[],"categories_sizes":[],"default_left":[0,0,0,0,0,0,0,0,0,0,0,0,0,0,0,0,0,0,0,0,0,0,0,0,0,0,0,0,0,0,0],"id":33,"left_children":[1,3,5,7,9,11,13,15,17,19,21,23,25,27,29,-1,-1,-1,-1,-1,-1,-1,-1,-1,-1,-1,-1,-1,-1,-1,-1],"loss_changes":[3.9265736E1,6.9345264E0,1.626721E1,3.4422703E0,9.850462E0,5.682426E0,7.089445E0,2.8580513E0,1.6644077E0,6.944872E0,4.804632E0,8.83454E0,6.040103E0,9.177929E0,5.8879547E0,0E0,0E0,0E0,0E0,0E0,0E0,0E0,0E0,0E0,0E0,0E0,0E0,0E0,0E0,0E0,0E0],"parents":[2147483647,0,0,1,1,2,2,3,3,4,4,5,5,6,6,7,7,8,8,9,9,10,10,11,11,12,12,13,13,14,14],"right_children":[2,4,6,8,10,12,14,16,18,20,22,24,26,28,30,-1,-1,-1,-1,-1,-1,-1,-1,-1,-1,-1,-1,-1,-1,-1,-1],"split_conditions":[-1.0818538E-3,-6.933224E-3,4.5651733E-3,4E0,1.5067369E-1,4.1877836E-1,1E0,-2.7612345E-3,1.3133967E-3,-1.0377213E-3,1E0,-9.913027E-3,6.9604474E-1,4.8720795E-3,2E0,4.269471E-2,-1.9499898E-2,-1.8403938E-2,-4.6135485E-2,-9.664674E-3,1.5189009E-2,2.0564746E-2,-4.03638E-2,9.0912E-3,-4.312942E-3,-3.206954E-2,1.4932518E-3,6.1805256E-2,-3.3301E-2,-1.8436857E-2,2.2850852E-2],"split_indices":[9,9,9,12,2,3,12,11,11,10,12,6,7,9,13,0,0,0,0,0,0,0,0,0,0,0,0,0,0,0,0],"split_type":[0,0,0,0,0,0,0,0,0,0,0,0,0,0,0,0,0,0,0,0,0,0,0,0,0,0,0,0,0,0,0],"sum_hessian":[1.1283811E3,3.741043E2,7.542768E2,7.864183E1,2.9546246E2,5.5391626E2,2.0036053E2,4.5569874E1,3.307196E1,2.60738E2,3.472446E1,5.0097858E2,5.293768E1,1.3971358E1,1.8638918E2,1.0070465E0,4.4562828E1,9.438012E0,2.3633945E1,2.2963702E2,3.1100986E1,2.9831717E0,3.174129E1,2.8770935E2,2.1326926E2,2.3449291E1,2.948839E1,2.2028546E0,1.1768504E1,8.354699E0,1.7803448E2],"tree_param":{"num_deleted":"0","num_feature":"14","num_nodes":"31","size_leaf_vector":"1"}},{"base_weights":[2.5021192E-3,-1.641232E-1,2.039078E-1,-5.879676E-1,-1.3295199E-1,1.5936004E-1,8.0001336E-1,-6.3993263E-1,3.4198433E-2,-1.540638E-1,3.4191936E-1,5.975132E-1,1.17647134E-1,-2.23654E-2,8.6415976E-1,1.0824119E-3,-3.5516795E-2,-6.2289326E-3,-2.4370834E-2,-1.3974185E-2,3.0340284E-2,4.106153E-2,2.5529228E-3,-1.1872996E-2,8.327483E-3,1.8498885E-2,5.0955553E-2],"categories":[],"categories_nodes":[],"categories_segments":[],"categories_sizes":[],"default_left":[0,0,0,0,0,0,0,0,0,0,0,0,0,0,0,0,0,0,0,0,0,0,0,0,0,0,0],"id":34,"left_children":[1,3,5,7,9,11,13,15,-1,17,19,21,23,-1,25,-1,-1,-1,-1,-1,-1,-1,-1,-1,-1,-1,-1],"loss_changes":[3.8051094E1,8.119827E0,1.3504379E1,3.2280293E0,5.8603096E0,8.682297E0,3.2226543E0,1.928585E0,0E0,5.3975296E0,4.279442E0,5.0172386E0,7.654579E0,0E0,2.230587E0,0E0,0E0,0E0,0E0,0E0,0E0,0E0,0E0,0E0,0E0,0E0,0E0],"parents":[2147483647,0,0,1,1,2,2,3,3,4,4,5,5,6,6,7,7,9,9,10,10,11,11,12,12,14,14],"right_children":[2,4,6,8,10,12,14,16,-1,18,20,22,24,-1,26,-1,-1,-1,-1,-1,-1,-1,-1,-1,-1,-1,-1],"split_conditions":[7.308076E-4,-9.092603E-3,1.0615751E-2,4.610698E-1,9.466202E-4,2.8713736E-1,2E0,-2.1009207E-2,3.4198433E-2,1.9401169E-1,2E0,3.202889E-1,1.8898773E-1,-2.23654E-2,4.534068E-1,1.0824119E-3,-3.5516795E-2,-6.2289326E-3,-2.4370834E-2,-1.3974185E-2,3.0340284E-2,4.106153E-2,2.5529228E-3,-1.1872996E-2,8.327483E-3,1.8498885E-2,5.0955553E-2],"split_indices":[9,9,9,5,10,0,13,6,0,2,12,3,3,0,3,0,0,0,0,0,0,0,0,0,0,0,0],"split_type":[0,0,0,0,0,0,0,0,0,0,0,0,0,0,0,0,0,0,0,0,0,0,0,0,0,0,0],"sum_hessian":[1.1318496E3,6.195082E2,5.1234143E2,4.1216248E1,5.7829193E2,4.7789502E2,3.44464E1,4.007583E1,1.1404176E0,5.543234E2,2.3968533E1,4.0383327E1,4.375117E2,1.3926783E0,3.3053722E1,3.9211586E0,3.615467E1,5.1053973E2,4.3783672E1,7.1470327E0,1.68215E1,2.8296124E1,1.2087202E1,5.2490993E1,3.850207E2,8.698744E0,2.4354979E1],"tree_param":{"num_deleted":"0","num_feature":"14","num_nodes":"27","size_leaf_vector":"1"}},{"base_weights":[5.822861E-3,-2.524476E-1,1.3418096E-1,-6.6132563E-1,-1.9694155E-1,8.6819425E-2,6.3343227E-1,6.289374E-1,-7.6414496E-1,-1.4537944E-1,-5.44716E-1,1.7903437E-1,-7.137277E-2,-5.225094E-1,6.828724E-1,6.640535E-2,-4.9964506E-3,-4.10379E-2,2.8949235E-2,-9.837052E-3,2.8205672E-2,-3.2367956E-2,3.6193755E-2,-5.4621235E-3,1.1436327E-2,-1.9932128E-3,-4.9091965E-2,1.4369063E-2,-5.0917763E-2,2.2100847E-2,4.6018165E-2],"categories":[],"categories_nodes":[],"categories_segments":[],"categories_sizes":[],"default_left":[0,0,0,0,0,0,0,0,0,0,0,0,0,0,0,0,0,0,0,0,0,0,0,0,0,0,0,0,0,0,0],"id":35,"left_children":[1,3,5,7,9,11,13,15,17,19,21,23,25,27,29,-1,-1,-1,-1,-1,-1,-1,-1,-1,-1,-1,-1,-1,-1,-1,-1],"loss_changes":[3.7422302E1,8.375359E0,1.7774588E1,6.3670807E0,5.8635387E0,1.0076346E1,4.0815887E0,2.08115E0,3.6344452E0,1.0677952E1,5.9930677E0,6.272192E0,7.269434E0,1.5936868E0,3.1931744E0,0E0,0E0,0E0,0E0,0E0,0E0,0E0,0E0,0E0,0E0,0E0,0E0,0E0,0E0,0E0,0E0],"parents":[2147483647,0,0,1,1,2,2,3,3,4,4,5,5,6,6,7,7,8,8,9,9,10,10,11,11,12,12,13,13,14,14],"right_children":[2,4,6,8,10,12,14,16,18,20,22,24,26,28,30,-1,-1,-1,-1,-1,-1,-1,-1,-1,-1,-1,-1,-1,-1,-1,-1],"split_conditions":[-1.0414891E-3,-8.780065E-3,5.6582764E-3,-1.5062627E-3,5.507616E-1,-1.8139044E-4,2E0,4E0,7.268601E-5,4.690561E-4,3.5776852E-3,1E0,9.409721E-1,9.581971E-1,9.574549E-3,6.640535E-2,-4.9964506E-3,-4.10379E-2,2.8949235E-2,-9.837052E-3,2.8205672E-2,-3.2367956E-2,3.6193755E-2,-5.4621235E-3,1.1436327E-2,-1.9932128E-3,-4.9091965E-2,1.4369063E-2,-5.0917763E-2,2.2100847E-2,4.6018165E-2],"split_indices":[9,9,8,11,5,11,13,12,8,8,8,12,1,1,9,0,0,0,0,0,0,0,0,0,0,0,0,0,0,0,0],"split_type":[0,0,0,0,0,0,0,0,0,0,0,0,0,0,0,0,0,0,0,0,0,0,0,0,0,0,0,0,0,0,0],"sum_hessian":[1.1268182E3,3.737752E2,7.530431E2,4.3371353E1,3.3040384E2,6.888675E2,6.4175606E1,2.823448E0,4.0547905E1,2.889772E2,4.1426632E1,4.351019E2,2.537656E2,2.2397728E0,6.193583E1,1.021456E0,1.8019919E0,3.9281128E1,1.2667794E0,2.7014368E2,1.8833534E1,3.877871E1,2.6479247E0,6.3797592E1,3.713043E2,2.4628616E2,7.4794407E0,1.0101936E0,1.2295791E0,3.217062E1,2.976521E1],"tree_param":{"num_deleted":"0","num_feature":"14","num_nodes":"31","size_leaf_vector":"1"}},{"base_weights":[-2.0730078E-2,-1.7307569E-1,1.6215612E-1,-4.7659814E-1,-1.305736E-1,1.19779274E-1,7.4767363E-1,3.2964593E-1,-5.470837E-1,-1.3998531E-1,6.0694605E-2,3.638385E-1,6.705168E-2,-3.2084838E-2,8.370093E-1,-1.7644221E-2,8.166759E-2,-2.3165066E-2,-4.6954084E-2,-4.448592E-3,-1.7737724E-2,1.0810927E-2,3.844134E-2,-3.0426934E-2,5.52132E-3,2.0029137E-2,4.80164E-2],"categories":[],"categories_nodes":[],"categories_segments":[],"categories_sizes":[],"default_left":[0,0,0,0,0,0,0,0,0,0,0,0,0,0,0,0,0,0,0,0,0,0,0,0,0,0,0],"id":36,"left_children":[1,3,5,7,9,11,13,15,17,19,-1,21,23,-1,25,-1,-1,-1,-1,-1,-1,-1,-1,-1,-1,-1,-1],"loss_changes":[3.132945E1,7.850603E0,1.2591189E1,4.440445E0,6.9955683E0,6.123785E0,4.794588E0,6.4944077E0,1.8413486E0,5.847104E0,0E0,4.8947725E0,1.1616007E1,0E0,1.3732109E0,0E0,0E0,0E0,0E0,0E0,0E0,0E0,0E0,0E0,0E0,0E0,0E0],"parents":[2147483647,0,0,1,1,2,2,3,3,4,4,5,5,6,6,7,7,8,8,9,9,11,11,12,12,14,14],"right_children":[2,4,6,8,10,12,14,16,18,20,-1,22,24,-1,26,-1,-1,-1,-1,-1,-1,-1,-1,-1,-1,-1,-1],"split_conditions":[7.308076E-4,-4.1250515E-1,1.0615751E-2,-2.7080502E-3,4.203793E-3,5.635179E-1,2E0,-3.2782613E-3,-2.1962842E-3,2.6E1,6.0694605E-2,5.204145E-4,4.360288E-1,-3.2084838E-2,4.534068E-1,-1.7644221E-2,8.166759E-2,-2.3165066E-2,-4.6954084E-2,-4.448592E-3,-1.7737724E-2,1.0810927E-2,3.844134E-2,-3.0426934E-2,5.52132E-3,2.0029137E-2,4.80164E-2],"split_indices":[9,3,9,11,8,0,13,11,8,13,0,8,7,0,3,0,0,0,0,0,0,0,0,0,0,0,0],"split_type":[0,0,0,0,0,0,0,0,0,0,0,0,0,0,0,0,0,0,0,0,0,0,0,0,0,0,0],"sum_hessian":[1.1224471E3,6.1238196E2,5.1006525E2,7.396416E1,5.384178E2,4.76764E2,3.3301235E1,5.65082E0,6.831334E1,5.355645E2,2.8532503E0,8.365436E1,3.9310965E2,1.6383431E0,3.1662891E1,4.1877337E0,1.4630862E0,5.8081406E1,1.0231934E1,4.339128E2,1.0165173E2,6.2431644E1,2.1222713E1,2.2929985E1,3.701797E2,7.911682E0,2.375121E1],"tree_param":{"num_deleted":"0","num_feature":"14","num_nodes":"27","size_leaf_vector":"1"}},{"base_weights":[7.6147686E-3,-2.3968142E-1,1.309214E-1,-2.5247905E-1,8.199876E-1,8.936917E-2,6.262712E-1,-8.4798014E-1,-2.3018041E-1,1.1992959E0,-8.077102E-3,4.7477192E-1,5.106878E-2,4.9953687E-1,4.982837E-2,-4.8630245E-2,-9.452416E-3,-8.763378E-3,-2.4815872E-2,7.426629E-2,2.1121092E-2,-1.1861222E-2,3.231054E-2,-4.078613E-3,6.935607E-3,2.7769938E-2,-3.0134604E-3],"categories":[],"categories_nodes":[],"categories_segments":[],"categories_sizes":[],"default_left":[0,0,0,0,0,0,0,0,0,0,0,0,0,0,0,0,0,0,0,0,0,0,0,0,0,0,0],"id":37,"left_children":[1,3,5,7,9,11,13,15,17,19,-1,21,23,25,-1,-1,-1,-1,-1,-1,-1,-1,-1,-1,-1,-1,-1],"loss_changes":[3.4060226E1,5.2470665E0,1.5284388E1,4.691162E0,1.932492E0,1.0142927E1,2.2012634E0,8.762188E-1,5.1167507E0,1.4746046E-1,0E0,7.738537E0,7.3077083E0,1.4361372E0,0E0,0E0,0E0,0E0,0E0,0E0,0E0,0E0,0E0,0E0,0E0,0E0,0E0],"parents":[2147483647,0,0,1,1,2,2,3,3,4,4,5,5,6,6,7,7,8,8,9,9,11,11,12,12,13,13],"right_children":[2,4,6,8,10,12,14,16,18,20,-1,22,24,26,-1,-1,-1,-1,-1,-1,-1,-1,-1,-1,-1,-1,-1],"split_conditions":[-9.34694E-4,6.556332E-1,5.9627774E-3,-4.7793543E-1,-1.9405766E-4,2.7651972E-1,1.2750852E-2,5.2020466E-3,4.4387156E-1,-2.6967347E-4,-8.077102E-3,1E0,9.668221E-4,1.1841561E-2,4.982837E-2,-4.8630245E-2,-9.452416E-3,-8.763378E-3,-2.4815872E-2,7.426629E-2,2.1121092E-2,-1.1861222E-2,3.231054E-2,-4.078613E-3,6.935607E-3,2.7769938E-2,-3.0134604E-3],"split_indices":[10,1,8,3,9,0,9,11,0,11,0,12,8,9,0,0,0,0,0,0,0,0,0,0,0,0,0],"split_type":[0,0,0,0,0,0,0,0,0,0,0,0,0,0,0,0,0,0,0,0,0,0,0,0,0,0,0],"sum_hessian":[1.1149465E3,3.7065E2,7.4429663E2,3.669797E2,3.6702774E0,6.8778265E2,5.651396E1,1.1909142E1,3.550706E2,2.487232E0,1.1830453E0,6.114157E1,6.2664105E2,4.3853924E1,1.2660038E1,9.614672E0,2.2944694E0,2.9571365E2,5.9356926E1,1.1513875E0,1.3358445E0,1.179063E1,4.935094E1,2.4934584E2,3.7729523E2,3.988205E1,3.971875E0],"tree_param":{"num_deleted":"0","num_feature":"14","num_nodes":"27","size_leaf_vector":"1"}},{"base_weights":[-2.7890448E-3,-7.353579E-2,3.4131226E-1,-4.3776467E-1,-3.604712E-2,2.8474393E-1,8.690928E-1,-6.5821665E-3,-5.2113307E-1,5.1978756E-2,-1.3455828E-1,-2.556636E-1,3.3123675E-1,1.7850125E-1,9.5395803E-1,-3.994442E-2,2.3218362E-2,-3.2375675E-2,-6.6673025E-3,4.790181E-3,-1.6487775E-2,-3.9823618E-2,-6.022497E-3,5.6665283E-2,-2.8185477E-2,-5.756634E-3,1.8997047E-2,-1.69093E-2,3.0592201E-2,5.0277352E-2,1.2317652E-2],"categories":[],"categories_nodes":[],"categories_segments":[],"categories_sizes":[],"default_left":[0,0,0,0,0,0,0,0,0,0,0,0,0,0,0,0,0,0,0,0,0,0,0,0,0,0,0,0,0,0,0],"id":38,"left_children":[1,3,5,7,9,11,13,15,17,19,21,23,25,27,29,-1,-1,-1,-1,-1,-1,-1,-1,-1,-1,-1,-1,-1,-1,-1,-1],"loss_changes":[2.7197117E1,1.2637016E1,5.4407616E0,3.1018677E0,7.3019786E0,4.445586E0,8.821039E-1,5.9714155E0,3.460722E0,7.4760857E0,3.613914E0,6.7633343E0,3.5276737E0,9.223618E-1,3.2763863E-1,0E0,0E0,0E0,0E0,0E0,0E0,0E0,0E0,0E0,0E0,0E0,0E0,0E0,0E0,0E0,0E0],"parents":[2147483647,0,0,1,1,2,2,3,3,4,4,5,5,6,6,7,7,8,8,9,9,10,10,11,11,12,12,13,13,14,14],"right_children":[2,4,6,8,10,12,14,16,18,20,22,24,26,28,30,-1,-1,-1,-1,-1,-1,-1,-1,-1,-1,-1,-1,-1,-1,-1,-1],"split_conditions":[4.5651733E-3,-3.9916652E-1,1.0141701E-2,-2.1009207E-2,-1.12354755E-4,1E0,1.1841561E-2,-4.1839898E-2,-4.5140292E-3,4.1877836E-1,-1.0563126E-2,4.8720795E-3,3.1484696E-3,9.111327E-1,6.322034E-1,-3.994442E-2,2.3218362E-2,-3.2375675E-2,-6.6673025E-3,4.790181E-3,-1.6487775E-2,-3.9823618E-2,-6.022497E-3,5.6665283E-2,-2.8185477E-2,-5.756634E-3,1.8997047E-2,-1.69093E-2,3.0592201E-2,5.0277352E-2,1.2317652E-2],"split_indices":[9,3,10,6,6,12,9,6,9,3,9,9,10,0,3,0,0,0,0,0,0,0,0,0,0,0,0,0,0,0,0],"split_type":[0,0,0,0,0,0,0,0,0,0,0,0,0,0,0,0,0,0,0,0,0,0,0,0,0,0,0,0,0,0,0],"sum_hessian":[1.1151666E3,9.256422E2,1.8952444E2,8.538542E1,8.4025684E2,1.7256787E2,1.6956577E1,1.4009099E1,7.137632E1,4.4399335E2,3.9626346E2,1.3313998E1,1.5925388E2,2.1953382E0,1.4761238E1,4.963079E0,9.0460205E0,5.332715E1,1.8049173E1,3.98942E2,4.505136E1,7.1125693E0,3.8915088E2,1.9304857E0,1.13835125E1,1.5532844E1,1.4372102E2,1.1015344E0,1.0938039E0,1.3365731E1,1.3955072E0],"tree_param":{"num_deleted":"0","num_feature":"14","num_nodes":"31","size_leaf_vector":"1"}},{"base_weights":[-3.5679752E-3,-2.1424398E-1,1.0074712E-1,-8.8514197E-1,-1.8466796E-1,6.024346E-2,4.2202568E-1,-3.416968E-1,-9.835036E-1,-7.390372E-2,-3.2701847E-1,1.0789387E-1,-1.7678423E-1,-5.0189483E-1,4.6822906E-1,1.0740848E-2,-3.520601E-2,-5.2625466E-2,-1.2883914E-2,-5.151745E-3,3.9815944E-2,-1.4703517E-2,-6.0827743E-2,-2.5600397E-3,8.841615E-3,-3.39445E-2,-2.1903857E-3,7.3354803E-3,-4.9205676E-2,-2.5260756E-2,2.5754182E-2],"categories":[],"categories_nodes":[],"categories_segments":[],"categories_sizes":[],"default_left":[0,0,0,0,0,0,0,0,0,0,0,0,0,0,0,0,0,0,0,0,0,0,0,0,0,0,0,0,0,0,0],"id":39,"left_children":[1,3,5,7,9,11,13,15,17,19,21,23,25,27,29,-1,-1,-1,-1,-1,-1,-1,-1,-1,-1,-1,-1,-1,-1,-1,-1],"loss_changes":[2.4340933E1,7.114565E0,9.614672E0,4.7768784E-1,5.534873E0,7.4625363E0,3.7683601E0,9.308993E-1,3.4774685E-1,5.141366E0,4.1555576E0,6.0341315E0,7.3608923E0,1.5282992E0,3.8792477E0,0E0,0E0,0E0,0E0,0E0,0E0,0E0,0E0,0E0,0E0,0E0,0E0,0E0,0E0,0E0,0E0],"parents":[2147483647,0,0,1,1,2,2,3,3,4,4,5,5,6,6,7,7,8,8,9,9,10,10,11,11,12,12,13,13,14,14],"right_children":[2,4,6,8,10,12,14,16,18,20,22,24,26,28,30,-1,-1,-1,-1,-1,-1,-1,-1,-1,-1,-1,-1,-1,-1,-1,-1],"split_conditions":[-9.34694E-4,-1.2148789E-2,5.8125514E-3,6E0,7.1226954E-3,3.4507012E-1,2E0,-1.14341555E-2,2.8E1,2.237576E-3,-1.0377213E-3,2E0,8.987735E-4,9.6065664E-1,1.2638783E-1,1.0740848E-2,-3.520601E-2,-5.2625466E-2,-1.2883914E-2,-5.151745E-3,3.9815944E-2,-1.4703517E-2,-6.0827743E-2,-2.5600397E-3,8.841615E-3,-3.39445E-2,-2.1903857E-3,7.3354803E-3,-4.9205676E-2,-2.5260756E-2,2.5754182E-2],"split_indices":[10,9,10,13,6,2,13,8,13,6,10,12,8,1,2,0,0,0,0,0,0,0,0,0,0,0,0,0,0,0,0],"split_type":[0,0,0,0,0,0,0,0,0,0,0,0,0,0,0,0,0,0,0,0,0,0,0,0,0,0,0,0,0,0,0],"sum_hessian":[1.1055974E3,3.6578995E2,7.398075E2,1.4223288E1,3.5156668E2,6.5803625E2,8.177127E1,2.865479E0,1.1357808E1,1.9857376E2,1.5299292E2,5.4834546E2,1.0969077E2,3.424734E0,7.834654E1,1.2907553E0,1.5747238E0,9.960734E0,1.3970742E0,1.9299475E2,5.5790076E0,1.4881157E2,4.181341E0,1.6585231E2,3.8249313E2,2.2107975E1,8.7582794E1,1.7571092E0,1.6676248E0,3.1486185E0,7.519792E1],"tree_param":{"num_deleted":"0","num_feature":"14","num_nodes":"31","size_leaf_vector":"1"}},{"base_weights":[1.6425144E-2,-1.8985713E-1,1.16110586E-1,-8.122252E-1,-1.56954E-1,7.9812475E-2,5.96343E-1,-5.497666E-3,-8.476584E-1,-1.07699245E-1,-5.9685135E-1,-6.548065E-2,1.453325E-1,4.7095665E-1,9.660556E-1,-2.8943313E-2,-5.1297236E-2,1.3037442E-3,-1.3628326E-2,-5.264181E-2,-1.1727453E-2,-2.410484E-2,2.365572E-3,2.060108E-2,3.3229254E-3,4.328575E-2,1.5320455E-2,1.3690612E-2,5.148339E-2],"categories":[],"categories_nodes":[],"categories_segments":[],"categories_sizes":[],"default_left":[0,0,0,0,0,0,0,0,0,0,0,0,0,0,0,0,0,0,0,0,0,0,0,0,0,0,0,0,0],"id":40,"left_children":[1,3,5,7,9,11,13,-1,15,17,19,21,23,25,27,-1,-1,-1,-1,-1,-1,-1,-1,-1,-1,-1,-1,-1,-1],"loss_changes":[2.2722866E1,7.245554E0,1.29370985E1,3.5071278E-1,7.37206E0,6.6133204E0,1.9644699E0,0E0,2.12821E-1,6.8412995E0,5.4260178E0,1.0186526E1,1.0035991E1,2.3930845E0,2.582245E-1,0E0,0E0,0E0,0E0,0E0,0E0,0E0,0E0,0E0,0E0,0E0,0E0,0E0,0E0],"parents":[2147483647,0,0,1,1,2,2,3,3,4,4,5,5,6,6,8,8,9,9,10,10,11,11,12,12,13,13,14,14],"right_children":[2,4,6,8,10,12,14,-1,16,18,20,22,24,26,28,-1,-1,-1,-1,-1,-1,-1,-1,-1,-1,-1,-1,-1,-1],"split_conditions":[-1.0818538E-3,-1.1421494E-2,5.9627774E-3,-5.7665944E-2,-1.3662649E-3,2E0,1.2750852E-2,-5.497666E-3,-1.1493592E-2,4E0,-1.2394573E-3,4.5125878E-1,4.4827586E-1,6.98345E-3,4E0,-2.8943313E-2,-5.1297236E-2,1.3037442E-3,-1.3628326E-2,-5.264181E-2,-1.1727453E-2,-2.410484E-2,2.365572E-3,2.060108E-2,3.3229254E-3,4.328575E-2,1.5320455E-2,1.3690612E-2,5.148339E-2],"split_indices":[9,9,8,6,9,12,9,0,10,12,9,5,0,9,13,0,0,0,0,0,0,0,0,0,0,0,0,0,0],"split_type":[0,0,0,0,0,0,0,0,0,0,0,0,0,0,0,0,0,0,0,0,0,0,0,0,0,0,0,0,0],"sum_hessian":[1.1029463E3,3.590494E2,7.43897E2,1.6839624E1,3.4220978E2,6.927054E2,5.1191578E1,1.0059137E0,1.5833711E1,3.0887073E2,3.3339046E1,2.1529073E2,4.7741464E2,3.992503E1,1.1266546E1,8.007735E0,7.8259754E0,1.709792E2,1.3789153E2,1.3917216E1,1.9421831E1,4.5170788E1,1.7011993E2,1.0800474E2,3.694099E2,1.04922905E1,2.9432741E1,1.3945975E0,9.871948E0],"tree_param":{"num_deleted":"0","num_feature":"14","num_nodes":"29","size_leaf_vector":"1"}},{"base_weights":[-7.3633366E-3,-7.382113E-2,2.664149E-1,-3.3573687E-2,-3.2515517E-1,8.473726E-1,2.1377742E-1,-4.92675E-2,-2.5743261E-2,-3.510035E-1,4.468294E-2,1.1526413E0,2.264287E-1,1.6662608E-1,9.5608556E-1,-9.5032033E-4,-4.2979952E-2,-2.2857204E-2,-8.5435715E-4,1.0032597E-2,6.1591424E-2,-1.9821811E-2,2.909158E-2,-4.0397383E-2,9.928072E-3,1.3279769E-2,5.1128615E-2],"categories":[],"categories_nodes":[],"categories_segments":[],"categories_sizes":[],"default_left":[0,0,0,0,0,0,0,0,0,0,0,0,0,0,0,0,0,0,0,0,0,0,0,0,0,0,0],"id":41,"left_children":[1,3,5,7,9,11,13,-1,15,17,-1,19,21,23,25,-1,-1,-1,-1,-1,-1,-1,-1,-1,-1,-1,-1],"loss_changes":[2.0100168E1,8.980345E0,6.417754E0,5.6930313E0,4.175314E0,3.0732613E0,6.812873E0,0E0,4.2645063E0,4.2717257E0,0E0,6.233816E-1,1.7895098E0,6.0276155E0,2.649145E-1,0E0,0E0,0E0,0E0,0E0,0E0,0E0,0E0,0E0,0E0,0E0,0E0],"parents":[2147483647,0,0,1,1,2,2,3,3,4,4,5,5,6,6,8,8,9,9,11,11,12,12,13,13,14,14],"right_children":[2,4,6,8,10,12,14,-1,16,18,-1,20,22,24,26,-1,-1,-1,-1,-1,-1,-1,-1,-1,-1,-1,-1],"split_conditions":[3.1484696E-3,2.7638276E-3,6.112268E-1,-4.7793543E-1,3.1E1,5.09144E-3,1.1143068E-2,-4.92675E-2,3.107551E-3,1.3393456E-3,4.468294E-2,4.7566938E-1,8.913702E-1,6.5388614E-1,4E0,-9.5032033E-4,-4.2979952E-2,-2.2857204E-2,-8.5435715E-4,1.0032597E-2,6.1591424E-2,-1.9821811E-2,2.909158E-2,-4.0397383E-2,9.928072E-3,1.3279769E-2,5.1128615E-2],"split_indices":[10,11,0,3,13,10,10,0,10,8,0,5,1,0,13,0,0,0,0,0,0,0,0,0,0,0,0],"split_type":[0,0,0,0,0,0,0,0,0,0,0,0,0,0,0,0,0,0,0,0,0,0,0,0,0,0,0],"sum_hessian":[1.1026456E3,8.878553E2,2.147904E2,7.6628033E2,1.2157492E2,1.6589918E1,1.9820049E2,5.234208E0,7.6104614E2,1.1974736E2,1.8275622E0,1.0548022E1,6.0418963E0,1.8751408E2,1.0686407E1,7.5596136E2,5.084739E0,9.058458E1,2.916278E1,1.0813925E0,9.46663E0,2.153065E0,3.8888314E0,5.1786065E0,1.8233548E2,1.3773022E0,9.309105E0],"tree_param":{"num_deleted":"0","num_feature":"14","num_nodes":"27","size_leaf_vector":"1"}},{"base_weights":[2.2497992E-3,-9.116197E-2,2.0100781E-1,-3.5524637E-1,-5.792021E-2,1.416661E-1,5.510498E-1,-4.6405748E-1,2.4402873E-1,-9.729903E-2,1.2784235E-1,5.862801E-2,3.7748212E-1,-3.9421447E-2,6.1924416E-1,-1.8476628E-2,-5.063483E-2,-1.5909329E-2,3.7439656E-2,-2.4015328E-3,-1.791289E-2,4.4977613E-2,1.0521134E-3,4.5470954E-3,-3.1068498E-2,2.7891038E-2,-1.5852759E-2,4.590265E-2,2.2555294E-2],"categories":[],"categories_nodes":[],"categories_segments":[],"categories_sizes":[],"default_left":[0,0,0,0,0,0,0,0,0,0,0,0,0,0,0,0,0,0,0,0,0,0,0,0,0,0,0,0,0],"id":42,"left_children":[1,3,5,7,9,11,13,15,17,19,21,23,25,-1,27,-1,-1,-1,-1,-1,-1,-1,-1,-1,-1,-1,-1,-1,-1],"loss_changes":[2.0302923E1,6.510097E0,7.1842403E0,5.524065E0,4.854681E0,5.857981E0,5.0858364E0,3.2856226E0,4.0428534E0,7.01222E0,9.559113E0,4.9624476E0,9.948834E0,0E0,2.020258E0,0E0,0E0,0E0,0E0,0E0,0E0,0E0,0E0,0E0,0E0,0E0,0E0,0E0,0E0],"parents":[2147483647,0,0,1,1,2,2,3,3,4,4,5,5,6,6,7,7,8,8,9,9,10,10,11,11,12,12,14,14],"right_children":[2,4,6,8,10,12,14,16,18,20,22,24,26,-1,28,-1,-1,-1,-1,-1,-1,-1,-1,-1,-1,-1,-1,-1,-1],"split_conditions":[2.1941175E-3,-3.9916652E-1,5.9627774E-3,-3.2455195E-3,6E0,5E0,2.4247736E-1,-1.9999973E-3,-1.0970081E-3,5E0,-1.5353912E-1,8.012046E-4,-6.997071E-3,-3.9421447E-2,-7.9247594E-2,-1.8476628E-2,-5.063483E-2,-1.5909329E-2,3.7439656E-2,-2.4015328E-3,-1.791289E-2,4.4977613E-2,1.0521134E-3,4.5470954E-3,-3.1068498E-2,2.7891038E-2,-1.5852759E-2,4.590265E-2,2.2555294E-2],"split_indices":[9,3,8,9,12,12,3,8,11,12,6,11,6,0,6,0,0,0,0,0,0,0,0,0,0,0,0,0,0],"split_type":[0,0,0,0,0,0,0,0,0,0,0,0,0,0,0,0,0,0,0,0,0,0,0,0,0,0,0,0,0],"sum_hessian":[1.0915471E3,7.4292883E2,3.4861835E2,8.197816E1,6.609506E2,2.9928592E2,4.9332447E1,6.9571594E1,1.2406562E1,5.4573865E2,1.1521201E2,2.2226733E2,7.701857E1,1.8782464E0,4.74542E1,6.0774338E1,8.797255E0,6.0441337E0,6.3624287E0,4.6006378E2,8.567486E1,1.3103893E1,1.0210812E2,2.1301118E2,9.256153E0,6.129896E1,1.5719611E1,1.5481312E1,3.1972889E1],"tree_param":{"num_deleted":"0","num_feature":"14","num_nodes":"29","size_leaf_vector":"1"}},{"base_weights":[-3.0011362E-3,-1.1157545E-1,1.6499487E-1,-5.370255E-1,-8.269741E-2,1.2929584E-1,6.8205E-1,-7.268075E-2,-6.4660585E-1,-5.4624993E-2,-5.8718467E-1,7.326855E-1,1.0859255E-1,1.264401E-1,8.5538036E-1,3.03994E-2,-3.7706938E-2,-3.4436986E-2,1.7937867E-2,-3.3429351E-3,4.342766E-2,3.1693142E-2,-3.7315525E-2,4.5378543E-2,-2.1682974E-2,2.4841508E-2,4.030932E-3,3.4529846E-2,-7.666781E-2,2.9054353E-2,5.1833272E-2],"categories":[],"categories_nodes":[],"categories_segments":[],"categories_sizes":[],"default_left":[0,0,0,0,0,0,0,0,0,0,0,0,0,0,0,0,0,0,0,0,0,0,0,0,0,0,0,0,0,0,0],"id":43,"left_children":[1,3,5,7,9,11,13,15,17,19,21,23,25,27,29,-1,-1,-1,-1,-1,-1,-1,-1,-1,-1,-1,-1,-1,-1,-1,-1],"loss_changes":[1.995924E1,8.121732E0,7.8412075E0,2.0934134E0,8.799405E0,4.9556785E0,2.541191E0,4.7065215E0,1.6833878E0,6.74211E0,6.8399982E0,3.085516E0,4.205054E0,8.283095E0,4.3165684E-1,0E0,0E0,0E0,0E0,0E0,0E0,0E0,0E0,0E0,0E0,0E0,0E0,0E0,0E0,0E0,0E0],"parents":[2147483647,0,0,1,1,2,2,3,3,4,4,5,5,6,6,7,7,8,8,9,9,10,10,11,11,12,12,13,13,14,14],"right_children":[2,4,6,8,10,12,14,16,18,20,22,24,26,28,30,-1,-1,-1,-1,-1,-1,-1,-1,-1,-1,-1,-1,-1,-1,-1,-1],"split_conditions":[9.668221E-4,-8.527285E-3,1.0615751E-2,6E0,2.799468E-1,4.7818685E-1,4.534068E-1,7.457088E-2,-4.5148187E-4,7.1145473E-3,-1.6805976E-5,4.6089315E-1,3E0,4.4284302E-1,1.3E1,3.03994E-2,-3.7706938E-2,-3.4436986E-2,1.7937867E-2,-3.3429351E-3,4.342766E-2,3.1693142E-2,-3.7315525E-2,4.5378543E-2,-2.1682974E-2,2.4841508E-2,4.030932E-3,3.4529846E-2,-7.666781E-2,2.9054353E-2,5.1833272E-2],"split_indices":[8,9,9,13,2,0,3,0,8,9,8,3,13,3,13,0,0,0,0,0,0,0,0,0,0,0,0,0,0,0,0],"split_type":[0,0,0,0,0,0,0,0,0,0,0,0,0,0,0,0,0,0,0,0,0,0,0,0,0,0,0,0,0,0,0],"sum_hessian":[1.0922441E3,6.6366156E2,4.2858267E2,4.1065254E1,6.2259625E2,4.0207245E2,2.6510216E1,8.158219E0,3.2907036E1,5.908277E2,3.1768587E1,1.2197289E1,3.8987515E2,6.7149487E0,1.9795267E1,4.1354113E0,4.0228086E0,3.188567E1,1.0213654E0,5.8401605E2,6.811648E0,3.31876E0,2.8449827E1,1.0799802E1,1.397488E0,2.5077333E1,3.6479782E2,5.447348E0,1.2676008E0,9.550405E0,1.0244863E1],"tree_param":{"num_deleted":"0","num_feature":"14","num_nodes":"31","size_leaf_vector":"1"}},{"base_weights":[2.0244224E-2,-1.3857594E-1,1.1109011E-1,-6.427115E-2,-4.5449254E-1,9.434384E-2,8.587203E-1,-1.330451E-1,2.8590238E-1,-9.163448E-1,-3.372658E-1,1.8407595E-1,-2.1186916E-2,4.7982983E-2,2.561036E-1,-3.6255096E-3,-2.2658346E-2,-2.4952369E-2,2.6419733E-2,-2.8130522E-2,-5.64061E-2,1.9006139E-3,-2.3363346E-2,5.744713E-3,1.831593E-2,2.2849122E-3,-1.859967E-2,3.3955447E-2,-1.8690681E-2],"categories":[],"categories_nodes":[],"categories_segments":[],"categories_sizes":[],"default_left":[0,0,0,0,0,0,0,0,0,0,0,0,0,0,0,0,0,0,0,0,0,0,0,0,0,0,0,0,0],"id":44,"left_children":[1,3,5,7,9,11,13,15,17,19,21,23,25,-1,27,-1,-1,-1,-1,-1,-1,-1,-1,-1,-1,-1,-1,-1,-1],"loss_changes":[1.5899311E1,9.384566E0,8.693876E0,7.8849444E0,3.816409E0,7.1221495E0,6.80727E-1,5.2579613E0,1.0505258E1,4.7722435E-1,3.0598497E0,4.8317604E0,7.0811186E0,0E0,1.1995951E0,0E0,0E0,0E0,0E0,0E0,0E0,0E0,0E0,0E0,0E0,0E0,0E0,0E0,0E0],"parents":[2147483647,0,0,1,1,2,2,3,3,4,4,5,5,6,6,7,7,8,8,9,9,10,10,11,11,12,12,14,14],"right_children":[2,4,6,8,10,12,14,16,18,20,22,24,26,-1,28,-1,-1,-1,-1,-1,-1,-1,-1,-1,-1,-1,-1,-1,-1],"split_conditions":[-6.7437335E-4,1.22526735E-1,1.0141701E-2,6E0,1.487397E-1,-1.8139044E-4,5E0,5E0,-3.9773197E-3,-2.8526492E-3,2.0940802E-3,5E0,3.407266E-1,4.7982983E-2,-2.3492388E-3,-3.6255096E-3,-2.2658346E-2,-2.4952369E-2,2.6419733E-2,-2.8130522E-2,-5.64061E-2,1.9006139E-3,-2.3363346E-2,5.744713E-3,1.831593E-2,2.2849122E-3,-1.859967E-2,3.3955447E-2,-1.8690681E-2],"split_indices":[10,6,10,12,6,11,12,12,10,10,11,12,2,0,11,0,0,0,0,0,0,0,0,0,0,0,0,0,0],"split_type":[0,0,0,0,0,0,0,0,0,0,0,0,0,0,0,0,0,0,0,0,0,0,0,0,0,0,0,0,0],"sum_hessian":[1.0998971E3,4.0002792E2,6.9986914E2,3.2483008E2,7.5197845E1,6.8563763E2,1.4231498E1,2.720246E2,5.2805477E1,1.3842806E1,6.1355038E1,3.8557236E2,3.0006528E2,1.1682218E1,2.5492797E0,2.2979665E2,4.2227947E1,1.221321E1,